tree
version=v4
num_class=1
num_tree_per_iteration=1
label_index=0
max_feature_idx=91
objective=binary sigmoid:1
feature_names=volume_vox_raw aspect_zy aspect_zx aspect_yx solidity_raw bbox_occupancy_raw volume_vox_opened frac_kept_opening solidity_opened c405_raw_mean c405_raw_std c405_raw_p10 c405_raw_p50 c405_raw_p90 c405_opened_mean c405_opened_std c405_opened_p10 c405_opened_p50 c405_opened_p90 c405_core_p50_opened c405_shell_p50_opened c405_shell_minus_core_p50 c405_shell_minus_core_p90 c405_outside_p50 c405_inside_minus_outside_p50 c405_inside_minus_outside_p90 n_touching_neighbors surface_touching_frac top_neighbor_overlap_frac mean_touching_score_stage1 min_touching_score_stage1 knn_d1 axis3d_lambda_ratio_l1_l3 axis3d_lambda_ratio_l1_l2 axis3d_peak_prom_max_intens axis3d_min_over_max_inner_intens axis3d_section_min_over_med_area axis3d_section_min_over_max_area axis3d_peak_prom_max_area axis3d_raw_section_min_over_med_area axis3d_raw_peak_prom_max_intens proj_xy_main_peak_prom_max proj_xy_main_min_over_max_inner proj_xy_aspect_ratio proj_yz_main_peak_prom_max proj_yz_main_min_over_max_inner proj_yz_aspect_ratio proj_zx_main_peak_prom_max proj_zx_main_min_over_max_inner proj_zx_aspect_ratio sphericity_raw sphericity_opened n_protrusion_voxels protrusion_voxel_frac protrusion_rim_voxels protrusion_rim_other_frac protrusion_rim_bg_frac protrusion_top_neighbor_frac n_distinct_neighbor_ids_at_protrusion protrusion_into_neighbor_frac surface_area_vox_raw surface_area_vox_opened sa_to_vol_vox_inv_raw sa_to_vol_vox_inv_opened core4vox_voxel_frac_opened c405_core4vox_p50_opened c405_shell4vox_p50_opened c405_shell_minus_core4vox_p50 c405_shell_minus_core4vox_p90 c405_shell_over_core4vox_p50_ratio axis3d_extent_vox axis3d_lambda1_vox2 axis3d_lambda2_vox2 axis3d_lambda3_vox2 axis3d_peak_sep_vox_intens axis3d_raw_extent_vox proj_xy_main_extent_vox proj_yz_main_extent_vox proj_zx_main_extent_vox proj_xy_orth_fwhm_vox proj_yz_orth_fwhm_vox proj_zx_orth_fwhm_vox bbox_z_extent_vox bbox_y_extent_vox bbox_x_extent_vox equivalent_diameter_vox_raw equivalent_diameter_vox_opened n_neighbors_30vox volume_vox_opened_pct_subj volume_vox_raw_pct_subj axis3d_lambda1_vox2_pct_subj surface_area_vox_opened_pct_subj
feature_infos=[25:58602] [0.11925289812942616:4.800694388792822] [0.11925289812942616:5.7271441831212622] [0.25:4.7999999999999998] [0.040617384240454905:1.6038062283737022] [0.0070028011204481795:0.69050925925925921] [0:56197] [0:0.98707824838478109] [0.35803292878653975:1.7500000000000009] [166.49703979492188:1261.2921142578125] [13.756925582885742:991.92962646484375] [119:724.79999999999995] [134:1193] [241.80000000000018:2585] [166.53807067871094:1356.90625] [13.229116439819336:1003.99365234375] [119:777] [131:1279] [227:2638] [131:1430] [131:1000.5] [-646:151] [-2025.2000000000007:363.89999999999986] [164:810] [-83:645] [-391.80000000000007:2052] [0:21] [0:0.8125] [0:0.7688984881209503] [0.39508971571922302:0.8102424144744873] [0.39501702785491943:0.8102424144744873] [0.98653416955812645:81.43136390412181] [1.0214589081257353:61.240202522976197] [1:18.842563308711352] [0.050235026550584122:0.96257504889420842] [0.0027559512608839208:0.97531226540075289] [0.0035149384885764497:1] [0.0016806722689075631:0.73170731707317072] [0.05023974494916069:0.7102979956351303] [0.0027322404371584699:0.88461538461538458] [0.050199384387990861:0.99223516044333748] [0.050101981919702131:0.78648751394649397] [0.0060452541623151603:0.95311315930939455] [1.0000000000000004:25.780165592791519] [0.050005617694505143:0.68843036016936388] [0.015215745375624338:0.93337505294285161] [1.0138211221954163:25.185172626736911] [0.050160462298970754:0.74594581014277062] [0.049711295117337108:0.93369258912726505] [1.0017224234082329:15.764517002284235] [0.17773214248808442:0.70485229031737784] [0.32786395255914236:0.68744159395144555] [25:5667] [0.012921751615218953:1] [128:5565] [0:0.8125] [0.1875:1] [0:0.7688984881209503] [0:20] [0:3.6800000000000002] [134:14690] [0:13602] [0.22861377611312517:5.3600000000000003] [0.22778764313269242:2.3809523809523809] [0:0.53973016553385178] [141:2226] [131:1265] [-1214.5:451] [-1318.2000000000003:602.19999999999959] [0.38065573770491801:2.4912280701754388] [7.1299673138879278:88.478172551062073] [3.0679859681209116:480.43852936534336] [1.4157814390180841:170.64668295429391] [0.063520385305215324:69.785462492924168] [4:30] [5.6568542494923797:85.651166971238638] [6:86.600339546551069] [6:80.935182179777456] [5.6568542494923797:78.829905959057612] [2:37] [1:33] [2:36] [2:78] [3:77] [3:68] [3.6278316785978095:48.191591839936279] [4.936820184470645:47.523108097970258] [0:88] [0.034088470743583392:0.99953987730061344] [7.4275810844268386e-05:0.99942833240379247] [0.0011863313990973566:0.99961263793565813] [0.034088470743583392:0.99906639519292839]
tree_sizes=3296 3294 3406 3409 3408 3409 3401 3417 3413 3405 3403 3407 3414 3407 3408 3421 3407 3419 3422 3415 3415 3422 3422 3420 3420 3411 3413 3417 3422 3419 3415 3414 3415 3414 3408 3417 3415 3418 3416 3424 3429 3419 3424 3415 3426 3411 3419 3417 3433 3417 3426 3429 3426 3419 3416 3411 3420 3412 3422 3415 3424 3412 3421 3422 3421 3421 3423 3429 3425 3407 3420 3426 3417 3413 3436 3421 3425 3428 3423 3437 3423 3405 3423 3423 3426 3412 3430 3429 3420 3426 3429 3429 3416 3414 3422 3420 3417 3429

Tree=0
num_leaves=31
num_cat=0
split_feature=8 7 90 43 34 90 7 10 48 70 8 37 79 8 34 35 21 10 46 41 20 7 59 5 5 68 73 29 79 69
split_gain=456.245 131.376 74.7597 52.2314 41.6366 39.5832 48.1369 34.3807 31.3108 22.2722 16.6523 16.0162 13.702 15.6578 17.5827 12.6661 11.6989 11.4714 10.8892 10.3702 9.87642 8.48105 7.08997 6.28189 5.14935 5.14032 2.88056 2.39066 1.32223 1.1575
threshold=0.95603967440389692 0.7455882162955082 0.95612396797248755 2.2928941762337982 0.28692656820516171 0.94036604369567633 0.77922239030727414 174.4986267089844 0.37344409103278803 34.238371490564695 1.1313889790110181 0.054102839301395263 7.5000000000000009 0.97161100308784853 0.15988794581910384 0.58078826826193575 -34.499999999999993 130.68979644775393 2.1192474141050277 0.22866764128226127 322.25000000000006 0.6419364966553055 0.11433377698905652 0.32284128903290293 0.36181552706552716 95.950000000000003 31.120824983614927 0.75043572485446941 6.5000000000000009 0.8372081696269118
decision_type=10 10 10 10 10 10 8 10 10 10 10 10 10 10 8 10 10 10 10 10 10 10 10 10 8 8 8 8 8 10
left_child=5 10 3 4 12 6 -1 11 -7 24 21 -4 16 14 -14 -10 -3 26 -19 -6 -5 -2 -22 -15 -8 -16 -11 -26 -12 -25
right_child=1 2 7 20 19 8 9 -9 15 17 28 -13 13 23 25 -17 -18 18 -20 -21 22 -23 -24 29 27 -27 -28 -29 -30 -31
leaf_value=0.17625458175827771 0.22442631713132091 0.24376870302432208 0.27881237811676124 0.21026599332150983 0.30064567158972283 0.26520230051684646 0.26973763941978324 0.34017467244283739 0.2443837968345991 0.19051640578226109 0.21860377452836888 0.17863927811208863 0.2479837871945115 0.31223089412079885 0.35300776503545533 0.16820752005778175 0.3347687467722219 0.31184323807372571 0.23495750943508203 0.22652815426281145 0.315107142155853 0.30034543201372188 0.24376870302432208 0.32239473695198606 0.34963795639753986 0.29352836704870755 0.24376870302432208 0.29763613051515037 0.17577459143787305 0.36141965789268504
leaf_weight=24.746849566698074 6.2427984029054624 5.7636024802923203 5.4517399519681993 7.2905580103397396 8.7185929268598574 10.568813115358351 5.5297055840492222 5.4745442122220984 6.9007298499345771 9.3860772252082789 8.6729844063520449 13.343218758702276 7.1460288763046291 9.6218234002590162 13.0788140296936 87.315664172172546 6.5337059497833234 7.0129018723964718 9.899479538202284 8.2717541158199293 6.19903916120529 6.6002694517374039 5.7636024802923203 5.8757745027542105 5.1512795537710181 5.8643723726272627 5.7636024802923211 5.2958086878061303 12.774655073881148 112.58085097372532
leaf_count=78 21 20 20 24 33 38 20 22 24 30 29 42 25 37 53 273 26 27 34 28 24 25 20 23 21 22 20 20 40 458
internal_value=0.263812 0.305814 0.319616 0.329539 0.337737 0.202191 0.231469 0.237898 0.182467 0.261366 0.215807 0.20637 0.34531 0.349354 0.31204 0.173396 0.292902 0.23771 0.267061 0.263818 0.25223 0.262383 0.280902 0.356617 0.308297 0.336397 0.207526 0.327471 0.189766 0.359889
internal_weight=438.84 261.269 226.978 202.709 183.455 177.571 72.7857 24.2695 104.785 48.0389 34.2907 18.795 166.465 154.168 26.0892 94.2164 12.2973 32.0621 16.9124 16.9903 19.2532 12.8431 11.9626 128.078 15.9768 18.9432 15.1497 10.4471 21.4476 118.457
internal_count=1577 992 877 793 725 585 250 84 335 172 115 62 664 618 100 297 46 111 61 61 68 46 44 518 61 75 50 41 69 481
is_linear=0
shrinkage=1


Tree=1
num_leaves=30
num_cat=0
split_feature=8 62 71 43 22 32 34 7 35 8 48 52 52 32 34 67 69 44 86 10 8 50 79 65 41 4 38 32 41
split_gain=409.975 127.066 64.9311 55.1672 37.6764 37.1378 35.7829 31.3905 25.9292 19.6441 16.8204 16.7305 14.8254 11.7225 11.2031 11.1138 9.27327 7.9097 7.02885 6.95159 6.90106 6.73335 5.94906 5.87748 4.99187 3.82065 3.10462 0.58966 0.0656112
threshold=0.95603967440389692 0.82557303456149156 90.935662661709827 2.2928941762337982 -178.29999999999993 2.4662587528370188 0.28692656820516171 0.9754133521418854 0.65784528324929836 1.1412834839778816 0.39036175366033171 755.00000000000011 879.00000000000011 2.414573249673194 0.06108639925576171 31.250000000000004 0.8372081696269118 0.26976717563471936 19.457349007959397 126.38838195800783 0.97113828838280358 0.52640578577066377 17.500000000000004 379.50000000000006 0.15365831307878106 0.88191711107417781 0.28767607311952204 2.6298492974412846 0.18122348629612123
decision_type=10 10 10 10 10 8 10 8 8 10 8 10 8 10 10 10 10 8 8 10 10 10 10 10 10 10 8 8 10
left_child=5 2 3 6 -4 12 9 8 14 11 -10 16 15 -8 21 -1 -2 -5 -12 -17 22 -7 -18 28 -6 26 -22 -20 -3
right_child=1 23 4 17 24 7 13 -9 10 -11 18 -13 -14 -15 -16 19 20 -19 27 -21 25 -23 -24 -25 -26 -27 -28 -29 -30
leaf_value=-0.036625917389089727 0.019416959850839133 -0.055984951075259727 0.053122366336828264 -0.059339090392770993 -0.030112188440188481 -0.029926030786094932 0.025015269984980798 0.024376823587302018 -0.024050034472671181 -0.023033729106175009 -0.039906337459822604 -0.0073126627669907645 -0.072751258424170129 -0.053693468668410516 -0.066091168855886881 -0.0052170467606688737 0.06808220565645301 0.0018354646260492003 -0.061025483598553476 0.067376674627968244 0.066841969924960096 0.042322516087778102 0.014361186523715756 -0.025989537744778402 -0.093991192089900533 0.082045569821927719 0.015471261128565084 -0.1026948005910116 -0.093867970732785577
leaf_weight=7.5696299374103608 9.016591012477873 6.3668564558029237 7.5413096398115185 9.3550327718257922 5.7926756739616421 5.7957168668508547 9.782103434205057 6.597374513745307 9.1221273094415647 5.6944690644741049 6.7761333286762229 6.8901022225618354 6.8397027254104605 7.4788848906755439 10.112238213419912 5.5434948056936246 11.105893447995188 10.671073347330092 6.1202412098646155 6.6817401945590973 7.1161084473133061 5.1518849432468414 10.143441557884215 6.6106215864419928 11.250754028558729 115.12668687105179 5.8191695362329492 102.6931634247303 14.111168712377546
leaf_count=26 34 21 30 31 20 20 37 25 32 20 23 25 22 25 33 20 45 39 20 27 29 20 38 23 35 474 22 317 44
internal_value=-0.0115875 0.0284927 0.0404717 0.0495408 -0.035266 -0.06961 0.0579202 -0.0790854 -0.0839022 0.064815 -0.0925691 0.0679632 -0.0145031 -0.0101607 -0.0307086 0.00815402 0.0712644 -0.0282048 -0.0977239 0.0365538 0.0742453 0.00477036 0.0442363 -0.0722244 -0.0751523 0.0788434 0.0465005 -0.100928 -0.0852447
internal_weight=438.876 259.873 232.784 208.2 24.5847 179.003 188.173 152.369 145.772 170.912 124.712 165.218 26.6346 17.261 21.0598 19.7949 158.328 20.0261 115.59 12.2252 149.311 10.9476 21.2493 27.0886 17.0434 128.062 12.9353 108.813 20.478
internal_count=1577 992 904 819 85 585 749 490 465 687 392 667 95 62 73 73 642 70 360 47 608 40 83 88 55 525 51 337 65
is_linear=0
shrinkage=0.05


Tree=2
num_leaves=31
num_cat=0
split_feature=8 62 33 33 10 69 41 52 54 3 8 37 41 30 59 42 75 22 48 10 8 65 67 7 52 50 8 47 84 37
split_gain=369.71 115.762 83.4143 46.636 33.1029 28.4792 27.9954 21.2415 18.4341 16.9303 14.5771 16.534 13.4951 11.9746 12.8099 11.1266 9.57363 8.87649 8.37356 7.64892 6.94952 5.26142 5.09182 4.24012 3.81721 3.51879 2.77085 2.0601 1.61388 1.44482
threshold=0.95603967440389692 0.82557303456149156 1.9771075089937484 1.8028906342713633 379.26402282714849 0.76824495488572009 0.11359601154187768 928.50000000000011 974.50000000000011 0.67694497153700206 0.98618133733682656 0.089088868401010143 0.051896193874911144 0.54627761244773876 0.22366029010342009 0.51878231757727733 34.394658381830702 -74.399999999999963 0.41397317391146277 135.40740203857425 1.1182754019220189 379.50000000000006 31.250000000000004 0.83999278125135646 504.50000000000006 0.59255857896124275 0.98618133733682656 0.32057594425448616 27.500000000000004 0.30402576489533018
decision_type=10 10 10 8 8 10 10 10 10 10 10 10 10 10 10 10 8 10 8 8 10 10 8 8 10 10 10 10 8 10
left_child=3 2 5 7 16 -2 15 13 9 -7 17 -12 -10 22 -15 -4 -5 -8 -18 -14 24 -3 -1 -13 29 27 -27 -26 -17 -11
right_child=1 21 6 4 -6 8 10 -9 12 20 11 23 19 14 -16 28 18 -19 -20 -21 -22 -23 -24 -25 25 26 -28 -29 -30 -31
leaf_value=-0.060341718968400404 -0.034058980983868829 -0.080809397020783102 -0.016603680066525708 -0.032642786659848301 0.015140261478984491 -0.018601215668093661 -0.019376585348087387 -0.082273740280955771 0.070862385124291882 0.079647212666532533 0.054350149086984822 -0.065116223995077133 -0.056238615892481039 0.06530314440237095 -0.012217288753845007 0.074941848826723195 -0.041801719580186539 -0.095247041960958179 -0.094292156582120534 0.020668745908377893 0.016844358709357285 -0.024798071338626992 0.00047520109831834752 -0.0086337419140262057 0.072758522056306577 0.00086059166738774572 0.049613837343218808 0.03705618407721839 0.029482453796773746 0.039843947564990295
leaf_weight=7.3721545189619047 7.794250324368476 20.612889438867573 6.7394446581602123 9.3189367800950986 8.3032388687133771 5.3561365753412238 6.4945959299802807 9.2651825398206693 4.8514975160360363 89.111384838819504 6.1733016073703793 6.4102740287780735 5.9961675256490681 8.9488472640514392 10.915216222405432 7.4831060320138905 10.624069124460219 11.370392352342604 109.2113178819418 5.2657485604286203 6.8628319799900046 6.6293742656707755 5.8176198303699493 6.6640264242887506 23.594856694340706 5.4056618958711606 5.4162435978651047 9.139123469591139 5.1642581373453149 5.4952522665262213
leaf_count=24 27 65 24 32 31 19 23 29 20 372 25 21 20 36 39 31 36 35 337 20 26 23 21 24 97 20 22 36 20 22
internal_value=-0.0110641 0.0272605 0.0388157 -0.0659175 -0.0799809 0.0558526 -0.013797 -0.0194461 0.0602399 0.0656565 -0.0388924 -0.0078443 0.00880604 6.36908e-05 0.0241621 0.0337951 -0.0861655 -0.0701545 -0.090023 -0.021526 0.0688744 -0.0685398 -0.0353741 -0.0389858 0.0713193 0.0558635 0.0273938 0.0641846 0.0599 0.0777762
internal_weight=437.807 258.031 230.789 179.777 137.458 174.289 56.4994 42.319 166.495 150.381 37.1126 19.2476 16.1134 33.0538 19.8641 19.3868 129.154 17.865 119.835 11.2619 145.025 27.2423 13.1898 13.0743 138.163 43.5559 10.8219 32.734 12.6474 94.6066
internal_count=1577 992 904 585 436 701 203 149 674 614 128 70 60 120 75 75 405 58 373 40 595 88 45 45 569 175 42 133 51 394
is_linear=0
shrinkage=0.05


Tree=3
num_leaves=31
num_cat=0
split_feature=8 62 33 33 10 69 8 52 54 48 8 43 29 43 41 40 16 37 6 82 34 80 15 69 54 37 34 24 41 22
split_gain=334.603 105.488 76.8214 41.8285 29.8371 26.3152 25.8655 19.2713 17.1178 16.6721 16.0886 15.9496 14.1947 12.9465 12.5064 11.2012 16.8812 10.037 9.25358 9.21088 7.46252 7.30343 4.77813 4.1549 4.04901 2.64202 2.03915 1.42728 0.698501 0.569201
threshold=0.95603967440389692 0.82557303456149156 1.9771075089937484 1.8028906342713633 379.26402282714849 0.76824495488572009 0.97666248924714782 928.50000000000011 974.50000000000011 0.61190533831897642 1.083700976007224 2.2928941762337982 0.52681162953376781 2.3715405282752031 0.051896193874911144 0.080614903671813218 286.50000000000006 0.09669627551815492 1051.5000000000002 40.500000000000007 0.4530758476505729 20.500000000000004 131.50425720214847 0.89232136291212172 812.50000000000011 0.030215098419699698 0.064476877536498292 76.250000000000014 0.22301776114322161 -85.899999999999963
decision_type=10 10 10 8 8 10 10 10 10 10 10 10 10 10 10 10 8 10 10 10 10 8 10 10 10 8 8 10 8 8
left_child=3 2 5 7 15 -2 9 12 11 -4 13 18 -1 24 -10 16 -5 19 -7 -14 23 -16 28 -20 29 -17 -25 -18 -3 -8
right_child=1 22 6 4 -6 8 10 -9 14 -11 -12 -13 17 -15 21 25 27 -19 20 -21 -22 -23 -24 26 -26 -27 -28 -29 -30 -31
leaf_value=-0.051089192584726176 -0.032424775957341466 -0.046999037952949775 0.0070957426710192483 0.0029445343442074559 0.014491998429307802 0.0036788690953325955 0.074759174586819105 -0.07827889451119735 0.068695755875701522 -0.083449065782713341 -0.051366212199734633 -0.0068534840773170243 -0.041393585967443573 -0.021191868500373159 -0.054385028441398732 -0.050283865163159316 -0.087303051230407713 0.058815305147550991 0.026889586779544325 0.031771348277519158 0.0097030886322005405 0.020668762131187433 -0.024678384122362215 0.030704980251119236 0.012304725322684881 -0.093465777494836672 0.07557458256219729 -0.047799073017564558 -0.086195994131365625 0.037133406885638313
leaf_weight=8.7773946672677976 7.8272403180599204 6.096989229321486 7.310375943779948 9.4557953774929029 8.2861059606075269 5.6346141695976248 9.3024824410676938 9.3010707050561887 4.7874309718608883 14.656988963484762 6.6021583676338187 7.4910346865653983 7.666696712374689 8.017155855894087 6.0225132107734654 7.6569835841655722 14.652182549238207 9.0008872896432859 6.3555655926465979 7.5606864392757416 5.3213023245334616 5.2634102851152429 6.9943852573633185 4.485122710466384 5.5327382385730735 89.399436607956886 118.96472957730293 8.237991586327551 14.235069617629049 5.0099669247865739
leaf_count=29 27 20 27 34 31 21 39 29 20 46 22 27 26 28 20 25 45 36 25 29 20 20 24 18 21 274 503 27 44 20
internal_value=-0.0105565 0.0261548 0.0373 -0.0626076 -0.0759057 0.0538191 -0.0131533 -0.0185752 0.0580984 -0.0543202 0.013878 0.0633829 5.66063e-05 0.030582 0.00849917 -0.081761 -0.0532977 0.0198763 0.0671427 -0.00534659 0.0697426 -0.0205489 -0.0650997 0.0721109 0.0515111 -0.0906066 0.0742042 -0.0756818 -0.0771962 0.0648737
internal_weight=435.907 255.911 228.585 179.995 137.688 172.153 56.4319 42.3067 164.326 21.9674 34.4645 148.252 33.0057 27.8623 16.0734 129.402 32.346 24.2283 140.761 15.2274 135.127 11.2859 27.3264 129.805 19.8452 97.0564 123.45 22.8902 20.3321 14.3124
internal_count=1577 992 904 585 436 701 203 149 674 73 130 614 120 108 60 405 106 91 587 55 566 40 88 546 80 299 521 72 64 59
is_linear=0
shrinkage=0.05


Tree=4
num_leaves=31
num_cat=0
split_feature=8 7 33 33 10 69 40 43 4 8 37 45 37 35 34 34 22 43 37 4 10 43 8 70 45 33 35 90 79 45
split_gain=303.861 98.5427 50.8032 49.5153 26.7725 25.2554 22.3968 16.661 16.169 15.6766 14.0826 13.4278 12.0931 11.7228 17.2871 11.6732 10.0162 8.68895 8.39294 7.33458 6.04441 5.56402 5.42761 5.16953 4.3511 4.04866 5.1465 2.17084 0.765538 0.499109
threshold=0.9598864846209012 0.7455882162955082 1.8028906342713633 1.9771075089937484 379.26402282714849 0.76824495488572009 0.37550335698268639 2.2928941762337982 0.80353176681815308 0.98273656969779066 0.089088868401010143 0.46329793291909721 0.036809844225274224 0.66487180247856903 0.12616369133747632 0.48298720914258758 -67.150000000000077 2.3715405282752031 0.030523856559415481 0.88617904033187311 122.26665115356447 1.4812167206069202 1.068303356042217 18.306918985915342 0.56811862720844808 1.3305984330378597 0.80118961219578877 0.94036604369567633 6.5000000000000009 0.43169046619976487
decision_type=10 10 8 10 8 10 10 10 10 10 10 10 10 8 10 10 10 10 8 10 10 8 10 10 10 10 8 10 8 8
left_child=2 11 8 5 13 -3 9 15 -1 16 12 -2 -10 14 -4 19 -5 24 -15 25 -14 -12 -13 -21 -11 -7 -27 -25 -24 -20
right_child=1 3 4 6 -6 7 -8 -9 10 17 21 22 20 18 -16 -17 -18 -19 29 23 -22 -23 28 27 -26 26 -28 -29 -30 -31
leaf_value=-0.070391248969793319 0.011917291538057224 -0.035203191860871723 0.011966054577246327 0.017398397908610502 0.013871837582973327 0.061265660237401348 -0.0684062787544511 -0.0087580000149820939 0.029055693619894081 0.015143069626819295 0.072351788482938828 -0.019889445274753694 -0.069917641173410566 -0.03224704082911177 -0.087011046648867663 -0.0083384095224954442 -0.065906778313852152 -0.0079810472809743269 -0.052210019054945912 0.022812333651314864 -0.01162852539411229 0.0081600168361722538 -0.04906397940553564 0.073536545715209164 0.069891236207667254 0.041266394824532975 -0.02118840327899011 0.03353497542171862 -0.086387397907740776 -0.088258554801240716
leaf_weight=8.548516705632208 6.7388237118720999 7.0329947322607032 9.0504944920539874 5.8365622609853745 8.2688732296228391 6.2172646820545223 9.656988710165022 8.6316874325275403 8.1135100722312945 5.9500855207443299 6.4354062676429722 6.2793974131345776 8.4341435134410876 9.2277156859636289 7.2352312803268424 5.4805355519056311 7.2070751339197141 7.8697636723518363 6.1550019085407248 6.8911386728286734 9.3268301934003812 6.7087318748235711 7.3282835036516216 107.41409651935101 12.081937208771704 5.8873879164457295 5.4560095816850671 6.0044265240430823 14.31411276757717 103.32864134013653
leaf_count=27 25 24 33 22 31 26 31 31 31 23 27 22 27 31 22 20 23 28 20 27 33 25 24 463 51 24 20 24 44 318
internal_value=-0.0101258 0.0270036 -0.0571598 0.0400422 -0.0719434 0.0534681 -0.00407628 0.0577746 -0.0120691 0.0131883 0.00214822 -0.0500306 -0.0191594 -0.0772631 -0.0344962 0.0618137 -0.0300461 0.0352679 -0.0827931 0.0646423 -0.0415596 0.0424818 -0.0648766 0.0691396 0.0535707 0.0317659 0.0119436 0.0717304 -0.0764745 -0.0867229
internal_weight=433.112 242.279 190.833 207.618 143.266 159.016 48.6024 151.983 47.5671 38.9454 39.0186 34.6606 25.8745 134.997 16.2857 143.351 13.0436 25.9018 118.711 137.87 17.761 13.1441 27.9218 120.31 18.032 17.5607 11.3434 113.419 21.6424 109.484
internal_count=1577 952 625 837 455 659 178 635 170 147 143 115 91 424 55 604 45 102 369 584 60 52 90 514 74 70 44 487 68 338
is_linear=0
shrinkage=0.05


Tree=5
num_leaves=31
num_cat=0
split_feature=8 62 33 32 25 2 67 52 34 8 90 22 25 28 67 86 34 5 29 51 68 23 37 30 8 51 42 45 52 39
split_gain=265.345 100.928 50.368 45.2575 32.3573 26.3114 19.5062 19.3743 15.6422 14.8348 12.8295 11.401 11.3406 11.4408 10.2917 7.84807 10.8271 7.67427 11.5611 7.11748 6.64421 6.28895 6.1338 6.04985 5.44603 5.30178 4.39305 3.98855 2.86115 3.48217
threshold=0.96223041383398078 0.82557303456149156 1.8028906342713633 2.7764190599220284 339.50000000000006 0.90170403014240408 106.25000000000001 1070.5000000000002 0.30004844937075459 0.91640991664813221 0.7722484254525942 -113.74999999999999 476.25000000000028 0.11753097884442383 -38.249999999999993 26.595759210002445 0.721685587830316 0.32575813029314227 0.64825907945632955 0.58300292482655813 30.099999999999913 308.25000000000006 0.098847956691093961 0.54627761244773876 1.1470803382532502 0.60188621847073565 0.44009558536032384 0.44647896032612028 569.50000000000011 0.050735882013723095
decision_type=10 10 8 10 8 10 10 10 10 8 10 8 10 10 10 8 8 10 10 10 10 10 8 10 10 10 10 8 10 10
left_child=2 3 7 8 15 14 12 10 17 -6 21 19 13 25 -5 16 -4 18 -2 -12 -10 -1 -8 -13 28 -7 -3 -17 -19 -30
right_child=1 26 4 5 9 6 22 -9 20 -11 11 23 -14 -15 -16 27 -18 24 -20 -21 -22 -23 -24 -25 -26 -27 -28 -29 29 -31
leaf_value=-0.0051636737557501401 -0.030210888320485737 -0.024220857482533265 -0.074075401317986178 -0.0072791668650219717 -0.063095642090557999 -0.075409657033874589 0.069694442292555711 -0.080154222883873305 -0.028844109817562209 0.027433473018929424 -0.016210339704086609 -0.078123710190963813 0.026719435098591638 0.0066786804775890276 0.070843067254242609 -0.044968999893524653 -0.0050449632695743095 0.070711195124350243 0.06675757507271228 0.048795327176121693 0.039683044947805383 0.059106180886487815 -0.0011859165395692924 -0.017346137822104032 0.0115028353643015 -0.016081043518652516 -0.073601447302208592 -0.08607452828423999 0.0068951788891156128 0.057058522226658928
leaf_weight=5.6517973691225043 5.5216540545225126 7.3408747911453274 13.448380529880525 5.4728355854749706 5.9866688102483776 17.403271019458778 6.096460118889806 7.8078921586275092 7.0932524055242521 11.865334331989287 8.4583616554737073 6.7149476408958462 5.9252764284610739 7.7691005170345298 15.120450258255003 10.025773525238035 9.6162605732679349 87.635600581765175 4.9201150089502335 6.7292088866233817 5.2842256128787994 9.7791774719953519 5.2980005890131006 10.370726928114889 5.154421553015708 5.5410573035478583 20.710109323263168 96.840165793895721 5.1971681863069561 11.533897101879118
leaf_count=21 20 25 42 20 19 56 26 24 25 45 30 21 23 30 65 33 34 385 21 27 21 40 20 37 19 20 65 299 20 49
internal_value=-0.0114591 0.0254027 -0.0529061 0.0378428 -0.0680797 0.0047777 -0.0155456 -0.0120214 0.0548247 -0.00466197 0.000546889 -0.0173152 -0.0331936 -0.0452302 0.0507058 -0.076691 -0.0467004 0.0603029 0.0173214 0.013827 0.00119115 0.0366849 0.039301 -0.0442316 0.0642069 -0.0623518 -0.0619572 -0.0826708 0.066676 0.042744
internal_weight=432.312 229.018 203.295 200.967 147.783 68.6265 48.0332 55.5121 132.34 17.852 47.7042 32.2732 36.6387 30.7134 20.5933 129.931 23.0646 119.963 10.4418 15.1876 12.3775 15.431 11.3945 17.0857 109.521 22.9443 28.051 106.866 104.367 16.7311
internal_count=1582 910 672 820 472 260 175 200 560 64 176 115 129 106 85 408 76 514 41 57 46 61 46 58 473 76 90 332 454 69
is_linear=0
shrinkage=0.05


Tree=6
num_leaves=31
num_cat=0
split_feature=8 62 33 32 25 2 67 52 34 82 67 38 25 44 79 69 27 5 29 41 43 75 36 68 41 32 73 44 78 8
split_gain=242.083 92.4351 46.0319 42.0172 29.5606 24.1739 18.4443 17.866 14.6504 13.8469 13.1165 12.4143 10.2537 8.87969 8.33426 9.24016 7.45359 7.2179 10.7442 7.11633 6.96989 6.90273 6.20321 6.10352 5.34637 4.41945 3.22467 3.03375 2.6551 2.21991
threshold=0.96223041383398078 0.82557303456149156 1.8028906342713633 2.7764190599220284 339.50000000000006 0.95875104999046634 106.25000000000001 785.00000000000011 0.30004844937075459 54.500000000000007 -46.499999999999993 0.18158108201786624 476.25000000000028 0.28195278397160622 18.500000000000004 1.1311643778191394 0.21550678690695535 0.32575813029314227 0.64825907945632955 0.12038596539189582 1.927599468908362 33.349627225007779 0.12255584685127534 30.099999999999913 0.14514807695884996 2.6810030030070613 33.063454990379505 0.12098331968793803 45.182706278099026 1.1470803382532502
decision_type=10 10 8 10 8 10 10 10 10 8 10 10 10 10 8 8 10 10 10 10 10 8 8 10 10 8 10 10 10 10
left_child=2 3 7 8 21 10 12 11 17 -6 -5 -1 16 27 15 -13 24 18 -2 -3 28 -4 -8 -10 -7 -23 -16 -9 29 -19
right_child=1 19 4 5 9 6 22 13 23 -11 -12 14 -14 -15 26 -17 -18 20 -20 -21 -22 25 -24 -25 -26 -27 -28 -29 -30 -31
leaf_value=0.060583051311583626 -0.02878529646897332 -0.014090108581385997 -0.027509606292116698 -0.015704882315183969 -0.04541900789523319 -0.026214799782263917 0.06774341368407695 -0.032527772612238798 -0.027483011951643262 0.038240740202365293 0.066700733470262591 -0.01440087225265521 0.023546847741766175 0.0001155225874194214 -0.059132801841119333 0.061890005645344803 0.0037738865048334881 0.069759383175943046 0.064942631308446089 -0.073610435198055851 0.01638817457822439 -0.033881404023570955 -0.0041383336499910021 0.038267549829505344 -0.078942833650754954 -0.079396958870588508 -0.006648965390861284 -0.087711626030334472 0.02303722205023007 0.025575215191528628
leaf_weight=8.2282017916440946 5.5540242940187436 7.248711213469508 9.1115869879722577 6.1461324989795711 9.0703149586915988 9.3924029320478493 5.9899281561374638 5.8690118491649654 7.121100962162016 8.7308708578348142 17.012311279773712 8.8004019558429718 5.6575770378112784 6.9046619385480872 6.0821915715932828 5.8190622627735147 5.7364343851804724 89.657861635088921 4.8348376750946045 20.718774348497391 8.4480335265398008 7.7865200191736212 5.068944826722146 5.243725523352623 13.273532986640928 112.04872913658619 5.472064733505249 8.1806478500366193 4.7620933502912512 4.4968095123767844
leaf_count=34 20 25 31 22 30 33 26 20 25 34 74 32 22 25 20 24 22 403 21 65 34 26 19 21 42 351 20 25 19 17
internal_value=-0.0109961 0.024472 -0.0506463 0.0365052 -0.065225 0.00462736 -0.0166664 -0.0115271 0.0530696 -0.00453525 0.0450859 0.0106816 -0.0347131 -0.046814 -0.00665808 0.0179838 -0.0467243 0.0584628 0.0167067 -0.0592027 0.0623117 -0.0735038 0.0371848 0.0011777 -0.0591241 -0.0767444 -0.0367861 -0.0683526 0.0660306 0.0679401
internal_weight=428.468 226.363 202.104 198.396 146.748 68.2773 45.1188 55.3562 130.118 17.8012 23.1584 34.4019 34.0599 20.9543 26.1737 14.6195 28.4024 117.754 10.3889 27.9675 107.365 128.947 11.0589 12.3648 22.6659 119.835 11.5543 14.0497 98.9168 94.1547
internal_count=1582 910 672 820 472 260 164 200 560 64 96 130 119 70 96 56 97 514 41 90 473 408 45 46 75 377 40 45 439 420
is_linear=0
shrinkage=0.05


Tree=7
num_leaves=31
num_cat=0
split_feature=33 4 50 63 52 40 67 52 15 4 90 25 86 52 83 37 30 67 57 67 35 47 33 50 40 37 33 10 42 50
split_gain=196.732 66.9451 43.1147 37.9237 32.0207 24.1999 20.9216 17.6196 17.0517 16.581 21.0419 15.9695 10.9225 10.59 9.74052 9.73874 8.93405 9.06145 7.72893 7.45167 9.2623 7.36078 6.16337 6.06015 5.22068 4.62565 4.03275 3.79377 3.77667 3.24903
threshold=1.9771075089937484 0.88700410866397439 0.60952869501179363 0.95228417730862935 527.50000000000011 0.13113299430028499 -38.249999999999993 859.00000000000011 136.4049987792969 0.99533970409672201 0.92602792336002215 347.30000000000007 25.569334982372855 663.50000000000011 20.500000000000004 0.084455262987643151 0.39523388445377355 21.750000000000004 0.14655662604068323 -9.7499999999999982 0.6707361397022652 0.30146400813184909 1.3493102861823003 0.57941413746738657 0.34078013251374673 0.18166539343009933 1.5749398070988729 118.5731544494629 0.55296406941307763 0.57684614764487674
decision_type=8 8 8 10 10 10 10 10 10 10 10 10 8 10 10 10 10 10 10 10 10 10 10 8 10 10 10 8 10 10
left_child=1 6 5 4 19 8 26 16 12 10 24 -7 14 18 -2 -13 -8 -18 -10 20 -3 22 -19 -12 -6 -22 -1 -9 -4 -14
right_child=2 3 28 -5 9 11 7 27 13 -11 23 15 29 -15 -16 -17 17 21 -20 -21 25 -23 -24 -25 -26 -27 -28 -29 -30 -31
leaf_value=-0.078686101789854954 -0.047046095327015702 0.069557973288400396 0.0095482368354291927 -0.051027746724831902 0.05575974528171114 -0.077077361396527266 -0.038980066922276471 -0.07543818421491448 -8.8981970648048466e-06 -0.063355863186627476 -0.056903042209016257 0.026107260184865973 -0.079018802181537881 -0.04538719086609639 0.023498563614854213 -0.056082280117347262 0.065069083218600041 0.026430946589506194 0.070010183987950031 0.065976432722194236 0.028345647582080098 0.049048118772148534 -0.032667320231503399 0.0047679561739828579 0.0015491997084305666 -0.031266084126327039 -0.029024920036740783 -0.019194221556389116 0.06034242014150059 -0.035746115599336069
leaf_weight=12.46164593100548 10.116998791694643 6.8821061104536083 8.8983264863491041 10.428404971957205 23.159624606370929 94.13490591943264 5.5443397611379615 6.4271982461214039 10.367870569229128 5.6603906303644171 6.9399300664663288 6.3523691892623884 19.437639221549038 6.3625968992710105 7.9073172360658637 6.2008204907178879 9.0082627236843091 6.2699116468429628 5.3578753173351279 85.418780013918877 5.5641511976718885 6.4822203367948523 10.405944779515265 7.7089715152978906 5.5127763003110877 5.4555017054080963 8.3819354474544507 6.5666444450616845 5.8177993297576895 8.8891374021768552
leaf_count=39 34 30 34 34 100 298 19 20 38 19 23 24 61 21 30 20 39 25 23 389 23 26 36 29 21 20 29 23 25 30
internal_value=-0.0105583 0.0200676 -0.0482596 0.0377198 0.0440898 -0.0551643 -0.0200476 -0.00237625 -0.0312691 0.0105032 0.0213654 -0.0700601 -0.0481965 0.00480101 -0.0164895 -0.0156338 0.0150519 0.0252595 0.0266066 0.059759 0.0281715 0.00772155 -0.0102089 -0.026218 0.0457403 -0.00131228 -0.0609586 -0.0504172 0.0321908 -0.0671215
internal_weight=424.122 234.279 189.844 162.731 152.302 175.128 71.5481 50.7045 68.4394 48.9817 43.3213 106.688 46.3511 22.0883 18.0243 12.5532 37.7107 32.1663 15.7257 103.321 17.9018 23.1581 16.6759 14.6489 28.6724 11.0197 20.8436 12.9938 14.7161 28.3268
internal_count=1582 944 638 688 654 579 256 188 237 192 173 342 155 82 64 44 145 126 61 462 73 87 61 52 121 43 68 43 59 91
is_linear=0
shrinkage=0.05


Tree=8
num_leaves=31
num_cat=0
split_feature=8 62 33 43 71 69 10 54 70 65 41 38 27 34 8 45 44 38 35 34 41 57 48 41 50 44 13 80 65 68
split_gain=204.617 80.0376 41.7112 35.518 27.8588 23.4832 22.9973 17.8612 12.4545 11.9878 8.52765 8.47111 8.47808 7.78588 8.1121 7.41272 6.94947 6.62507 6.54377 14.596 6.3999 5.3128 3.10258 5.99864 1.85362 1.47242 1.23671 0.579438 0.393211 0.149668
threshold=0.9638237726537312 0.82557303456149156 1.8356479159641836 2.3715405282752031 90.935662661709827 0.8372081696269118 346.21488952636724 1121.0000000000002 48.367923188869533 394.25000000000006 0.11766355658367268 0.29979599159374021 0.19870382581487664 0.39751092318254344 1.1362224768608278 0.35044018778787528 0.28195278397160622 0.48601309253775055 0.66487180247856903 0.12616369133747632 0.12038596539189582 0.14800707574260841 0.52328660279979267 0.12038596539189582 0.5325855945547896 0.16506243894130149 595.50000000000011 7.5000000000000009 467.50000000000006 113.50000000000001
decision_type=10 10 8 10 10 10 8 10 10 10 10 10 8 10 10 8 10 10 8 10 10 10 8 10 10 8 10 8 8 10
left_child=2 3 7 4 5 10 15 11 -6 -5 -2 21 -13 14 17 -4 25 24 19 -17 -3 26 23 -20 -7 -9 -1 -26 -22 -24
right_child=1 20 6 9 8 13 -8 16 -10 -11 -12 12 -14 -15 -16 18 -18 -19 22 -21 28 -23 29 -25 27 -27 -28 -29 -30 -31
leaf_value=0.02738586062219462 0.039016689794601753 -0.012054179331104461 -0.012370146564304326 -0.055907463571660904 -0.058697260124862621 0.033284214370299929 0.014270342408072723 -0.032300691118000567 0.03048358198835123 0.015033413707068708 -0.033948308619046047 -0.043977955572233315 0.027507845526667907 0.00052769821295392939 -0.0032038003810567666 0.024643765659142686 -0.0023186175994982547 0.011638109707666639 -0.0079990131806297552 -0.076524568084272104 -0.042418671880181134 0.0038542741776556103 -0.077927398115559432 -0.068291578499532268 0.037927039198404254 -0.073604418401699942 0.070115095981695394 0.066692056419229095 -0.075942965625930628 -0.047249802551754573
leaf_weight=4.9696516245603579 5.2263915687799445 7.2298693656921413 6.6525077521800986 11.816128998994829 8.4254210442304593 8.0473982542753202 9.2248891741037351 5.8417877405881891 5.8725217580795279 10.491233274340628 10.323419377207754 9.3214292973279917 6.0643524080514917 6.120593547821044 5.0554850548505774 5.9065275043249112 7.1943611502647391 7.011370673775672 6.5650146007537868 6.7524220049381256 6.0927901118993786 9.5094279795885068 90.609730452299118 11.619589850306509 6.3519209623336783 10.130029961466789 5.862472876906395 104.90184551477432 14.356811210513113 6.0593227595090857
leaf_count=20 21 25 23 39 28 34 35 20 23 39 36 32 24 23 19 22 26 29 23 21 20 36 289 37 28 32 25 488 45 20
internal_value=-0.0101643 0.0234747 -0.046242 0.0350989 0.0429803 0.0492014 -0.0607146 -0.0105796 -0.0224702 -0.0233302 -0.0085486 0.0115871 -0.0158424 0.0557474 0.0582967 -0.0659378 -0.0438304 0.060764 -0.0686145 -0.0309722 -0.0546144 0.0321042 -0.0724602 -0.0480763 0.0635304 -0.0612907 0.0544828 0.0654022 -0.0683979 -0.076508
internal_weight=419.607 217.323 202.284 189.644 167.336 153.038 143.39 58.8935 14.2979 22.3074 15.5498 35.7273 15.3858 137.489 131.368 134.165 23.1662 126.313 127.513 12.6589 27.6795 20.3416 114.854 18.1846 119.301 15.9718 10.8321 111.254 20.4496 96.6691
internal_count=1582 897 685 807 729 678 470 215 51 78 57 137 56 621 598 435 78 579 412 43 90 81 369 60 550 52 45 516 65 309
is_linear=0
shrinkage=0.05


Tree=9
num_leaves=31
num_cat=0
split_feature=8 62 33 43 34 33 25 51 34 52 46 52 46 2 65 45 33 36 4 35 69 44 41 35 44 8 45 35 75 8
split_gain=187.195 64.4317 56.1914 25.6673 20.9051 19.7024 21.8381 17.1736 14.3636 13.1279 10.6936 10.3179 10.165 10.6752 9.69365 8.88756 8.04025 8.13564 6.86437 6.51753 11.7796 6.48447 5.94223 5.77954 13.2155 5.5839 4.51959 3.4348 3.05026 2.87357
threshold=0.95482454030137409 0.82557303456149156 1.9771075089937484 2.5723478526542696 0.28692656820516171 1.8028906342713633 1202.7500000000002 0.60188621847073565 0.3273706906702567 785.00000000000011 1.6389556707440878 755.00000000000011 3.3856259855601816 0.93032227078651675 442.25000000000006 0.34725381614170564 2.5829796620587251 0.12022888406876235 0.85145015730725837 0.8097879877332409 0.97674278846153861 0.28195278397160622 0.12038596539189582 0.66487180247856903 0.1916962133561953 1.059167198513201 0.49554333528916922 0.71603418086414738 39.500084044366751 1.1412834839778816
decision_type=10 10 10 10 10 8 8 10 10 10 10 10 10 10 10 8 10 10 10 10 10 10 10 8 10 10 10 8 10 10
left_child=5 2 3 4 11 9 15 8 12 10 -1 19 13 -4 -6 -7 17 -15 -12 29 -21 -11 -3 24 -17 28 -20 -9 -22 -2
right_child=1 22 7 -5 14 6 -8 27 -10 21 18 -13 -14 16 -16 23 -18 -19 26 20 25 -23 -24 -25 -26 -27 -28 -29 -30 -31
leaf_value=0.060232749663605749 0.067334022934431401 -0.01153003869308101 0.036563928112587379 -0.043349569980926046 0.029835073009685423 -0.0062542908596920146 0.03117859698326432 0.065130977559953132 -0.07329768201272012 -0.068501447492433629 0.031664209008042447 -0.0034820702890042614 0.034086099394261313 0.032027837767652896 -0.044644325350665551 0.023525550673522657 -0.074087624310851738 -0.040819609270196296 -0.00087714997382168651 -0.021640697148513841 0.065658658567075312 -0.0040677747670866352 -0.06587899462377042 -0.071174449588108854 -0.071783955986208098 0.0038491726174091942 -0.057190889923734424 0.0084800813241627596 0.014281242407841536 0.018047639905527969
leaf_weight=5.5119724273681667 82.73909130692482 7.2261570096015957 4.9318614602088955 7.407473847270011 7.9846163988113386 6.5599993765354148 5.7781793177127829 5.5593652278184864 11.352823778986929 12.864071667194368 5.0898009389638927 7.2605457305908194 8.702616870403288 5.2048143744468716 7.5336800217628479 5.6449886262416822 8.864738464355467 9.2751660197973234 6.5025747716426832 6.2182374745607367 24.113895967602733 5.619568169116973 20.25121945142746 103.15701538324356 7.5780310779809952 5.5988778322935095 6.9671369940042496 5.097656413912774 3.9972901940345755 3.9720763117074958
leaf_count=23 393 25 20 25 32 23 23 25 36 41 20 27 34 21 26 21 28 32 24 24 116 20 65 336 24 24 23 20 16 15
internal_value=-0.00980887 0.0183644 0.0275864 0.0431589 0.0477072 -0.049703 -0.0594265 -0.0138433 -0.0265421 -0.0196028 0.00489936 0.0540324 -0.0106358 -0.0250939 -0.00683628 -0.0639022 -0.0390868 -0.0142572 -0.0137733 0.0573312 0.0388363 -0.0501259 -0.0524928 -0.0670707 -0.0323024 0.0502941 -0.0319446 0.0410848 0.0590945 0.0653078
internal_weight=414.566 243.292 215.815 156.826 149.418 171.273 128.718 58.989 48.332 42.5551 24.0715 133.9 36.9792 28.2766 15.5183 122.94 23.3447 14.48 18.5595 126.639 39.9283 18.4836 27.4774 116.38 13.223 33.7101 13.4697 10.657 28.1112 86.7112
internal_count=1582 1004 914 698 673 578 427 216 171 151 90 615 135 101 58 404 81 53 67 588 180 61 90 381 45 156 47 45 132 408
is_linear=0
shrinkage=0.05


Tree=10
num_leaves=31
num_cat=0
split_feature=8 73 34 90 43 64 41 50 63 25 25 41 4 4 23 32 35 25 43 45 67 53 68 34 48 70 50 62 48 33
split_gain=172.987 54.9343 50.1672 26.046 22.1069 20.3831 20.0513 23.6133 17.6979 16.4326 14.4755 12.3036 12.0763 10.3595 9.16666 8.73407 8.33184 6.74036 6.11505 5.78561 5.73928 5.44117 6.28826 4.04695 4.0295 3.53477 3.51384 3.40435 2.79517 2.43129
threshold=0.95482454030137409 6.6392427076064573 0.27371135014448583 0.94036604369567633 2.2928941762337982 0.40584653926161524 0.1770541268749414 0.48877075424739291 0.43617480858832464 254.00000000000003 334.15000000000003 0.12038596539189582 0.88617904033187311 0.95218930023253745 288.25000000000006 2.513284995957731 0.77826628148019117 85.399999999999991 1.7638101558033912 0.5212017654211708 41.250000000000007 0.35928464973063307 56.949999999999996 0.074389533746792483 0.59476996634307056 48.468879048560417 0.55230710364674196 0.68528216754262117 0.52985626877376102 1.9593813073300683
decision_type=10 10 10 10 10 10 10 8 10 8 8 10 10 10 8 8 10 8 10 10 10 10 8 8 10 10 10 8 8 10
left_child=6 11 3 4 12 16 7 -1 9 15 13 19 17 24 -11 -9 -5 27 -10 -2 -6 22 -13 -14 -4 -7 -16 -3 -17 -25
right_child=1 2 10 5 20 25 -8 8 18 14 -12 21 23 -15 26 28 -18 -19 -20 -21 -22 -23 -24 29 -26 -27 -28 -29 -30 -31
leaf_value=-0.074756653436956297 0.043365473838921038 0.058339700764171734 -0.032411480569464149 0.002048144826941229 0.019837032086620496 0.01092184518018316 -0.065331972018128806 -0.0053630521832514185 -0.00033939164659162695 -0.038631598960193109 0.036012181751747328 -0.057760533867597531 0.015648180678868997 0.01091642522486563 0.0075406807313103067 -0.024549799406146572 -0.074608031657104959 -0.013746119732630541 0.070751547637144016 -0.023323719836325262 -0.043250013820537031 -0.074766651757077196 0.0097211470321570612 0.06526865237562697 -0.084416446825617511 0.068652850598744528 0.058424670798674597 0.0061935570748808538 -0.069844512408203288 0.03740569863800447
leaf_weight=21.261594489216805 4.9820807576179487 8.2181678861379588 8.5434243977069908 5.5852691233158138 5.8624525070190412 5.4882772117853147 80.360226824879646 9.8685153126716596 5.3434408307075483 5.5867168158292797 5.979683697223666 6.3718059509992617 5.7397796660661689 5.7830924391746512 7.3072764128446561 5.820710405707362 8.4605552256107313 9.0851924717426318 5.9429069459438324 6.1838287711143494 6.8257706612348557 14.115017428994177 6.027177095413208 93.202672332525253 10.159651666879652 5.1023967266082764 5.944875031709671 5.1341672539711007 20.053096577525139 13.740549460053442
leaf_count=69 20 38 30 21 22 22 266 36 20 19 24 21 25 22 28 20 27 34 24 22 23 45 23 458 32 22 24 20 66 59
internal_value=-0.0084504 0.0186924 0.0289912 0.0394223 0.04731 -0.00790026 -0.0473193 -0.0301532 -0.0148528 -0.026668 -0.0294279 -0.036084 0.0532063 -0.0461948 0.0107838 -0.0461642 -0.0460158 0.0186515 0.0398058 0.00755078 -0.0147816 -0.0540665 -0.0266802 0.0598623 -0.0635116 0.0422591 0.0328648 0.0401173 -0.0609475 0.0620684
internal_weight=408.08 240.591 202.911 172.445 147.809 24.6365 167.489 87.1291 65.8675 54.5812 30.4659 37.6799 135.121 24.4862 18.8389 35.7423 14.0458 22.4375 11.2863 11.1659 12.6882 26.514 12.399 112.683 18.7031 10.5907 13.2522 13.3523 25.8738 106.943
internal_count=1582 1010 879 771 679 92 572 306 237 193 108 131 634 84 71 122 48 92 44 42 45 89 44 542 62 44 52 58 86 517
is_linear=0
shrinkage=0.05


Tree=11
num_leaves=31
num_cat=0
split_feature=33 52 62 40 34 43 7 91 67 69 41 52 21 21 41 3 37 36 29 51 84 33 30 50 47 54 79 73 45 87
split_gain=130.581 45.8051 45.1074 30.9773 27.8105 26.115 18.2585 22.0957 14.1271 14.0399 13.6962 12.7819 10.8998 9.07189 8.87813 9.18026 8.69907 7.90641 7.10889 6.78627 6.32033 5.91262 4.35221 4.06756 7.01412 3.52302 3.26852 4.31546 2.528 2.18536
threshold=2.0623464282385688 647.50000000000011 0.74022216555672216 0.13113299430028499 0.42993047902775045 2.6974942907236947 0.71008815739125697 0.59375786173044942 76.250000000000014 0.8372081696269118 0.19841930637460239 863.50000000000011 -61.749999999999993 -46.499999999999993 0.14265881216998891 0.96922348484848497 0.065559994489599135 0.31313099609763245 0.65336316823959362 0.56270680177079402 16.500000000000004 1.9593813073300683 0.6828306019306184 0.5370884615828474 0.29905208300741859 863.50000000000011 17.500000000000004 34.417971791997786 0.55069863402703956 1.5000000000000002
decision_type=8 10 10 10 10 10 8 10 8 10 10 10 8 10 8 10 10 10 10 10 10 10 8 10 10 10 10 10 8 2
left_child=1 2 4 6 5 9 -2 20 13 -1 11 14 16 -9 15 -3 19 -4 -12 -5 -8 25 -16 -19 -25 -11 -27 -28 -13 -22
right_child=3 10 17 12 -6 -7 7 8 -10 21 18 28 -14 -15 22 -17 -18 23 -20 -21 29 -23 -24 24 -26 26 27 -29 -30 -31
leaf_value=-0.0063875384094337646 -0.060772155697599729 -0.05130072464807911 0.01846588990930088 -0.032665462072597899 -0.037706742209758802 -0.051636142234017225 -0.00051012387116500929 -0.0086582414898389061 0.025738527336675882 0.061457890149000216 -0.06587331155216862 -0.062953678288807602 -0.071214903077282718 -0.075307733980767275 0.054835196386944556 0.031426730519791009 -0.053760997611877852 -0.067827099518189896 -0.0034585558801667332 0.039245074226551428 0.022180302655430046 0.0046847755285605161 -5.8124156204250992e-05 0.019223076263659666 -0.052237070153291612 0.0572540948529104 -0.016018842233093963 0.043757766312489142 -0.015068908233585802 0.067342720919703711
leaf_weight=9.8464866280555707 16.219059273600578 6.7677317857742327 6.1048331409692791 5.8247555345296878 10.029169484972952 5.800863415002822 8.4873599261045474 8.543404176831249 7.6973647773265865 97.403704404830933 17.143859460949901 6.460263550281522 68.15745048224926 12.849402546882626 11.337157234549524 5.0147151798009872 17.338266715407372 8.9110440909862536 6.2483385056257239 5.3209996819496155 5.493988260626792 5.7408532202243796 5.1020147502422324 5.3599707484245283 6.8878961354494095 7.318216115236285 5.4841060638427717 4.8121975660324097 5.6668825149536142 9.2281444221734983
leaf_count=37 54 23 24 20 35 19 32 31 31 486 56 21 228 42 47 20 58 29 23 21 22 23 20 21 23 34 21 21 20 40
internal_value=-0.00815371 0.015581 0.0288428 -0.042164 0.0398116 0.045744 -0.0161135 -0.00138367 -0.0299679 0.0504287 -0.0204459 -0.00250129 -0.0602796 -0.050266 0.0159707 -0.0163871 -0.0325854 -0.0293954 -0.0500269 0.00206939 0.034201 0.0550758 0.0387722 -0.0434146 -0.0218739 0.0575289 0.033668 0.0133195 -0.0434301 0.0529718
internal_weight=402.6 237.44 173.699 165.16 146.436 136.406 68.5187 52.2997 29.0902 130.606 63.741 40.3488 96.6415 21.3928 28.2216 11.7824 28.484 27.2637 23.3922 11.1458 23.2095 120.759 16.4392 21.1589 12.2479 115.018 17.6145 10.2963 12.1271 14.7221
internal_count=1582 1003 773 579 676 641 252 198 104 622 230 151 327 73 110 43 99 97 79 41 94 585 67 73 44 562 76 42 41 62
is_linear=0
shrinkage=0.05


Tree=12
num_leaves=31
num_cat=0
split_feature=8 41 73 34 71 41 62 37 43 79 32 48 75 21 3 41 10 36 40 11 49 8 45 2 29 34 45 90 42 53
split_gain=147.662 48.6604 32.2096 29.6447 22.2961 17.4254 14.549 19.5224 12.3522 11.698 10.2115 10.1349 10.8061 9.36055 7.83345 8.45668 7.17976 7.15661 6.60762 5.75015 5.69864 5.30415 5.06515 4.98911 3.50496 2.94592 2.6544 3.2007 3.03309 2.61405
threshold=0.95482454030137409 0.098262682003314797 7.0593069803046147 0.27371135014448583 93.472647472482961 0.1770541268749414 0.73217332873575425 0.17129987129987131 2.6640134708530661 5.5000000000000009 3.3411036551013695 0.40067867341329094 36.784166998280313 8.2500000000000018 1.1449579831932775 0.20270261563795264 163.03079223632815 0.067301227840486907 0.097844460523301729 396.2000000000001 2.5353123534957587 0.98876089707823722 0.43527628924394285 1.3034114853559213 0.67915062109629332 0.081994672630215384 0.35846529488206197 0.90699713231423995 0.60635698936706273 0.2117696688580282
decision_type=10 10 10 10 10 10 10 8 10 10 10 10 10 10 10 10 10 8 10 10 10 10 10 8 8 8 10 10 10 10
left_child=5 9 13 4 8 6 7 11 14 -2 20 17 -13 -3 22 -16 21 -1 24 -14 -11 -5 -4 -9 -12 -24 -7 28 -28 -27
right_child=1 2 3 16 -6 26 -8 23 -10 10 18 12 19 -15 15 -17 -18 -19 -20 -21 -22 -23 25 -25 -26 29 27 -29 -30 -31
leaf_value=0.043310597803479997 -0.020909508783080212 -0.059106483743693698 0.0049835338045255695 -0.072837506620994696 -0.042246465397211025 -0.02422346645902896 -0.064550304833049632 0.065393127632784848 -0.035366922316282821 0.061673753783532542 0.06283059910398657 0.019307089414058731 -0.060649028731979804 0.008258071397709954 0.041109581101684091 -0.038921457569960322 0.0083582837870518345 -0.028159971146946773 -0.020696437563076545 -0.0041325755474001758 0.0067425377876262557 -0.012203415785414168 0.014556664239137068 0.0052689711093957831 0.01016966194311052 0.060955205117234491 -0.056701190396592133 -0.068977717169757757 -0.0059718790620524901 0.014572653952521875
leaf_weight=6.3239777982234928 5.8736852705478659 24.65747091174126 6.3655304759740821 11.047252923250204 9.8633241057395917 6.1559279859066001 19.873124450445175 6.2369572222232792 5.0588237643241873 65.870123714208603 5.6616872996091852 5.7037852704524985 29.025894105434418 6.1711429357528678 5.7394171357154828 5.4717698395252228 5.9531565159559241 5.7755769491195688 7.1055047661066046 5.4737970530986777 5.3619987070560446 5.813118487596511 5.3304148912429801 6.9601509124040613 6.9003407657146463 41.31535516679287 6.0761027783155424 60.337498605251312 5.49786277115345 4.0686827003955832
leaf_count=25 21 83 27 36 34 21 68 26 17 331 27 22 98 24 28 21 23 20 25 20 22 21 23 27 27 204 20 205 20 16
internal_value=-0.00788755 0.0175964 -0.00163806 0.0115063 0.0253405 -0.0442009 -0.0280658 -0.016192 0.0348748 0.0445362 0.0489466 -0.0298662 -0.0417043 -0.0457859 0.0405135 0.00206073 -0.0378994 0.00964963 0.0160225 -0.052051 0.0576894 -0.0537858 0.0479005 0.0362883 0.0367867 0.0530868 -0.0612679 -0.0640633 -0.0349952 0.0572008
internal_weight=397.069 233.629 136.855 106.027 83.2133 163.441 85.3733 65.5001 73.35 96.7733 90.8997 52.303 40.2035 30.8286 68.2912 11.2112 22.8135 12.0996 19.6675 34.4997 71.2321 16.8604 57.08 13.1971 12.562 50.7145 78.0674 71.9115 11.574 45.384
internal_count=1582 1010 557 450 370 572 306 238 336 453 432 185 140 107 319 49 80 45 79 118 353 57 270 53 54 243 266 245 40 220
is_linear=0
shrinkage=0.05


Tree=13
num_leaves=31
num_cat=0
split_feature=8 41 69 33 8 41 50 63 25 8 82 37 34 22 32 3 23 32 3 75 70 31 43 79 4 3 50 50 24 48
split_gain=135.552 45.1658 30.5872 27.5079 19.0442 16.3389 20.1787 14.2489 13.8493 12.3935 10.9531 9.90627 8.96284 8.29331 8.18128 7.99884 7.70996 7.38855 7.17991 6.04197 7.15415 5.85562 5.79553 4.777 4.55925 3.31552 3.06255 2.85694 2.84556 2.76847
threshold=0.95482454030137409 0.10427400736667497 0.78040048966886799 1.6147003327780067 0.97872368650617902 0.1770541268749414 0.48877075424739291 0.43617480858832464 254.00000000000003 1.068303356042217 13.500000000000002 0.10643636612072768 0.42498710448155502 -126.29999999999994 2.1127122058525223 0.74239631336405543 288.25000000000006 2.513284995957731 0.84924242424242447 41.316565221213132 46.749723821832674 27.703086928768581 1.7638101558033912 6.5000000000000009 0.88617904033187311 1.0563492063492066 0.55230710364674196 0.58609959872497186 90.500000000000014 0.52985626877376102
decision_type=10 10 10 10 10 10 8 10 8 10 10 10 10 10 10 10 8 8 10 10 10 2 10 8 10 8 10 10 8 8
left_child=5 10 21 9 13 6 -1 8 17 24 -2 28 15 -5 27 -12 -10 -8 -13 23 -21 -3 -9 -17 -4 -20 -18 -11 -6 -19
right_child=1 2 3 4 11 -7 7 22 16 14 12 18 -14 -15 -16 19 26 29 25 20 -22 -23 -24 -25 -26 -27 -28 -29 -30 -31
leaf_value=-0.069306811228485796 -0.020169566283271038 -0.065654718279021071 0.013490321046575715 0.00096399187132483485 0.0080414878807394188 -0.05934227239250045 -0.0045028514627114477 -0.0024555428112572348 -0.034788976579195073 -0.0051722751580822544 0.0009605596532524718 -0.046808074639895156 -0.018947985252900715 -0.065876541582302536 -0.050198926928026202 0.0067870160493741271 0.0074629325859950748 -0.020478204100452244 0.041271165577308533 -0.022481918912524917 0.055299794544666526 -0.0095246399956234445 0.067038342385247571 0.063383696976624923 0.055574423322288638 -0.012828600819853535 0.055301433236973431 0.045693597407870851 0.063302065797584364 -0.064994370132603493
leaf_weight=20.225707218050957 5.9912311285734168 17.848459422588352 8.9191606342792493 6.1720913797616985 3.7356965988874453 76.720778420567513 9.8234221637248975 5.2314070761203748 5.5131201595068005 4.977638900279997 7.5433360189199439 7.3587007224559811 4.4350727796554557 17.36220195889473 5.3296942412853232 4.2197015136480323 7.26959280669689 5.6843829751014736 4.7801463901996586 5.1947542577981931 4.808437168598175 6.670806184411048 5.8251816928386688 65.651795417070389 32.583297803997993 4.8444942831993112 5.8350358009338379 4.7268379926681519 7.0471738427877426 19.060611546039581
leaf_count=69 22 59 37 23 16 266 36 20 19 20 30 25 16 59 19 17 28 20 22 20 21 24 24 340 166 19 24 21 34 66
internal_value=-0.00762341 0.0169807 -0.00210164 0.0094663 -0.0168816 -0.0426495 -0.026971 -0.0127843 -0.0235545 0.0332519 0.0425539 0.0111174 0.0468183 -0.0490222 -0.00542479 0.0503314 0.0108635 -0.0418756 -0.0126605 0.0549245 0.0165348 -0.0513554 0.036681 0.0601097 0.0470605 0.015396 0.0311744 0.0215575 0.0464645 -0.0559608
internal_weight=391.39 230.201 132.356 107.837 51.3005 161.189 84.4685 64.2428 53.1862 56.5366 97.8443 27.7662 91.8531 23.5343 15.0342 87.418 18.6177 34.5684 16.9833 79.8747 10.0032 24.5193 11.0566 69.8715 41.5025 9.62464 13.1046 9.70448 10.7829 24.745
internal_count=1582 1010 544 461 198 572 306 237 193 263 466 116 444 82 60 428 71 122 66 398 41 83 44 357 203 41 52 41 50 86
is_linear=0
shrinkage=0.05


Tree=14
num_leaves=31
num_cat=0
split_feature=8 53 90 10 43 41 50 37 21 6 69 48 48 78 78 32 75 42 10 12 19 52 40 78 42 47 33 68 33 65
split_gain=124.489 42.0166 34.5129 25.5513 17.2164 15.1701 18.8819 13.6237 13.266 13.0339 12.3648 12.3231 12.0317 8.78644 8.51418 8.92606 7.4828 6.93976 5.87324 5.6114 4.85151 4.14571 4.69857 4.0064 3.85915 3.69589 3.40443 3.07821 3.00876 5.44842
threshold=0.95482454030137409 0.19697439986810475 0.87858333097974983 133.74591064453128 2.2928941762337982 0.1770541268749414 0.48877075424739291 0.1736988292388513 -5.2499999999999991 908.00000000000011 0.83116101617149851 0.52081723216477671 0.60696759800644207 39.748471978469006 46.886548445692291 2.6616920873149499 37.123400646482914 0.36549367432894059 72.573467254638686 401.50000000000006 597.50000000000011 491.50000000000006 0.15280084164861327 17.426636108445226 0.61568289019201872 0.28570750750571988 1.7766289410875133 119.50000000000001 1.8356479159641836 429.25000000000006
decision_type=10 10 10 10 10 10 8 10 10 10 10 10 10 8 10 10 10 10 10 8 10 10 10 10 10 8 10 8 10 10
left_child=5 2 4 12 10 6 -1 11 17 18 20 13 -4 -8 15 -5 -13 -3 -10 -6 -2 -12 26 -19 -24 -15 -23 -27 29 -7
right_child=1 8 3 14 19 28 7 -9 9 -11 21 16 -14 25 -16 -17 -18 23 -20 -21 -22 22 24 -25 -26 27 -28 -29 -30 -31
leaf_value=-0.067417732531932908 -0.031811244737726528 0.0050339656514590304 0.0084222048989747063 0.044984694617092938 -0.036778551591349955 0.0047109000326646631 -0.039997113472258455 0.048309525908204816 -0.057594544244284132 0.048552952300061035 0.062234335679156094 0.00736212346794824 -0.059103274031074488 -0.0063339966193524571 0.069600336559435122 -0.022022767798529484 -0.057621362516449941 -0.027687718282741677 0.005063813678296494 0.02506897652929916 0.029849469345327923 0.056597268144459867 -0.020946058405197567 -0.075999853759129862 0.037142823841908749 0.058107328824700134 0.0036893240442828776 0.0092988843651791546 -0.062426476239626133 -0.05654731064394828
leaf_weight=19.791852727532387 5.5481883436441404 5.0211447626352337 9.4693051278591174 8.3052186369895988 7.6441523134708378 5.7777831107377997 8.1591831445693987 7.2097493559122077 6.3076709210872668 8.857800826430319 64.229326099157333 5.2714262008667019 19.161369204521179 8.9931319653987902 8.0550828427076322 9.7565685510635358 21.20604382455349 8.5938460081815737 7.3578518182039261 5.4607226401567468 5.2238582223653793 21.312300115823749 5.0433792471885663 13.15479616820812 4.4789453148841858 5.8776849508285496 3.688454031944274 6.9574912935495385 61.486301496624947 8.1521730422973615
leaf_count=69 20 20 38 40 26 21 29 30 21 42 353 20 66 33 36 37 74 31 27 21 21 110 21 43 21 24 16 27 218 27
internal_value=-0.00736084 0.0164077 0.027731 -0.00522872 0.042369 -0.0411608 -0.0259807 -0.0122577 -0.0240792 0.0042539 0.0488037 -0.0206973 -0.0372394 0.00142 0.0299422 0.00953232 -0.0448866 -0.0472126 -0.0258129 -0.0110569 -0.00191361 0.0542998 0.0382014 -0.0589659 0.00731003 0.0179752 0.0492337 0.0342345 -0.0574014 -0.0325253
internal_weight=385.553 226.67 177.377 54.7475 122.629 158.883 83.4666 63.6747 49.2931 22.5233 109.524 56.465 28.6307 29.9875 26.1169 18.0618 26.4775 26.7698 13.6655 13.1049 10.772 98.7524 34.5231 21.7486 9.52232 21.8283 25.0008 12.8352 75.4163 13.93
internal_count=1582 1010 826 217 609 572 306 237 184 90 562 207 104 113 113 77 94 94 48 47 41 521 168 74 42 84 126 51 266 48
is_linear=0
shrinkage=0.05


Tree=15
num_leaves=31
num_cat=0
split_feature=33 54 62 43 40 69 35 8 7 91 41 52 37 91 22 5 30 41 11 2 30 47 76 8 57 21 33 37 34 3
split_gain=110.157 38.6113 41.9519 21.5321 20.3152 18.1648 12.2701 12.2277 11.3355 13.1637 10.8557 11.5576 7.68902 11.1247 7.22525 6.87598 6.39992 7.21717 4.93897 4.8407 4.08125 3.93137 3.70456 3.69476 3.45504 3.25891 3.19192 3.18434 3.01203 1.92369
threshold=2.0935918880115003 974.50000000000011 0.82557303456149156 2.5723478526542696 0.08860443052263603 0.89232136291212172 0.6707361397022652 0.95482454030137409 0.7455882162955082 0.91917849928462647 0.19841930637460239 1070.5000000000002 0.065559994489599135 0.91413941378176966 -134.14999999999984 0.37070128212662157 0.75062295794487011 0.087260297827935526 241.50000000000003 1.3034114853559213 0.63650065660476696 0.20142819145445368 26.373675956536498 1.0459695364322044 0.18667704610960972 -5.7499999999999991 1.9771075089937484 0.07854152897113903 0.059352719360805169 1.2886904761904765
decision_type=8 10 10 10 10 10 10 10 8 10 10 10 8 10 10 10 8 10 10 10 10 8 8 10 8 8 10 10 8 10
left_child=1 2 3 5 8 6 -1 21 -2 16 11 15 13 -6 -15 24 -10 -18 -4 -17 -12 -7 -8 -14 -3 -20 28 -11 -9 -30
right_child=4 10 18 -5 12 7 22 26 9 27 20 -13 23 14 -16 19 17 -19 25 -21 -22 -23 -24 -25 -26 -27 -28 -29 29 -31
leaf_value=0.0487387750210799 -0.052120590917149767 0.052411878199805841 -0.071900421328542602 -0.041838657368770349 0.032008723492166158 0.031302515505876163 -0.060083957796464242 0.0046367010122295984 0.045218966634494248 -0.0082914654980855845 -0.064610633679366175 -0.056252556654996823 -0.066452057537277037 -0.0046969625024472564 -0.061803203698334634 0.011381393442723653 0.023701725116470746 -0.042260507178373125 -0.039180001295422512 -0.040090320672303961 -0.01535165774327741 -0.021510725519270944 -0.0037047483221016291 -0.024320484636615722 0.0017854476680996213 0.0093340768886405936 0.012497389074911429 -0.055764425204109458 0.058643536162752745 0.016601013638896042
leaf_weight=5.5443766117095974 14.359065964817999 8.7295002341270447 6.7833469510078457 7.449389159679412 5.1212252080440548 5.1619691103696796 5.9678813666105244 2.9922020137310019 11.635226786136629 6.1404555290937415 12.896789610385897 7.2938235849142066 62.59233757853508 8.2487664818763751 17.022665455937386 9.7459118664264697 9.4305733144283277 5.8877608180046073 7.120382085442543 7.0847040712833396 7.1439762711524954 7.232478380203248 5.2475658953189859 7.3353122323751441 5.2670245468616494 5.4789611399173719 5.1585338413715354 8.8319998085498792 94.044806271791458 3.7825717329978934
leaf_count=24 51 36 22 25 21 21 20 14 50 23 43 25 224 31 61 38 38 21 25 25 26 27 20 26 20 20 22 31 514 18
internal_value=-0.00786219 0.0149265 0.0274341 0.0368298 -0.0397857 0.041442 -0.00691666 0.0482894 -0.0153707 -0.00186336 -0.0197786 -0.00376353 -0.0531969 -0.0306239 -0.0440516 0.0100328 0.0188704 -0.00268763 -0.0400981 -0.0113184 -0.0486153 0.00117949 -0.0361676 -0.0624377 0.0347501 -0.0189481 0.0537366 -0.038033 0.0557031 0.0572024
internal_weight=376.732 220.126 161.964 142.582 156.605 135.132 16.7598 118.373 56.2851 41.926 58.1617 38.121 100.32 30.3927 25.2714 30.8271 26.9536 15.3183 19.3827 16.8306 20.0408 12.3944 11.2154 69.9276 13.9965 12.5993 105.978 14.9725 100.82 97.8274
internal_count=1562 985 772 705 577 680 64 616 214 163 213 144 363 113 92 119 109 59 67 63 69 48 40 250 56 45 568 54 546 532
is_linear=0
shrinkage=0.05


Tree=16
num_leaves=31
num_cat=0
split_feature=8 53 32 41 90 50 48 69 64 31 37 72 23 8 48 8 32 34 15 84 63 49 68 35 49 23 12 44 21 57
split_gain=101.354 37.1964 37.7975 16.749 15.1881 17.7625 14.5562 12.3613 12.0352 10.4674 9.81943 9.86074 9.69095 9.40714 8.04347 7.08063 8.53601 7.06347 6.9614 5.36778 5.02909 4.46306 3.88047 3.85092 3.64684 3.27564 3.08503 2.86801 2.75734 1.84887
threshold=0.95482454030137409 0.37915195730880713 3.3411036551013695 0.10506804159451051 0.93869555978332853 0.49057108671025956 0.41397317391146277 0.77458690330477376 0.25406046104398089 19.085476701014134 0.1736988292388513 46.352916558762267 365.25000000000006 0.98524575998119868 0.55292571802531143 1.0564377065570874 1.8605238335322725 inf 100.71705245971681 29.500000000000004 0.37967805168510549 2.5353123534957587 74.499999999999901 0.58078826826193575 1.7073448955124464 236.50000000000003 361.50000000000006 0.36908567605244164 -39.749999999999993 0.27016642120765838
decision_type=10 10 10 10 10 8 10 8 10 2 10 8 10 10 10 10 10 8 10 10 10 10 8 10 10 10 10 10 8 10
left_child=4 2 3 21 5 -1 9 -5 12 -6 11 20 18 17 -10 27 -17 19 -4 -9 -7 25 -22 -8 -18 -2 -3 -15 -13 -27
right_child=1 26 8 7 6 10 23 13 14 -11 -12 28 -14 15 -16 16 24 -19 -20 -21 22 -23 -24 -25 -26 29 -28 -29 -30 -31
leaf_value=-0.057864639166101253 0.013759797033228945 -0.019645986213387135 0.023761593205686337 -0.042061279360591723 -0.044211029700520738 -0.054078955687521295 -0.019771075613615491 -0.052085426910069225 0.0093833064209617768 0.043509404033871532 0.045885930199097209 -0.0079405413852537618 0.057933321199197675 0.055901472191611762 -0.054016055611797203 0.053065881747839966 -0.041162621215727779 0.033686190384009017 -0.035630236962293171 0.003958420653867153 -0.03337032889127766 0.011838751607618641 0.015142982024238661 -0.064305526451104156 0.010078634251220634 0.062997810427446371 -0.065548847754456338 0.0067244724131068833 0.034824122750281322 0.020481980850925428
leaf_weight=21.059335291385651 4.8028072565793982 6.6645826846361187 7.8436366319656434 6.8501488268375388 5.8147389441728574 11.851614668965341 6.4195060878992072 6.4860584288835588 6.2245991379022625 5.7884907722473145 7.3727760463953009 5.5760912746191025 6.2490174472331992 27.795906037092212 19.923042923212051 6.6639275550842312 5.2971856594085676 8.3782575875520688 10.300148755311964 9.6518035084009153 7.5422100424766549 6.7600354552268973 7.1267159432172749 66.912933260202408 7.0600975006818771 49.809193447232246 12.128321662545202 3.6341707855463019 8.9103714078664762 3.9754697084426871
leaf_count=77 25 24 35 23 20 42 23 23 24 23 31 20 29 152 70 33 20 39 36 39 27 29 27 247 31 280 41 17 36 19
internal_value=-0.0076373 0.0144187 0.0208709 0.0336252 -0.0384628 -0.0206754 -0.0525951 0.0182038 -0.0161993 -0.000469994 -0.00364321 -0.0134286 0.00895811 0.0241917 -0.0391338 0.0363376 0.0114238 -0.00124754 -0.0100549 -0.0202913 -0.0311402 0.0523681 -0.0103385 -0.0607254 -0.0133241 0.0567673 -0.0510852 0.050598 0.0189134 0.0602865
internal_weight=370.873 216.498 197.706 147.165 154.375 69.4391 84.9357 81.8176 50.5404 11.6032 48.3798 41.007 24.3928 74.9674 26.1476 50.4513 19.0212 24.5161 18.1438 16.1379 26.5205 65.3475 14.6689 73.3324 12.3573 58.5875 18.7929 31.4301 14.4865 53.7847
internal_count=1562 989 924 730 573 260 313 377 194 43 183 152 100 354 94 253 84 101 71 62 96 353 54 270 51 324 65 169 56 299
is_linear=0
shrinkage=0.05


Tree=17
num_leaves=31
num_cat=0
split_feature=33 54 62 43 10 69 8 61 8 35 41 52 46 38 47 48 34 41 44 29 39 43 11 30 31 76 33 75 21 34
split_gain=94.2117 33.2512 36.3991 19.2051 17.5905 16.3925 12.7994 11.9931 11.0287 11.0213 9.76146 10.2473 8.99074 7.90918 6.59831 6.16304 9.85074 8.86258 5.4328 5.34161 5.16452 4.98983 4.7887 4.58101 3.89722 3.36947 3.14073 3.01883 2.94742 2.92943
threshold=2.0935918880115003 974.50000000000011 0.82557303456149156 2.5723478526542696 331.34373474121099 0.89232136291212172 0.98333279169183441 1478.0000000000002 0.95482454030137409 0.6707361397022652 0.19841930637460239 1070.5000000000002 2.0028303060915293 0.3266655989991703 0.20757429266811142 0.60149662559469264 0.20296250489078632 0.15485150235924064 0.23811718440315233 0.65651619434356701 0.062256914070385576 2.1704023266378223 241.50000000000003 0.63650065660476696 29.953439079835238 26.373675956536498 1.9771075089937484 37.298660646813964 -10.749999999999998 0.059352719360805169
decision_type=8 10 10 10 8 10 10 10 10 10 10 10 10 8 8 8 10 10 10 10 8 10 10 8 2 8 10 8 10 8
left_child=1 2 3 5 6 9 15 -8 18 -1 11 12 20 21 -14 16 17 -2 -7 -12 -3 -9 -4 -16 -6 -11 29 -17 -24 -10
right_child=4 10 22 -5 24 8 7 13 26 25 19 -13 14 -15 23 27 -18 -19 -20 -21 -22 -23 28 -25 -26 -27 -28 -29 -30 -31
leaf_value=0.046828104664642281 0.031140699987281618 0.068195211158871075 -0.069060398534970521 -0.039415243543629741 -0.005841839016490314 0.029504561504046695 -0.048679342335386726 0.023437197828065779 0.0032771623128186652 -0.056940300444587394 -0.061121636150412606 -0.053219544587607526 -0.052811733842986819 0.062230321301327218 0.038800392835367549 -0.017042863990826232 -0.054700937622217699 -0.036720736475035695 -0.032437263041895419 -0.0027572637410419993 0.0083678041875585134 -0.036895610214417111 -0.038773717134053705 -0.02199442850656548 0.045732835947404765 -0.0031876790525115517 0.010839826193804048 -0.062342245474215241 0.007272280394415527 0.055205941143162789
leaf_weight=5.4256577938795116 8.2647413611412066 6.3033545911312112 6.6201358735561397 7.4212910681962958 8.3583703786134702 6.76123099029064 11.932825699448587 5.7020153403282183 2.9311592727899543 5.9645031690597508 14.244975402951242 7.0897832214832297 5.9503694623708752 4.890990436077117 5.2731578648090336 4.8524997532367697 21.736336693167686 9.0257326364517194 5.5099795758724213 5.4088211655616751 7.7653465420007715 6.0845752954483032 6.1336966156959543 5.2078981995582589 5.2608257979154578 5.2300679236650476 5.0806367397308341 65.542253702878952 6.2590265125036213 92.723981663584709
leaf_count=24 32 28 22 25 32 28 41 25 14 20 49 25 20 23 21 18 79 33 20 20 31 21 22 19 22 20 22 251 23 532
internal_value=-0.00738521 0.0140194 0.025934 0.0349391 -0.0373865 0.0394652 -0.042715 -0.0124036 0.0462317 -0.00655604 -0.0183505 -0.00309234 0.00987937 0.0148372 -0.014927 -0.0504564 -0.0330614 -0.00435428 0.00134319 -0.0459707 0.0379197 -0.00815802 -0.0374789 0.00930766 0.015846 -0.034148 0.0516329 -0.0595021 -0.0167113 0.0536651
internal_weight=364.956 213.305 156.061 137.049 151.651 129.627 138.032 28.6104 113.007 16.6202 57.2437 37.5899 30.5001 16.6776 16.4314 109.422 39.0268 17.2905 12.2712 19.6538 14.0687 11.7866 19.0129 10.4811 13.6192 11.1946 100.736 70.3948 12.3927 95.6551
internal_count=1562 985 772 705 577 680 523 110 616 64 213 144 119 69 60 413 144 65 48 69 59 46 67 40 54 40 568 269 45 546
is_linear=0
shrinkage=0.05


Tree=18
num_leaves=31
num_cat=0
split_feature=8 53 32 22 10 90 5 48 28 41 4 41 31 35 54 82 69 32 59 75 72 37 48 22 38 34 41 53 1 21
split_gain=86.6761 32.3071 33.0122 15.1703 17.6811 13.617 15.1493 13.5831 11.1321 11.1002 11.5602 10.7403 9.34279 7.88827 7.58309 7.54316 6.76819 7.32493 6.27396 5.75081 6.28442 5.40102 4.93005 4.82163 3.85882 3.75921 4.58949 3.47772 3.44187 2.93491
threshold=0.95482454030137409 0.37915195730880713 2.7764190599220284 13.300000000000013 331.34373474121099 0.93869555978332853 0.39846970234067014 0.41397317391146277 0.11584300335235635 0.18441882548180161 0.90519810797670575 0.098262682003314797 19.085476701014134 0.83203366015180114 629.50000000000011 40.500000000000007 0.88950234178529419 2.1631679192129503 0.23176767879347002 37.02194153996377 46.352916558762267 0.057596153846153859 0.44656715466093289 -108.49999999999993 0.48601309253775055 0.051336607941192873 0.18277685849406788 0.085478668396670329 0.97160735812029209 -5.7499999999999991
decision_type=10 10 10 10 10 10 8 10 10 10 10 10 2 8 10 8 8 10 10 8 8 10 10 8 10 10 10 8 10 8
left_child=5 2 9 4 8 6 13 12 14 24 -11 -10 -7 15 -4 22 -12 -18 -19 -8 -21 -16 -1 -24 -2 26 -9 -13 -23 -3
right_child=1 29 3 -5 -6 7 19 25 11 10 16 27 -14 -15 21 -17 17 18 -20 20 -22 28 23 -25 -26 -27 -28 -29 -30 -31
leaf_value=-0.05976367932311745 0.051339925049659896 -0.064843721310512983 0.0021514190418631556 0.046723709658425497 0.055225629536495416 -0.041238584980484751 0.060636749629469015 0.0036083552944372941 0.063451055318430025 -0.029565541136789594 -0.015476917943880586 -0.042866728666908084 0.042120763752087925 -0.05493393579563613 -0.0031871662285587136 0.033747373113613484 0.060213355675227169 -0.020691357025024868 0.050300808580316672 -0.033830079280278716 0.03089171683021252 -0.016373291835496486 -0.043191174915105643 0.011122066182962872 0.0026133822733106138 -0.063484230786121976 -0.055500553349046688 0.012375996756501506 -0.065270762637283972 -0.021097126315914021
leaf_weight=6.9006118774414125 67.367096081376076 10.494849085807799 9.4950150549411756 10.659815281629561 6.9526857584714881 5.7036019265651685 4.8534954488277462 5.7924607545137388 5.2672119140624991 9.862084895372389 6.207717463374137 5.3918682634830448 5.7419275194406509 22.069288417696953 5.7250033617019644 5.4988493323326102 16.572382211685184 7.0018327683210355 4.1213032603263855 5.9946966320276234 7.0878286659717569 5.2091839015483883 5.6841417253017426 9.7409470975399 4.4372436106204978 57.954696848988533 6.2510626763105392 4.4999483376741418 22.467171341180801 7.8165080100297955
leaf_count=23 387 37 39 56 30 20 21 22 26 39 23 21 23 85 22 22 91 31 22 22 29 20 20 38 20 225 23 20 77 28
internal_value=-0.00717189 0.0135536 0.0196896 -0.00595461 -0.0151696 -0.0361628 -0.0191954 -0.0498897 -0.0243925 0.0363869 0.0160265 0.0118652 0.000604882 -0.033194 -0.0371839 -0.0146432 0.0297559 0.0400804 0.00759184 0.0194419 0.000938452 -0.0481033 -0.0274977 -0.0103034 0.0484061 -0.0580384 -0.0289744 -0.018907 -0.0569593 -0.0482292
internal_weight=358.823 209.549 191.238 75.6679 65.0081 149.274 67.8299 81.4437 58.0554 115.57 43.7653 15.159 11.4455 49.8938 42.8964 27.8246 33.9032 27.6955 11.1231 17.936 13.0825 33.4014 22.3257 15.4251 71.8043 69.9982 12.0435 9.89182 27.6764 18.3114
internal_count=1562 989 924 311 255 573 260 313 225 613 206 67 43 188 158 103 167 144 53 72 51 119 81 58 407 270 45 41 97 65
is_linear=0
shrinkage=0.05


Tree=19
num_leaves=31
num_cat=0
split_feature=33 54 69 63 43 10 41 54 44 31 35 54 51 33 42 11 34 80 86 41 27 25 47 44 4 76 31 34 38 17
split_gain=81.0705 33.9156 28.8772 16.0936 15.3354 14.1616 10.5317 9.11294 10.391 9.39055 8.28532 7.25712 7.19014 6.45436 6.17236 6.53057 5.59596 5.06731 5.05067 8.02672 4.68341 7.41219 4.10577 3.65546 6.29535 3.46108 3.42214 3.40186 3.30494 2.70086
threshold=2.31917377513212 974.50000000000011 0.89232136291212172 0.96807439386356253 2.4797226593670971 306.79356384277349 0.19841930637460239 1611.5000000000002 0.29751894219556679 18.731494915186651 0.65956850593903715 816.50000000000011 0.60154399149584514 1.6826746600081404 0.54434110677348524 292.25000000000006 0.38184588082916088 22.500000000000004 27.078805888577168 0.062752912317823775 0.18174100941503321 185.55000000000021 0.31329640643121076 0.22005181494850781 0.90677777539169968 33.464519835731373 29.953439079835238 0.1942723564265762 0.12579890964421744 311.50000000000006
decision_type=8 10 10 10 10 8 10 8 8 2 10 10 10 8 10 8 10 10 8 10 10 10 10 10 10 8 2 8 8 10
left_child=1 2 10 4 11 12 7 8 9 25 -1 23 18 -10 -12 -16 20 -8 19 -2 21 -13 -21 -4 -25 -3 -7 -22 -20 -26
right_child=5 6 3 -5 -6 26 17 -9 13 -11 14 16 -14 -15 15 -17 -18 -19 28 22 27 -23 -24 24 29 -27 -28 -29 -30 -31
leaf_value=0.021831383941849788 0.014455415525901764 -0.066597985790345982 0.057608270270251928 -0.043305823716626453 -0.02622560263562412 -0.010610467196746479 -0.059851022325365669 -0.057305356577282723 0.061715708249624003 0.020625199382864938 -0.059416300241432476 -0.029329422516532283 0.0083462667961581808 -0.0055323434203372974 -0.043039410721814129 0.023758239211724496 -0.02776530301656259 -0.010544496516629538 -0.023850004337648684 -0.053668457711872425 0.0068474490426741891 0.040227434879995437 -0.0077419800580291673 -0.0026914135737693724 0.011675385450291381 -0.012302583515227151 0.040225926514602252 0.0632256769646624 -0.061080808122450758 0.05248890523187591
leaf_weight=8.2094710171222669 7.0405458509922019 6.2931372374296197 49.946753025054932 5.8594884425401679 8.4838905781507474 7.1888836324214918 16.722044184803966 5.7556873112916938 8.8578036725521052 9.3447347581386548 11.326977804303171 6.5901406407356315 5.5616203099489203 5.3517552167177209 6.0732263177633259 6.6524579972028741 4.5332843214273444 8.0849835723638517 8.5616657882928831 21.362783774733547 3.9743086993694279 6.7622121423482895 6.699694260954856 8.5671245306730253 5.6306657195091274 5.8367578089237222 4.680517390370369 9.2858999818563461 59.434170663356781 24.311783090233803
leaf_count=34 28 21 304 20 30 27 60 21 39 38 39 27 23 20 22 27 17 30 35 78 18 34 26 39 31 22 20 50 237 145
internal_value=-0.00694261 0.010319 0.0223425 0.0325304 0.0363082 -0.0400444 -0.0197307 -0.00401395 0.00590951 -0.0158604 -0.0196616 0.0409247 -0.0456701 0.0376895 -0.0341298 -0.00893351 0.0192996 -0.0448126 -0.0486362 -0.0316748 0.0280319 0.00624563 -0.0433475 0.0482382 0.0349347 -0.0433985 0.0110041 0.0479933 -0.0568065 0.0454393
internal_weight=352.984 232.455 166.208 133.946 128.086 120.53 66.2469 41.4399 35.6842 21.4746 32.2621 119.602 108.66 14.2096 24.0527 12.7257 31.1458 24.807 103.099 35.103 26.6126 13.3524 28.0625 88.4563 38.5096 12.1299 11.8694 13.2602 67.9958 29.9424
internal_count=1562 1088 837 715 695 474 251 161 140 81 122 665 427 59 88 49 146 90 404 132 129 61 104 519 215 43 47 68 272 176
is_linear=0
shrinkage=0.05


Tree=20
num_leaves=31
num_cat=0
split_feature=8 53 33 34 34 29 4 10 44 44 52 90 35 37 10 49 41 3 29 31 41 47 59 38 49 54 33 49 3 53
split_gain=80.0498 36.0145 19.6907 17.7969 13.813 12.5552 11.995 11.3488 10.5451 11.3853 12.9479 8.23652 7.34235 6.76022 6.57014 6.46106 5.56699 4.98923 4.3782 4.01694 4.54116 3.88915 3.2383 3.03784 2.8468 2.70629 2.66518 2.38515 1.83233 2.4896
threshold=0.96649519691820107 0.23968070374217107 2.3268432697855999 0.28495216155648856 0.34261822693746463 0.52403529733419429 1.0629624185107869 306.79356384277349 0.11029684312636341 0.28536079372322104 743.50000000000011 0.95612396797248755 0.58791517974478247 0.069910930717627842 95.549526214599624 1.8375000052147896 0.059074172526061446 1.3969696969696972 0.66205019255479181 12.66710725696492 0.23843140915183583 0.2833154957777369 0.25747811542151694 0.088450158196586012 2.2550356799066038 976.50000000000011 1.7340864577151518 1.8676632387045438 0.78416149068322993 0.08277157831551811
decision_type=10 10 8 10 10 10 10 8 8 8 10 10 10 10 10 8 10 10 10 2 10 8 8 8 10 10 10 10 10 8
left_child=2 3 4 6 5 16 11 23 -7 10 15 17 -3 -5 -11 -10 -1 19 24 20 21 -2 -16 -4 -14 28 -6 -15 29 -21
right_child=1 12 7 13 26 8 -8 -9 9 14 -12 -13 18 27 22 -17 -18 -19 -20 25 -22 -23 -24 -25 -26 -27 -28 -29 -30 -31
leaf_value=0.0031126108440319785 0.056530257437545632 0.026525452609035789 -0.014141996215824279 0.027663382401609756 -0.020058117589850991 0.065578951575315944 -0.026446597467113767 0.0073968538157247804 0.045690882514759244 -0.017057829945269016 -0.065010803671738768 -0.0025942790217746529 -0.051822802750152455 -0.0054326818867188867 0.060809056061768653 -0.018847971876997535 -0.056270369045729879 -0.0092256585940459889 0.0066980643001930823 0.050250278972976181 -0.022562920836324656 0.0035769682208537236 0.010185641774992392 -0.054305053559307571 -0.0096197705222575876 0.0087353950562674924 -0.064402309112569375 -0.049448626678794322 0.057943696547530857 0.0011672845370349701
leaf_weight=5.6734447479248074 8.1811250895261765 4.9659892767667762 5.9145344048738471 5.7554161846637752 6.4127890169620541 6.6251676380634299 6.265914872288703 8.8030077368020994 5.709052801132203 5.2632332444191006 9.085885137319563 9.6036102920770627 19.732651278376586 5.1470760256051999 9.6138707101345027 8.2875740379095078 11.253766164183615 3.6893627047538748 4.977992817759513 5.0893831998109791 3.4625222980976096 5.8015636056661615 5.1617245525121698 74.902948990464211 5.5994274020194998 3.7790302187204352 11.137874796986578 7.8174455910921097 65.638772159814835 4.5717677175998697
leaf_count=22 51 21 24 25 24 30 24 35 28 22 31 39 71 20 42 32 40 14 20 28 14 30 22 307 22 17 41 27 409 19
internal_value=-0.00578685 0.0185477 -0.0295642 0.0302846 -0.0119913 -0.00135295 0.0375397 -0.0457643 0.011374 0.00174842 -0.0217669 0.0413963 -0.0259019 -0.014327 0.0285826 0.00876801 -0.0373037 0.045596 -0.0350644 0.0477645 0.0239983 0.0362645 0.0448909 -0.0515745 -0.0432138 0.0526423 -0.0501542 -0.0336142 0.0547025 0.0293118
internal_weight=343.924 170.079 173.845 134.803 84.2244 66.6737 116.083 89.6205 49.7465 43.1213 23.0825 109.817 35.2761 18.7199 20.0388 13.9966 16.9272 100.214 30.3101 96.5242 17.4452 13.9827 14.7756 80.8175 25.3321 79.079 17.5507 12.9645 75.2999 9.66115
internal_count=1551 851 700 717 334 269 645 366 207 177 91 621 134 72 86 60 62 582 113 568 95 81 64 331 93 473 65 47 456 47
is_linear=0
shrinkage=0.05


Tree=21
num_leaves=31
num_cat=0
split_feature=71 53 34 25 52 4 42 51 62 17 24 30 4 39 45 47 79 41 16 43 2 45 47 32 41 41 34 23 9 5
split_gain=56.5001 44.4243 27.5098 18.934 14.531 13.5231 12.1204 11.9442 9.77435 7.58297 10.5581 7.12001 17.4418 6.70607 6.66978 6.29457 5.16308 7.656 5.04833 4.69511 4.53694 3.96289 3.6297 3.61276 2.97014 2.56241 4.55743 2.54533 2.1036 1.97743
threshold=95.04303218881644 0.23968070374217107 0.15568770552250838 287.14999999999992 755.00000000000011 1.0629624185107869 0.58970372595730491 0.60258144815384906 0.35168108637551848 269.50000000000006 13.250000000000002 0.75900450348854076 0.91559173178231723 0.23627216182222302 0.40679370234944656 0.17981686876027678 14.500000000000002 0.19484866508948004 291.30000000000007 2.5723478526542696 1.4010678502760132 0.57815222917624698 0.21961405618258967 2.414573249673194 0.15887995089424123 0.098262682003314797 0.17690749532747396 254.50000000000003 526.71203613281261 0.35368076493642109
decision_type=10 10 10 10 10 10 10 10 10 10 10 8 8 10 10 10 10 10 10 10 8 10 10 10 10 10 10 10 10 8
left_child=1 2 4 14 5 11 -6 16 15 -3 -11 19 24 -12 -2 -5 17 20 -15 -1 -4 22 27 -18 -13 26 -16 -14 -9 -19
right_child=3 9 7 8 6 -7 -8 28 -10 10 13 12 21 18 25 -17 23 29 -20 -21 -22 -23 -24 -25 -26 -27 -28 -29 -30 -31
leaf_value=0.049661749815356891 0.0010146041165206004 -0.058167966117318115 0.048515888676185656 0.061369462492196374 0.025214783312141571 -0.036017733470086861 -0.056104372151818564 0.01187090941087761 -0.036733443623259393 0.039708897703950391 -0.053246546252182704 -0.0053719992671118818 0.0082038774788912149 0.028678996075714992 -0.00013079314273170312 -0.0067043378166884594 -0.010805941728487797 -0.05223788846517699 -0.028238236316644807 -0.0067922723244046431 -0.012162545295527474 0.057953097461798143 -0.019990386504826037 -0.054991975007211452 -0.058151662447486631 -0.062335886466344415 -0.057515386130285041 0.057485134750483807 0.056231813060186243 -0.0091788235693725916
leaf_weight=77.23369237780571 5.3823723196983329 18.957204416394234 5.9526489377021798 6.2043359875679034 8.7069962769746798 5.6289696395397177 7.7829339653253546 6.9157506674528104 8.4983425736427289 5.5721936076879492 14.710717827081682 5.2726183086633664 5.6591509431600588 5.5874411016702643 6.0693766772747022 6.0875095427036285 7.4945927113294628 5.8230574131011936 8.5851804018020612 3.6284718215465537 4.9455129951238641 14.30865056812763 3.6583686769008628 14.165440648794172 4.8998581320047379 49.428565725684166 7.0617592036724091 4.6049629151821136 4.238078236579895 5.2189975678920755
leaf_count=457 21 78 29 27 35 21 27 31 32 24 53 23 24 24 24 24 29 21 32 13 19 90 16 53 19 206 28 26 23 22
internal_value=-0.00559632 0.00661417 0.0176291 -0.0396282 0.0292246 0.0350224 -0.0141797 -0.0122997 0.00209738 -0.0334147 -0.0185391 0.0386469 0.0201533 -0.0307291 -0.0522414 0.0296881 -0.0240867 -0.00647351 -0.00538782 0.0470765 0.0222725 0.0400564 0.0190123 -0.0408547 -0.0337242 -0.0567672 -0.0328777 0.0334543 0.0319664 -0.0343384
internal_weight=338.284 249.551 196.139 88.7323 141.385 124.895 16.4899 54.7541 20.7902 53.4127 34.4555 119.266 38.4036 28.8833 67.9421 12.2918 43.6003 21.9402 14.1726 80.8622 10.8982 28.2311 13.9225 21.66 10.1725 62.5597 13.1311 10.2641 11.1538 11.0421
internal_count=1551 1189 978 362 751 689 62 227 83 211 133 668 198 109 279 51 173 91 56 470 48 156 66 82 42 258 52 50 54 43
is_linear=0
shrinkage=0.05


Tree=22
num_leaves=31
num_cat=0
split_feature=8 53 33 34 34 29 4 5 44 44 52 90 43 13 42 25 37 49 40 25 43 32 29 34 4 42 33 3 49 37
split_gain=69.1709 30.9722 17.0294 15.6176 12.1029 11.0587 10.4858 10.2764 9.5744 10.3691 11.4036 7.26036 8.24547 6.48871 6.26882 6.12523 6.04891 5.85544 4.49501 4.92729 3.62626 6.23003 2.88631 2.77558 2.48642 3.58315 2.4282 2.34483 2.15856 2.1241
threshold=0.96649519691820107 0.23968070374217107 2.3268432697855999 0.28495216155648856 0.34261822693746463 0.52403529733419429 1.0629624185107869 0.51698192498153117 0.11029684312636341 0.28536079372322104 743.50000000000011 0.95612396797248755 2.2928941762337982 531.50000000000011 0.40154190547786656 161.09999999999994 0.069910930717627842 1.8375000052147896 0.92872112250725114 150.90000000000057 1.8142875628628097 1.9646134208543626 0.65254972626765573 0.074389533746792483 0.80824353383664926 0.61980640316684699 1.7340864577151518 0.96225071225071235 1.8676632387045438 0.056603255603643182
decision_type=10 10 8 10 10 10 10 8 8 8 10 10 10 10 10 10 10 8 8 8 10 10 8 8 10 10 10 8 10 8
left_child=2 3 4 6 5 24 11 18 -7 10 17 12 23 -11 -3 -14 -5 -10 29 27 21 -16 -15 -2 -1 -26 -6 -20 -18 -4
right_child=1 14 7 16 26 8 -8 -9 9 13 -12 -13 15 22 20 -17 28 -19 19 -21 -22 -23 -24 -25 25 -27 -28 -29 -30 -31
leaf_value=-0.060980416596422282 0.012249231284839825 0.017395802670796792 -0.032322389895262205 0.02673920725473012 -0.019159217897533158 0.062903962812927705 -0.023900066375392978 0.018968225647999645 0.043536808450330138 -0.020815152219434377 -0.062353214308316945 -0.0019787823885356773 -0.030345293473118429 0.062226792788482643 -0.047094713294971932 0.037650351780850022 -0.0048280980324364548 -0.018534269526100624 -0.060071408978948686 0.0098014280091076669 -0.057730059761280456 0.0090028109506911629 0.016434947317995451 0.051395006911363651 0.0094694709324548258 -0.043657018866657155 -0.061776992001243092 -0.011845212363532901 -0.046775032990853727 -0.059594648625002355
leaf_weight=5.4454027563333538 5.5771327316761008 6.7517230361700049 13.197706386446951 5.6737995296716717 6.4109968394041088 6.4464388191699973 6.2952061295509329 5.6492794603109351 5.5060816109180459 4.7185371518135097 8.8696848452091199 9.4859729856252653 5.7733250558376294 7.7846223860979054 8.8547818511724525 5.4890592098236084 5.1315968483686429 8.2153257578611374 6.5867547690868351 6.5478971451520946 9.6962537020444852 9.4043100178241712 7.2479668110609063 78.635713517665863 5.4595519602298719 5.7164206206798553 10.651925802230833 4.6679148972034463 7.6861494481563568 49.004802659153938
leaf_count=20 29 28 55 25 24 30 24 24 28 20 31 39 20 34 33 22 20 32 27 26 35 38 32 511 22 20 41 20 27 214
internal_value=-0.00543616 0.0175672 -0.0279079 0.0287551 -0.0114802 -0.00145269 0.0357852 -0.0434104 0.0106173 0.00138917 -0.0213196 0.0395566 0.0436612 0.0271388 -0.0238913 0.00316226 -0.0132081 0.00763886 -0.0479949 -0.0238746 -0.0341193 -0.0192346 0.0425504 0.0489767 -0.0354736 -0.0190581 -0.0477115 -0.0426682 -0.0315463 -0.0544112
internal_weight=332.582 164.455 168.127 129.748 82.473 65.41 111.256 85.6544 48.7887 42.3422 22.5911 104.961 95.4752 19.7511 34.7071 11.2624 18.4915 13.7214 80.0051 17.8026 27.9553 18.2591 15.0326 84.2128 16.6214 11.176 17.0629 11.2547 12.8177 62.2025
internal_count=1551 851 700 717 334 269 645 366 207 177 91 621 582 86 134 42 72 60 342 73 106 71 66 540 62 42 65 47 47 269
is_linear=0
shrinkage=0.05


Tree=23
num_leaves=31
num_cat=0
split_feature=8 69 33 88 34 3 29 10 71 44 44 63 73 50 35 13 5 3 41 34 59 38 34 38 31 31 33 48 38 36
split_gain=63.7373 28.3495 16.0111 12.7176 11.2223 11.1484 10.2428 9.884 9.70458 8.91121 9.51557 8.74374 7.49319 6.82446 6.24346 5.97652 5.48667 5.39706 5.03166 4.29754 3.78133 3.65458 3.58135 3.06989 2.69779 4.90798 2.37273 2.21676 4.12803 2.07532
threshold=0.96649519691820107 0.89232136291212172 2.3268432697855999 0.25289106952326029 0.34261822693746463 0.63373983739837414 0.52403529733419429 306.79356384277349 95.665677031465918 0.11029684312636341 0.28536079372322104 0.96807439386356253 26.278011934044137 0.52188785933564164 0.65588451012234938 531.50000000000011 0.37408328339172664 1.4815546772068513 0.059074172526061446 0.060041378530305882 0.25172019253531136 0.3583792711257397 0.39751092318254344 0.088450158196586012 11.462563236479046 8.8238300647699166 1.7340864577151518 0.57424724965970342 0.15222535717336202 0.42383292383292387
decision_type=10 10 8 10 10 10 10 8 10 8 8 10 10 10 10 10 10 10 10 8 8 10 10 8 2 2 10 8 10 10
left_child=2 3 4 14 6 -3 18 23 11 -8 12 13 -11 -7 -2 -12 -14 19 -1 -15 -17 -16 24 -4 25 -21 -6 28 -25 -26
right_child=1 5 7 -5 26 8 9 -9 -10 10 15 -13 16 17 21 20 -18 -19 -20 22 -22 -23 -24 27 29 -27 -28 -29 -30 -31
leaf_value=0.0040968345095672622 0.0035852806940023054 -0.035037703556024445 -0.010492482360998832 0.029843609251201143 -0.018310133307284898 -0.002635112145763948 0.06111531926563149 0.0074121403363051792 -0.013954868810457856 0.020838181412079108 -0.019938405387478347 -0.0252264528585147 0.0011417312996939843 -0.0091104575121613383 -0.060250005438345224 0.058219689232262319 -0.05969842071996561 -0.016260820299725236 -0.052737919292424551 0.047319888372646501 0.0055116438295266142 -0.017069950746736971 0.0035272801220352676 0.0047551410371246688 0.056423108544589234 -0.018447794982766622 -0.060402959673735858 -0.056739285701939403 -0.046683374012175843 0.011795035886793565
leaf_weight=5.5938037633895901 8.3943341523408872 5.6197144836187354 5.6563450545072547 9.6832543760538083 6.4190336167812374 8.3788893371820432 6.3354402482509604 8.6939870119094831 9.6950035989284498 6.873735740780833 4.7235624641180065 4.7202479988336554 5.5555448383092871 3.0579232424497595 15.063352674245836 9.6005072891712153 9.9109544157981855 3.1004463434219351 10.867080003023146 6.6616878211498243 5.3451683223247537 8.5473749786615354 4.3597906976938239 5.1397036314010647 67.223526611924171 3.8171820342540741 10.37920907139778 51.018761098384857 13.197655022144316 3.3352384865283957
leaf_count=22 34 20 24 41 24 35 30 35 38 31 20 17 23 15 54 43 37 11 40 45 23 33 18 21 455 19 41 233 53 16
internal_value=-0.00529813 0.0169741 -0.0270494 -0.0182317 -0.011083 0.0292574 -0.00140291 -0.0423001 0.0326935 0.0102647 0.00135329 0.0371061 -0.0205571 0.0402711 -0.0332406 0.0260296 -0.0391025 0.0441837 -0.0342956 0.0464605 0.040897 -0.045947 0.0485328 -0.0480835 0.0508815 0.0238424 -0.0462507 -0.0509566 -0.0327656 0.0545079
internal_weight=326.968 161.658 165.31 41.6883 81.604 119.97 64.8058 83.7065 114.35 48.3449 42.0095 104.655 22.3402 99.9347 32.0051 19.6692 15.4665 91.5558 16.4609 88.4553 14.9457 23.6107 85.3974 75.0125 81.0376 10.4789 16.7982 69.3561 18.3374 70.5588
internal_count=1551 851 700 162 334 689 269 366 669 207 177 631 91 614 121 86 60 579 62 568 66 87 553 331 535 64 65 307 74 471
is_linear=0
shrinkage=0.05


Tree=24
num_leaves=31
num_cat=0
split_feature=8 7 33 41 69 71 54 78 90 10 39 15 35 46 50 31 8 5 29 83 54 48 22 37 78 26 38 9 33 48
split_gain=58.6802 26.393 15.074 14.842 10.8681 10.6597 10.5001 10.2122 9.94723 9.33251 7.3224 9.73054 6.52838 6.0875 6.05177 5.47826 5.95 3.91892 3.81685 3.68519 6.64717 3.64059 3.36979 4.26996 3.07003 3.03267 2.95202 2.61367 2.58492 2.23197
threshold=0.96649519691820107 0.76096915243179264 2.3268432697855999 0.11269534473262802 0.73923696244055581 90.935662661709827 1366.5000000000002 49.122041955107477 0.92164606019568407 306.79356384277349 0.17292400082832887 132.88710784912112 0.58791517974478247 3.8469257358352134 0.55410593591951851 11.462563236479046 0.98524575998119868 0.39318087709392063 0.66205019255479181 19.500000000000004 593.00000000000011 0.68190316079682789 -120.14999999999985 0.082675697508233406 38.198241032843711 1.0000000180025095e-35 0.088450158196586012 433.77561950683599 1.3003823544460755 0.57424724965970342
decision_type=10 10 8 10 10 10 10 10 10 8 10 10 10 10 10 2 10 10 10 10 10 10 10 10 8 2 8 10 10 8
left_child=2 12 6 13 -5 15 7 8 10 26 11 24 -2 19 -13 17 -17 -6 21 20 -3 28 23 -10 -1 27 -4 -18 -14 -28
right_child=1 3 9 4 5 -7 -8 -9 22 -11 -12 14 18 -15 -16 16 25 -19 -20 -21 -22 -23 -24 -25 -26 -27 29 -29 -30 -31
leaf_value=-0.058797057932452691 0.026724792179041314 0.047871978427796752 -0.010083461733055913 -0.044859576142779051 0.018263453986058494 -0.037712667461277577 -0.052850360374673347 0.050278336153715047 0.01895076956927115 0.0070878845024203484 0.040373746133727503 -0.014673850470770897 -0.016473971041506909 -0.016861203198838479 0.046946856362150048 -0.0085618926999775843 -0.011401314410668599 -0.042381945147681316 0.0079770806764375268 0.053769537664931713 -0.030408705260546905 -0.0033145245603418646 -0.049453893344167194 -0.039460033137246601 -0.010094130209668414 0.050277885496163459 -0.031653390901303438 0.038042581225697175 -0.060860460861099669 -0.055731321275675809
leaf_weight=6.6084108948707589 5.0386279225349417 5.6939817294478399 5.6326751410961142 7.0307751893997184 5.1128707379102689 6.7856404930353156 11.50353382527828 6.995953455567359 5.3085343688726443 8.6831616908311826 10.282611347734926 6.4487827867269507 5.512841999530802 3.3512730598449698 8.056302994489668 6.7954871058464041 4.5380661562085134 3.7876251935958862 4.8780665397644034 48.447049602866173 3.6838214918971062 5.7503468394279471 13.801012590527533 5.3426931947469711 6.4998281151056299 24.9118442684412 18.091498017311096 4.4651518613100052 13.030924603343008 49.403614491224289
leaf_count=24 22 35 24 24 26 26 46 30 22 35 49 24 22 13 40 32 21 17 20 324 18 23 53 20 26 157 74 23 48 233
internal_value=-0.00515091 0.0164175 -0.0261812 0.0270619 0.00986652 0.0173517 -0.0106682 -0.00301871 -0.00969833 -0.0411977 0.00638441 -0.00724116 -0.0220195 0.0444448 0.0203716 0.0254796 0.0331047 -0.0092184 -0.0310453 0.048224 0.0171544 -0.0388863 -0.0338948 -0.0112204 -0.0370745 0.0414595 -0.0469493 0.0144721 -0.049183 -0.0498338
internal_weight=321.473 158.814 162.659 124.604 63.4275 56.3967 80.8477 69.3441 62.3482 81.8109 37.8959 27.6133 34.2108 61.1761 14.5051 49.611 40.7105 8.9005 29.1722 57.8249 9.3778 24.2941 24.4522 10.6512 13.1082 33.9151 73.1278 9.00322 18.5438 67.4951
internal_count=1551 851 700 716 326 302 334 288 258 366 163 114 135 390 64 276 233 43 113 377 53 93 95 42 50 201 331 44 70 307
is_linear=0
shrinkage=0.05


Tree=25
num_leaves=31
num_cat=0
split_feature=8 8 34 41 10 50 40 35 8 45 5 81 43 38 79 79 35 28 39 80 38 84 2 68 39 37 57 65 16 12
split_gain=64.2467 26.8347 16.5027 15.246 12.5319 12.3713 16.9053 12.0473 10.9416 10.2245 8.34945 7.88338 6.81392 6.45407 6.37111 5.70768 5.68302 5.01425 4.76238 4.68149 3.75451 3.65006 3.47491 3.30722 2.77633 2.59383 2.4141 2.08847 1.94994 1.70916
threshold=0.9638237726537312 1.059167198513201 0.053044504829992116 0.18536939974743974 174.4986267089844 0.48877075424739291 0.20014147712725802 0.65588451012234938 0.98980151934270655 0.66922684641819485 0.36616771752239735 9.5000000000000018 1.8416428484833827 0.26539678076871137 15.500000000000002 7.5000000000000009 0.83970525229111936 0.12133614742087323 0.13143193178476922 22.500000000000004 0.11583453315819013 22.500000000000004 1.2121334353843272 100.05000000000008 0.37811049261842428 0.032268880262566017 0.2925195327608881 241.00000000000003 356.50000000000006 373.25000000000006
decision_type=10 10 10 10 10 8 10 10 10 8 10 10 10 10 8 10 10 10 8 10 8 10 8 8 10 10 10 8 10 10
left_child=3 2 20 5 8 -1 9 15 17 13 14 24 29 -7 -8 -3 -10 -4 -6 23 -2 -11 -15 25 -9 -5 27 -22 -21 -13
right_child=1 7 4 19 18 6 10 11 16 21 -12 12 -14 22 -16 -17 -18 -19 -20 28 26 -23 -24 -25 -26 -27 -28 -29 -30 -31
leaf_value=-0.054064628402975726 0.0039126294813279618 -0.0059792358773211648 -0.05653253643990324 -0.018360214042374898 0.059385105204349732 0.056898496773850872 0.041043257180864323 -0.052389937382270935 -0.012007365537949798 0.0075002400001968911 -0.055519273944377029 0.053812811532389343 -0.040513251671875389 0.034422491483983401 -0.02801245316494437 0.051384277634720636 0.045937220599047784 0.0026684968554494845 -0.0031031486632535714 0.0081362507053094803 0.016272930338357531 -0.042160864761303624 -0.010941946879902412 -0.019411773664254339 -0.010864779513036512 -0.061522947356061043 0.0076821386071206123 0.054110725068445498 -0.031630372940775711 0.0054919733639718291
leaf_weight=15.344073548913 5.2791363820433608 8.6557676643133146 11.169325873255735 4.9250324964523307 10.514234401285645 12.547624111175539 4.3915649503469476 19.858728222548965 7.6186148598790151 6.2897662520408613 17.217717915773392 3.6283025741577131 3.9910444319248199 6.4167690575122807 7.7828575819730768 7.3329375982284537 7.6755535453557968 4.942198082804679 4.0170367956161508 4.751701205968855 5.0570454075932494 7.1697569489479065 8.9954376369714737 7.9205997586250296 5.748404696583747 43.137438386678696 3.7921445295214644 52.580960869789124 6.3112862408161163 3.4446352943778038
leaf_count=68 31 35 41 21 60 58 20 78 35 28 70 22 14 30 33 41 45 23 17 19 33 29 36 32 24 194 19 360 28 19
internal_value=-0.00578603 0.0157902 0.0294809 -0.0290184 0.00620286 -0.0148333 -0.00569786 -0.0134997 -0.0116357 0.0147811 -0.0340936 -0.0290631 0.00590753 0.0316567 -0.00187803 0.0218055 0.0181073 -0.039278 0.0430232 -0.0467606 0.0451822 -0.02004 0.0088918 -0.0526018 -0.0438269 -0.0575644 0.0486093 0.051125 -0.0152915 0.0338751
internal_weight=318.508 165.306 112.646 153.202 45.937 86.1556 70.8115 52.6598 31.4057 41.4194 29.3921 36.6711 11.064 27.9598 12.1744 15.9887 15.2942 16.1115 14.5313 67.0461 66.7093 13.4595 15.4122 55.9831 25.6071 48.0625 61.4302 57.638 11.063 7.07294
internal_count=1563 897 664 666 221 372 304 233 144 181 123 157 55 124 53 76 80 64 77 294 443 57 66 247 102 215 412 393 47 41
is_linear=0
shrinkage=0.05


Tree=26
num_leaves=31
num_cat=0
split_feature=8 8 33 52 41 34 40 45 34 67 15 52 79 10 45 29 3 80 8 45 83 83 68 29 8 91 57 32 43 37
split_gain=59.3341 24.7889 17.2741 14.7984 14.3668 12.487 10.7509 10.2831 9.82803 9.47863 10.2667 9.07461 8.16329 7.97666 6.6086 4.992 4.6593 4.49417 4.26717 4.14639 3.28893 3.28032 3.2429 2.89263 2.77216 2.75916 2.62816 2.39824 2.35583 2.17804
threshold=0.9638237726537312 1.059167198513201 1.6826746600081404 472.50000000000006 0.18536939974743974 0.054342376609166854 0.20014147712725802 0.66922684641819485 0.50106228349135118 -80.249999999999986 77.993782043457045 755.00000000000011 12.500000000000002 175.02442932128909 0.54253389771098759 0.7506853689750036 1.1695402298850579 22.500000000000004 1.1412834839778816 0.51561020084254694 17.500000000000004 31.500000000000004 100.05000000000008 0.68754087885220849 0.97594170161224147 0.14531992167993174 0.13520347148665737 4.3673263964278739 2.3236899268553515 0.033779378204558258
decision_type=10 10 10 10 10 10 10 8 10 10 10 10 8 10 10 8 8 10 8 10 10 10 8 10 8 10 10 8 10 10
left_child=4 2 8 9 6 19 7 11 28 25 -11 15 -8 14 -7 -1 -9 22 -12 -4 -5 -14 29 27 -16 -3 -13 -21 -2 -6
right_child=1 3 5 20 17 13 12 16 -10 10 18 26 21 -15 24 -17 -18 -19 -20 23 -22 -23 -24 -25 -26 -27 -28 -29 -30 -31
leaf_value=0.05012178527784085 0.054078767412261503 -0.0073545948378928019 -0.0023214020341474116 -0.020824094722429284 -0.021054061630140695 0.014534007942467744 0.014566844704475251 -0.047344766831043758 -0.028508299596151161 -0.030815583307307284 0.059540077940220072 0.009879371778061476 -0.058993969285898319 0.028209034650725953 -0.074743560953630037 -0.0079878951902135741 0.0023750116461233508 -0.014724311577737216 0.0072616297109173132 0.060853496779564725 -0.073616016846685825 -0.021011684033546703 -0.018641758732500124 -0.00062880729849639221 -0.025265330176423968 -0.050325250157147866 -0.035119913375752577 0.010997105091856507 0.011392687349248533 -0.060449726642663938
leaf_weight=15.591812014579778 53.201110407710075 9.0973280817270261 7.087263077497485 5.8596239686012259 5.3497404605150214 4.5657756179571214 6.258292853832244 11.061163589358332 3.5151072591543189 5.7381052747368839 11.052082113921644 5.0328221172094327 18.118176981806759 5.8819463625550261 6.2592847943305943 4.433645784854888 7.582695171236991 10.985580235719679 6.2295738309621802 11.774942889809608 8.3415208458900434 10.358811125159262 7.8777964562177649 3.2889264672994605 7.2266683802008638 5.8698466122150412 6.6279470324516296 3.5989170670509347 4.0877765268087378 41.275130569934845
leaf_count=75 395 37 31 23 23 20 28 50 13 26 73 21 79 27 22 18 34 47 24 76 30 43 32 19 29 20 24 16 16 192
internal_value=-0.00559884 0.0152948 0.0286262 -0.0129367 -0.0281268 0.00653259 -0.0143092 0.000570163 0.0462814 0.00365387 0.0234158 0.0177419 -0.0352815 -0.0190669 -0.0351433 0.0374883 -0.0280316 -0.0455898 0.0421231 0.0301496 -0.0546361 -0.046359 -0.0514337 0.0419716 -0.0518043 -0.0263032 -0.0164518 0.0505669 0.0512807 -0.0564665
internal_weight=313.229 162.676 110.488 52.1881 150.554 49.6837 85.0654 50.3301 60.804 37.9869 23.0198 31.6862 34.7353 23.9337 18.0517 20.0255 18.6439 65.4882 17.2817 25.75 14.2011 28.477 54.5027 18.6628 13.486 14.9672 11.6608 15.3739 57.2889 46.6249
internal_count=1563 897 664 233 666 240 372 222 424 180 123 138 150 98 71 93 84 294 97 142 53 122 247 111 51 57 45 92 411 215
is_linear=0
shrinkage=0.05


Tree=27
num_leaves=31
num_cat=0
split_feature=8 8 34 52 41 50 40 10 8 15 45 67 5 79 35 39 31 29 52 34 3 8 37 46 57 83 43 73 29 68
split_gain=54.6709 23.047 14.7369 13.6256 13.5323 11.5317 14.394 10.8901 9.47435 8.80368 8.64238 8.46695 7.73963 5.68964 5.29861 4.65523 4.59095 4.55269 4.51162 3.71741 3.66895 3.38169 3.36366 3.13334 3.19372 3.07694 2.65115 2.34138 3.28152 3.01751
threshold=0.9638237726537312 1.059167198513201 0.053044504829992116 472.50000000000006 0.18536939974743974 0.48877075424739291 0.20014147712725802 174.4986267089844 0.98980151934270655 72.339080810546889 0.66922684641819485 -80.249999999999986 0.36616771752239735 15.500000000000002 0.83970525229111936 0.13143193178476922 18.897087509249641 0.78319504857063305 785.00000000000011 0.17520421222305818 1.1695402298850579 1.1412834839778816 0.030215098419699698 4.0456092170123332 0.2925195327608881 17.500000000000004 2.5723478526542696 34.963364797732531 0.63964180275797855 114.90000000000013
decision_type=10 10 10 10 10 8 10 10 10 10 8 10 10 8 10 8 2 8 10 8 8 10 10 10 10 10 10 10 10 8
left_child=4 2 23 9 5 -1 10 8 16 -3 17 -11 13 -8 -10 -9 -4 18 19 -7 -12 -13 -6 24 26 -5 -2 29 -29 -24
right_child=1 3 7 25 22 6 12 15 14 11 20 21 -14 -15 -16 -17 -18 -19 -20 -21 -22 -23 27 -25 -26 -27 -28 28 -30 -31
leaf_value=-0.052519152494046664 0.051805919733425188 -0.03649295809360837 -0.0063084436748620581 -0.02000826625830654 -0.0066129078844557659 0.0080546925911830197 0.039859971434490826 0.05742907740964124 -0.011999237696599179 -0.016363557977782512 -0.039515909436420776 0.053476138022544022 -0.052653292972512061 -0.025686756498309694 0.044474007523257857 -0.0045574166334625644 -0.059898473242912788 -0.0110367586253899 0.00068549854265387896 0.06451022635089132 0.010510125054973084 0.0069465153464888284 -0.057574196928720373 -0.0047090550713802465 0.0029633986900423747 -0.071219120618308027 0.008081972962723628 -0.048013258513489643 0.0064245413549735538 -0.017961049344799807
leaf_weight=14.701253980398176 51.861592881381512 9.2504380941390973 7.3518462628126171 5.8350316137075415 5.7376986145973197 4.1240564882755377 4.3759551793336877 10.03310293704271 7.5488067120313627 10.881085455417631 7.4156076014041874 11.211217135190969 16.634847909212112 7.6184983849525461 7.4077559038996696 3.9832320362329492 8.4964818060398084 5.1473123431205741 5.7857902050018302 12.440039046108721 5.8907223790884027 6.2318602353334418 41.856451645493507 3.0646889358758918 4.2213583290576926 8.2276817858219129 4.1459344774484626 4.7334206253290159 4.9513654410839081 6.7094143480062476
leaf_count=68 394 39 32 23 24 18 20 60 35 41 32 76 70 33 45 17 32 20 23 63 25 24 200 12 21 30 16 21 22 27
