tree
version=v4
num_class=4
num_tree_per_iteration=4
label_index=0
max_feature_idx=91
objective=multiclass num_class:4
feature_names=volume_vox_raw aspect_zy aspect_zx aspect_yx solidity_raw bbox_occupancy_raw volume_vox_opened frac_kept_opening solidity_opened c405_raw_mean c405_raw_std c405_raw_p10 c405_raw_p50 c405_raw_p90 c405_opened_mean c405_opened_std c405_opened_p10 c405_opened_p50 c405_opened_p90 c405_core_p50_opened c405_shell_p50_opened c405_shell_minus_core_p50 c405_shell_minus_core_p90 c405_outside_p50 c405_inside_minus_outside_p50 c405_inside_minus_outside_p90 n_touching_neighbors surface_touching_frac top_neighbor_overlap_frac mean_touching_score_stage1 min_touching_score_stage1 knn_d1 axis3d_lambda_ratio_l1_l3 axis3d_lambda_ratio_l1_l2 axis3d_peak_prom_max_intens axis3d_min_over_max_inner_intens axis3d_section_min_over_med_area axis3d_section_min_over_max_area axis3d_peak_prom_max_area axis3d_raw_section_min_over_med_area axis3d_raw_peak_prom_max_intens proj_xy_main_peak_prom_max proj_xy_main_min_over_max_inner proj_xy_aspect_ratio proj_yz_main_peak_prom_max proj_yz_main_min_over_max_inner proj_yz_aspect_ratio proj_zx_main_peak_prom_max proj_zx_main_min_over_max_inner proj_zx_aspect_ratio sphericity_raw sphericity_opened n_protrusion_voxels protrusion_voxel_frac protrusion_rim_voxels protrusion_rim_other_frac protrusion_rim_bg_frac protrusion_top_neighbor_frac n_distinct_neighbor_ids_at_protrusion protrusion_into_neighbor_frac surface_area_vox_raw surface_area_vox_opened sa_to_vol_vox_inv_raw sa_to_vol_vox_inv_opened core4vox_voxel_frac_opened c405_core4vox_p50_opened c405_shell4vox_p50_opened c405_shell_minus_core4vox_p50 c405_shell_minus_core4vox_p90 c405_shell_over_core4vox_p50_ratio axis3d_extent_vox axis3d_lambda1_vox2 axis3d_lambda2_vox2 axis3d_lambda3_vox2 axis3d_peak_sep_vox_intens axis3d_raw_extent_vox proj_xy_main_extent_vox proj_yz_main_extent_vox proj_zx_main_extent_vox proj_xy_orth_fwhm_vox proj_yz_orth_fwhm_vox proj_zx_orth_fwhm_vox bbox_z_extent_vox bbox_y_extent_vox bbox_x_extent_vox equivalent_diameter_vox_raw equivalent_diameter_vox_opened n_neighbors_30vox volume_vox_opened_pct_subj volume_vox_raw_pct_subj axis3d_lambda1_vox2_pct_subj surface_area_vox_opened_pct_subj
feature_infos=[25:58602] [0.11925289812942616:4.800694388792822] [0.11925289812942616:5.7271441831212622] [0.25:4.7999999999999998] [0.040617384240454905:1.6038062283737022] [0.0070028011204481795:0.69050925925925921] [0:56197] [0:0.98707824838478109] [0.35803292878653975:1.7500000000000009] [166.49703979492188:1261.2921142578125] [13.756925582885742:991.92962646484375] [119:724.79999999999995] [134:1193] [241.80000000000018:2585] [166.53807067871094:1356.90625] [13.229116439819336:1003.99365234375] [119:777] [131:1279] [227:2638] [131:1430] [131:1000.5] [-646:151] [-2025.2000000000007:363.89999999999986] [164:810] [-83:645] [-391.80000000000007:2052] [0:21] [0:0.8125] [0:0.7688984881209503] [0.39508971571922302:0.8102424144744873] [0.39501702785491943:0.8102424144744873] [0.98653416955812645:81.43136390412181] [1.0214589081257353:61.240202522976197] [1:18.842563308711352] [0.050235026550584122:0.96257504889420842] [0.0027559512608839208:0.97531226540075289] [0.0035149384885764497:1] [0.0016806722689075631:0.73170731707317072] [0.05023974494916069:0.7102979956351303] [0.0027322404371584699:0.88461538461538458] [0.050199384387990861:0.99223516044333748] [0.050101981919702131:0.78648751394649397] [0.0060452541623151603:0.95311315930939455] [1.0000000000000004:25.780165592791519] [0.050005617694505143:0.68843036016936388] [0.015215745375624338:0.93337505294285161] [1.0138211221954163:25.185172626736911] [0.050160462298970754:0.74594581014277062] [0.049711295117337108:0.93369258912726505] [1.0017224234082329:15.764517002284235] [0.17773214248808442:0.70485229031737784] [0.32786395255914236:0.68744159395144555] [25:5667] [0.012921751615218953:1] [128:5565] [0:0.8125] [0.1875:1] [0:0.7688984881209503] [0:20] [0:3.6800000000000002] [134:14690] [0:13602] [0.22861377611312517:5.3600000000000003] [0.22778764313269242:2.3809523809523809] [0:0.53973016553385178] [141:2226] [131:1265] [-1214.5:451] [-1318.2000000000003:602.19999999999959] [0.38065573770491801:2.4912280701754388] [7.1299673138879278:88.478172551062073] [3.0679859681209116:480.43852936534336] [1.4157814390180841:170.64668295429391] [0.063520385305215324:69.785462492924168] [4:30] [5.6568542494923797:85.651166971238638] [6:86.600339546551069] [6:80.935182179777456] [5.6568542494923797:78.829905959057612] [2:37] [1:33] [2:36] [2:78] [3:77] [3:68] [3.6278316785978095:48.191591839936279] [4.936820184470645:47.523108097970258] [0:88] [0.034088470743583392:0.99953987730061344] [7.4275810844268386e-05:0.99942833240379247] [0.0011863313990973566:0.99961263793565813] [0.034088470743583392:0.99906639519292839]
tree_sizes=2396 3305 3295 2801 2665 3408 3412 3100 2773 3405 3401 3406 2885 3414 3422 3096 2662 3401 3411 3414 2877 3405 3396 2778 2888 3405 3409 2992 2990 3406 3411 3292 2984 3408 3414 3412 3095 3417 3416 3412 3101 3401 3405 3296 2992 3405 3416 2992 2889 3406 3400 3419 3103 3397 3412 3400 3205 3403 3429 3397 2987 3406 3414 3421 3205 3405 3425 3411 3389 3405 3409 3419 3405 3402 3408 3407 3090 3425 3419 3422 3406 3407 3422 3413 3295 3418 3417 3415 3304 3417 3408 3417 3422 3420 3419 3421 3306 3410 3424 3434 3297 3417 3411 3404 3425 3416 3422 3419 3404 3423 3405 3430 3420 3432 3405 3402 3308 3416 3412 3428 3401 3421 3409 3419 3406 3430 3433 3420 3402 3429 3401 3410 3431 3417 3413 3419 2985 3409 3420 3423 3399 3430 3407 3419 3410 3421 3414 3425 3412 3416 3423 3419 3422 3419 3408 3418 3416 3420 3428 3406 3415 3413 3418 3428 3420 3418 3420 3417 3420 3413 3413 3425 3408 3421 3428 3407 3407 3414 3408 3425 3419 3410 3429 3419 3418 3418 3418 3428 3417 3425 3419 3423 3414 3426 3428 3417 3411 3415 3420 3429 3425 3433 3433 3425 3413 3426 3416 3433 3422 3416 3419 3429 3422 3431 3434 3432 3427 3433 3428 3416 3415 3408 3437 3440 3416 3433 3427 3428 3424 3436 3422 3427 3418 3421 3429 3442 3426 3436 3426 3422 3434 3423 3414 3431 3428 3422 3427 3433 3434 3444 3431 3440 3442 3427 3420 3437 3440 3415 3433 3433 3435 3420 3423 3454 3453 3418 3424 3430 3440 3435 3425 3423 3457 3439 3403 3445 3443 3435 3420 3437 3444 3429 3438 3415 3434 3431 3424 3450 3460 3437 3424 3448 3442 3438 3448 3458 3443 3435 3429 3442 3438 3434 3430 3450 3443 3440 3445 3451 3451 3450 3451 3442 3448 3462 3466 3454 3464 3445 3452 3460

Tree=0
num_leaves=22
num_cat=0
split_feature=7 69 3 50 7 89 50 20 35 43 4 36 50 72 36 21 30 12 3 5 31
split_gain=407.511 90.8516 36.0089 24.9013 21.4387 18.5736 18.1656 10.0363 8.0848 7.82763 6.12352 4.2531 3.91604 6.99055 3.98779 3.82379 3.77822 0.943424 0.757984 0.0712103 0.0151034
threshold=0.7455882162955082 0.89232136291212172 0.60263157894736863 0.51540028863892295 0.6419364966553055 0.19895794932736291 0.47261008354081935 321.50000000000006 0.65588451012234938 1.5102783259044772 1.0578689023212398 0.33381782945736438 0.53441050920085564 18.405409051723243 0.43283384517632112 -98.499999999999986 0.62805432081222545 318.50000000000006 1.3550420168067228 0.29054070122384085 30.079802193108243
decision_type=8 8 8 10 10 10 8 10 10 10 10 8 10 8 10 8 8 8 10 10 2
left_child=4 3 -3 -2 11 8 -4 -7 -5 -6 12 -1 13 -8 18 -15 -9 -17 19 -14 -19
right_child=1 2 6 5 9 7 10 16 -10 -11 -12 -13 14 15 -16 17 -18 20 -20 -21 -22
leaf_value=-1.6870787117040169 -1.6393557929251188 -1.6907197051025662 -1.7321446324918699 -1.7702833762517491 -1.7544813471608758 -1.7248549236725625 -1.7451230526734833 -1.7668381963088826 -1.6635283056376768 -1.6635283056376768 -1.7640536916439684 -1.5904556712954052 -1.8080238616191477 -1.7672580194451926 -1.7800006648439239 -1.7936529610739396 -1.8227054899791166 -1.8294743750192586 -1.803441102395456 -1.8314004183761521 -1.8068504318883132
leaf_weight=4.8335813879966762 5.2053953409194973 4.2758604586124411 4.4617674350738517 2.9745116233825701 5.3913023173809034 4.0899534821510342 2.974511623382571 3.5322325527667973 5.2053953409194946 5.2053953409194946 3.3463255763053885 19.892046481370926 2.9745116233825675 2.7886046469211578 3.7181395292282096 2.7886046469211641 9.2953488230705261 17.289348810911182 4.0899534821510306 176.05390670895576 2.7886046469211569
leaf_count=26 28 23 24 16 29 22 16 19 28 28 18 107 16 15 20 15 50 93 22 947 15
internal_value=-1.78793 -1.80994 -1.8208 -1.72987 -1.6311 -1.75358 -1.82371 -1.78477 -1.69631 -1.70302 -1.82582 -1.60473 -1.82688 -1.80848 -1.82957 -1.81712 -1.80698 -1.82376 -1.83061 -1.83113 -1.82743
internal_weight=293.175 257.853 227.55 30.3028 35.3223 25.0974 223.274 16.9175 8.17991 10.5967 218.813 24.7256 215.466 28.6297 186.837 25.6552 12.8276 22.8666 183.118 179.028 20.078
internal_count=1577 1387 1224 163 190 135 1201 91 44 57 1177 133 1159 154 1005 138 69 123 985 963 108
is_linear=0
shrinkage=1


Tree=1
num_leaves=31
num_cat=0
split_feature=75 69 24 28 27 16 8 71 52 35 1 1 79 1 38 47 43 46 27 41 62 34 50 40 75 29 48 67 38 56
split_gain=159.469 50.9926 38.3928 18.7737 20.4842 15.5867 14.0059 11.0683 24.5953 11.3688 10.6751 10.2587 9.72569 7.80818 9.67546 8.50598 7.37188 7.07967 7.00951 7.26767 6.66929 6.5603 5.2671 4.99383 4.72499 4.40079 4.05818 3.96443 5.1843 6.14453
threshold=31.043996700034025 1.1489434789067146 2.2500000000000004 0.14219478216818646 0.44991113801702171 299.50000000000006 0.99125969600536534 95.665677031465918 544.50000000000011 0.81710606770682392 1.3478270082944352 1.2046861745414537 7.5000000000000009 1.1918393584296993 0.39146244025969917 0.20321020968265852 1.4325882751918693 1.5943224361974293 0.27633319270720508 0.23038232125386937 0.54466317735074654 0.078711617145638763 0.56141623620274916 0.26178806089867984 41.045631471590546 0.67526500423749292 0.56831483545453598 60.250000000000007 0.41332364145900569 0.7866406625095802
decision_type=8 8 10 10 10 10 10 10 10 8 10 10 10 10 8 8 8 10 10 10 10 10 10 8 10 8 10 8 8 10
left_child=1 2 17 5 10 11 16 8 27 13 23 12 -4 21 15 -15 -3 -1 -8 -20 -14 -10 -7 -5 -11 -16 -9 28 29 -2
right_child=7 6 3 4 -6 22 18 26 9 24 -12 -13 20 14 25 -17 -18 -19 19 -21 -22 -23 -24 -25 -26 -27 -28 -29 -30 -31
leaf_value=-1.3120504401145119 -1.3327600876568217 -1.2602763212587371 -1.358430644588148 -1.3070705009797481 -1.3738248418352363 -1.3307679204802942 -1.3845190452276475 -1.3795871035959439 -1.2719627253903805 -1.388792696252461 -1.3351129282674095 -1.3590895978998832 -1.3252260510576062 -1.3301570804490559 -1.2874276263305451 -1.3841259573164808 -1.3479360854414595 -1.2209020034732969 -1.3150940862580143 -1.3873841096904544 -1.2526702904934657 -1.3534697351991316 -1.382434943032183 -1.2451121081838776 -1.3368831129958283 -1.3534697351991316 -1.4027563192286676 -1.3984399852679532 -1.3315557735710539 -1.3989938939651267
leaf_weight=3.8286674022674587 3.8286674022674623 3.8286674022674534 4.3391563892364564 6.6363568305969265 5.3601343631744376 6.3811123371124294 27.821649789810181 33.94751763343811 6.1258678436279279 20.164314985275272 6.1258678436279288 7.6573348045349112 5.8706233501434353 10.975513219833376 6.6363568305969212 17.867114543914795 5.1048898696899423 16.080403089523315 8.4230682849884015 4.5944008827209464 10.465024232864378 3.8286674022674561 14.293691635131834 19.909070491790771 4.8496453762054434 3.8286674022674569 56.919522047042847 56.919522047042847 5.1048898696899405 14.804180622100828
leaf_count=15 15 15 17 26 21 25 109 133 24 79 24 30 23 43 26 70 20 63 33 18 41 15 56 78 19 15 223 223 20 58
internal_value=-1.35554 -1.31627 -1.29696 -1.31221 -1.28621 -1.33335 -1.35808 -1.38064 -1.37233 -1.35155 -1.27169 -1.30988 -1.2923 -1.3377 -1.34828 -1.36345 -1.30463 -1.23555 -1.37069 -1.34111 -1.27553 -1.30033 -1.36611 -1.25831 -1.37843 -1.30936 -1.39446 -1.39127 -1.37299 -1.38495
internal_weight=402.521 156.72 106.947 87.0384 38.0314 49.0069 49.7727 245.8 154.933 74.2761 32.6713 28.3321 20.6748 49.2622 39.3077 28.8426 8.93356 19.9091 40.8391 13.0175 16.3356 9.95454 20.6748 26.5454 25.014 10.465 90.867 80.6573 23.7377 18.6328
internal_count=1577 614 419 341 149 192 195 963 607 291 128 111 81 193 154 113 35 78 160 51 64 39 81 104 98 41 356 316 93 73
is_linear=0
shrinkage=1


Tree=2
num_leaves=31
num_cat=0
split_feature=51 52 51 25 15 15 27 0 88 69 2 79 50 1 1 49 8 69 20 25 8 25 47 37 33 91 4 50 31 11
split_gain=313.894 45.5128 44.2566 30.2689 25.062 22.433 20.3458 18.3427 17.6925 12.2011 9.62246 12.6027 9.01272 8.73037 8.48763 7.64286 7.56984 7.20121 5.93695 4.95978 4.92639 3.97341 3.79233 4.47753 3.66146 10.3887 10.6362 5.8725 7.19722 3.60079
threshold=0.60258144815384906 472.50000000000006 0.57407385225024021 587.79999999999984 150.82167053222659 120.5987014770508 0.20756326673676834 2358.0000000000005 0.19308015745213816 1.2438093343038024 1.0983387526577217 17.500000000000004 0.56969367907117141 1.7401445912649638 1.338499737794691 1.6025586611514664 0.97161100308784853 1.0180965261474604 424.25000000000006 86.699999999999889 0.96839819338612443 160.09999999999994 0.34122497288961301 0.038152799216383183 1.6901031513170242 0.20728813237175567 0.84829795953991105 0.55529868005950178 15.534637645294476 246.50000000000003
decision_type=10 10 10 8 10 10 10 10 10 10 10 10 10 8 10 10 10 8 10 10 10 8 10 10 8 10 10 8 2 10
left_child=2 7 3 9 6 19 15 -2 -6 24 -8 -12 16 -5 -11 17 -10 -4 -14 -3 -7 -16 23 -17 25 -1 -27 28 -28 -19
right_child=1 5 4 13 8 20 10 -9 12 14 11 -13 18 -15 21 22 -18 29 -20 -21 -22 -23 -24 -25 -26 26 27 -29 -30 -31
leaf_value=-1.2196600821580772 -1.1661167044051646 -1.1511110094853811 -1.213444404499193 -1.1870317966160175 -1.2023719060236142 -1.1566511643863588 -1.1945284352946626 -1.0584190519117658 -1.1935382541223096 -1.1269940481267406 -1.1017493784888537 -1.1776108782992338 -1.146552691413349 -1.1065457940546033 -1.2124912848836702 -1.170924024274886 -1.1230456186538316 -1.1755822444239703 -1.0950061891109806 -1.2121341657771487 -1.0925158683617 -1.1566511643863588 -1.172237755525334 -1.2185723777072959 -1.2187940138810633 -1.2151382280250078 -1.1042112432359013 -1.1932795236889184 -1.1802800751289153 -1.1171417775215313
leaf_weight=36.827941685914993 4.282318800687789 4.5678067207336444 4.2823188006877873 4.5678067207336399 8.5646376013755781 4.2823188006877926 7.7081738412380245 62.23636656999588 7.4226859211921674 6.2807342410087612 12.561468482017519 8.8501255214214307 9.4211013615131396 8.8501255214214325 8.2791496813297236 5.7097584009170523 5.9952463209629059 4.2823188006877899 18.842202723026276 7.9936617612838745 14.274396002292631 4.2823188006877908 6.851710081100463 38.540869206190109 111.05480089783669 11.134028881788256 6.566222161054613 5.7097584009170523 4.8532946407794952 5.1387825608253479
leaf_count=129 15 16 15 16 30 15 27 218 26 22 44 31 33 31 29 20 21 15 66 28 50 15 24 135 389 39 23 20 17 18
internal_value=-1.16722 -1.08835 -1.18922 -1.2039 -1.16792 -1.13954 -1.18314 -1.0652 -1.13975 -1.20892 -1.14889 -1.13208 -1.12641 -1.13327 -1.1706 -1.1986 -1.16101 -1.16563 -1.11082 -1.19024 -1.10591 -1.19392 -1.20734 -1.21259 -1.21299 -1.20249 -1.17917 -1.15455 -1.13482 -1.14175
internal_weight=450.214 97.6369 352.578 208.406 144.171 31.1182 93.9255 66.5187 50.2459 194.988 29.1198 21.4116 41.6812 13.4179 18.8422 64.8058 13.4179 13.7034 28.2633 12.5615 18.5567 12.5615 51.1023 44.2506 176.146 65.0912 28.2633 17.1293 11.4195 9.4211
internal_count=1577 342 1235 730 505 109 329 233 176 683 102 75 146 47 66 227 47 48 99 44 65 44 179 155 617 228 99 60 40 33
is_linear=0
shrinkage=1


Tree=3
num_leaves=26
num_cat=0
split_feature=90 21 8 37 34 82 8 29 46 71 18 54 8 28 9 68 20 68 33 34 44 69 39 13 8
split_gain=449.491 87.4444 33.3153 30.8517 29.2773 22.4661 22.0003 19.4525 14.0301 12.6215 12.346 12.0919 9.42292 9.4081 6.40787 6.28261 5.46997 5.83133 5.06665 4.22705 4.05195 3.60546 2.14496 1.19402 0.744092
threshold=0.92331664737788821 -53.499999999999993 0.96604262588843315 0.068689271478913058 0.064476877536498292 27.500000000000004 0.97238744214334139 0.66147204240163171 2.1192474141050277 97.20156923920085 654.10000000000014 1129.5000000000002 0.89288183517297215 0.1680986109713834 401.42581176757818 -101.20000000000014 476.25000000000006 73.20000000000006 1.8719928546563451 0.44109367615951367 0.26976717563471936 0.98634833484466433 0.81712962962962965 842.50000000000011 0.97027397599829601
decision_type=10 10 8 10 10 10 10 10 10 10 10 10 10 10 10 10 10 10 10 10 10 8 8 8 8
left_child=2 3 5 11 7 -1 12 9 10 -3 14 20 -5 18 -7 -13 17 -10 -6 22 -2 -17 24 -12 -4
right_child=1 4 19 6 13 8 -8 -9 16 -11 23 15 -14 -15 -16 21 -18 -19 -20 -21 -22 -23 -24 -25 -26
leaf_value=-1.3801032330147198 -1.3762978689697782 -1.3640363355056582 -1.3577818066970617 -1.2952365186110959 -1.2758284199295638 -1.3324806556027851 -1.3517151041979656 -1.2201821729079372 -1.2708197116046209 -1.2708197116046209 -1.3777237206718851 -1.3520224360948991 -1.2158649238203272 -1.2902149066550073 -1.2563909990013249 -1.2561087992695261 -1.2292143241780842 -1.3438593931783993 -1.1965419920683193 -1.3390182202712719 -1.3261390190249065 -1.3213204081156955 -1.3468525427707769 -1.3417884267684979 -1.3811678435512031
leaf_weight=17.096950650215149 14.247458875179293 6.9942070841789263 6.9942070841789237 6.9942070841789308 4.1447153091430655 5.9580282568931597 5.4399388432502738 6.9942070841789237 5.6989835500717145 5.6989835500717163 8.8075200319290126 3.8856706023216239 12.175101220607756 4.4037600159645072 4.1447153091430664 4.9218494296073887 3.8856706023216239 4.1447153091430664 50.513717830181122 6.9942070841789237 5.1808941364288321 3.8856706023216256 5.9580282568931571 3.8856706023216256 199.46442425251007
leaf_count=66 55 27 27 27 16 23 21 27 22 22 34 15 47 17 16 19 15 16 195 27 20 15 23 15 770
internal_value=-1.33286 -1.25872 -1.36978 -1.30669 -1.22491 -1.33439 -1.26574 -1.28136 -1.31227 -1.32077 -1.33665 -1.33911 -1.24157 -1.20725 -1.29727 -1.30252 -1.27423 -1.29983 -1.20144 -1.37838 -1.36329 -1.28086 -1.37963 -1.36824 -1.3805
internal_weight=408.514 135.48 273.033 56.7308 78.7496 53.6223 24.6092 19.6874 36.5253 12.6932 22.7959 32.1215 19.1693 59.0622 10.1027 12.6932 13.7294 9.8437 54.6584 219.411 19.4284 8.80752 212.417 12.6932 206.459
internal_count=1577 523 1054 219 304 207 95 76 141 49 88 124 74 228 39 49 53 38 211 847 75 34 820 49 797
is_linear=0
shrinkage=1


Tree=4
num_leaves=24
num_cat=0
split_feature=7 69 3 18 45 50 50 84 31 81 41 69 49 79 22 50 43 36 8 56 11 8 5
split_gain=338.829 83.9998 32.7848 19.9179 18.4305 16.9768 10.3435 8.40873 8.37429 8.07059 9.00955 6.76701 5.50783 3.88413 2.79648 2.78871 2.98723 2.77782 2.0734 2.06272 0.632681 0.237614 0.045184
threshold=0.7455882162955082 0.89232136291212172 0.60263157894736863 838.39999999999975 0.46329793291909721 0.47261008354081935 0.53343512205450005 16.500000000000004 14.470539955345201 13.500000000000002 0.065389890007147358 0.6643269769319945 1.4898432274355673 11.500000000000002 -40.950000000000038 0.53441050920085564 2.0708337023230317 0.43283384517632112 1.0034836421642457 0.81259218289085555 177.50000000000003 1.068303356042217 0.29054070122384085
decision_type=8 8 8 10 8 8 10 8 2 8 10 10 10 10 8 10 10 10 10 10 10 10 10
left_child=4 3 -3 6 -1 -4 -2 12 -5 10 -8 -10 -7 14 -6 16 18 21 20 -18 -9 22 -17
right_child=1 2 5 8 13 7 9 15 11 -11 -12 -13 -14 -15 -16 17 19 -19 -20 -21 -22 -23 -24
leaf_value=0.041660106247139596 0.15071721717148004 0.086986051398289049 0.050594485884614265 0.068011022237836935 0.070933670432768672 -0.034001455923499159 0.0049943524892449515 -0.013656116907357452 0.034535423341249198 -0.0040233686645405669 0.11207515380393872 -0.03967633208435517 0.042304875711221893 0.06529332149672093 0.16122388102381796 -0.021798978415877107 0.03279951645628558 0.0038743626109365675 0.0062924531599233592 -0.019717848999937133 -0.042072311188118425 -0.025541168487009516 -0.044380026576853887
leaf_weight=5.7994125038385382 4.310331314802176 4.6104148030281058 4.6720129102468482 3.3560337573289862 3.2378543168306351 3.1185248196125022 2.8747958540916407 3.6461430490017035 3.9545227438211423 3.7454295903444299 5.9394567906856537 7.2788234800100327 4.6643594354391098 3.4508977979421607 27.106879532337192 3.1115883290767661 2.7896868139505377 2.9846006482839575 2.7965012341737738 2.7628147900104523 15.588617101311682 6.5274114459753028 164.04841600358486
leaf_count=29 21 23 24 17 16 17 15 20 21 20 30 39 25 17 128 17 15 16 15 15 86 36 915
internal_value=-0.000957299 -0.0224085 -0.0333036 0.0529046 0.133169 -0.0362505 0.0883244 -0.0383925 0.00890937 0.057376 0.0812179 -0.0128638 0.0113396 0.147223 0.15416 -0.0403335 -0.0240477 -0.0427265 -0.0320208 0.00764674 -0.0376268 -0.0435449 -0.0440918
internal_weight=292.376 252.78 221.321 31.4594 39.595 216.711 16.87 212.039 14.5894 12.5597 8.81425 11.2333 7.78288 33.7956 30.3447 204.256 27.5838 176.672 22.0313 5.5525 19.2348 173.687 167.16
internal_count=1577 1387 1224 163 190 1201 86 1177 77 65 45 60 42 161 144 1135 151 984 121 30 106 968 932
is_linear=0
shrinkage=0.05


Tree=5
num_leaves=31
num_cat=0
split_feature=63 68 1 88 52 90 62 3 88 75 4 29 75 79 32 48 32 35 31 59 57 45 42 90 5 65 22 68 51 38
split_gain=144.364 43.2065 32.0437 20.4935 17.0108 34.5557 16.5956 12.6365 9.98523 9.96387 10.7508 7.88873 7.33957 7.23498 7.19182 6.86347 6.81884 6.76842 6.48766 6.12007 6.06971 5.94607 5.80317 5.67946 5.15778 4.61829 4.34894 4.29484 4.25007 4.53388
threshold=0.48602981616428548 -101.20000000000014 1.0983387526577217 0.19882251001800247 468.50000000000006 0.92331664737788821 0.82557303456149156 1.22967032967033 0.9593616483986106 36.277291231866535 0.94423784503970898 0.67650706569353758 39.732394771063248 13.500000000000002 2.1510963977120618 0.52702450444402038 2.3005258455919742 0.58399362379666442 6.1708462881750199 0.096853070175438608 0.14054503840171501 0.57535968189952225 0.60635698936706273 0.71513231745178052 0.35320896035181754 417.50000000000006 -120.14999999999985 41.149999999999984 0.58815331113621228 0.31124832120183304
decision_type=10 10 10 10 8 8 10 10 8 8 10 8 10 10 10 10 10 10 2 8 10 10 10 10 10 10 10 10 8 10
left_child=4 -2 3 6 -1 8 7 26 9 10 13 18 28 23 20 19 -17 -16 -5 24 22 -15 -4 -6 -7 -19 -3 -13 29 -11
right_child=1 2 14 11 5 15 -8 -9 -10 12 -12 27 -14 21 17 16 -18 25 -20 -21 -22 -23 -24 -25 -26 -27 -28 -29 -30 -31
leaf_value=-0.043017921230619774 -0.023812544111420062 0.044063988291757658 0.047179183079467724 -0.002112269106158228 0.033354780272149581 -0.019912982220666255 0.010921704541923094 0.010476373769137579 0.082385247388308047 -0.032943286164759548 -0.018973255968521965 0.02945564297519724 0.032036435378040927 0.021999784967951908 0.050397000987198237 0.021494876491827748 -0.042205114880742307 -0.033673254839454977 0.06911048350560961 -0.026506380469701364 0.075459126596663276 0.078634549035755008 -0.029599001384282959 -0.039819553220099405 0.03975766594055747 0.010393405447475164 0.11344640071739798 -0.033760671006590255 -0.046457653716832248 0.030210020000379381
leaf_weight=72.060190677642822 21.569055750966072 4.2398464381694785 4.1133272498846036 4.1382989436388078 4.935480549931528 5.5779928267002088 6.2624338567256919 3.8926064968109122 3.8816216289997092 4.7939227223396355 10.145529478788374 3.9572407007217389 5.6529143899679175 9.2992563247680682 4.4279446601867702 3.8546224683523169 77.090529456734657 10.777495324611666 12.244363307952879 26.573837012052536 6.5121096968650818 10.948684617877005 3.8146854788064957 3.7933815717697144 7.3311437517404556 11.284312337636946 36.975993037223816 4.8976377993822098 12.126980841159819 4.5820628106594086
leaf_count=290 85 16 16 16 19 22 24 15 15 19 40 15 22 36 17 15 310 42 46 106 25 42 15 15 29 44 136 19 48 18
internal_value=-0.000660693 0.040354 0.0522305 0.0711403 -0.0224541 -0.0144951 0.089166 0.0995563 0.0132803 0.00806874 0.0239717 0.032449 -0.0148797 0.0391392 0.0159846 -0.0306528 -0.0389464 0.00016884 0.0520329 -0.0131078 0.0431078 0.0548835 0.0110588 0.000730439 0.0143962 -0.0116604 0.107522 -0.00538713 -0.028089 -0.00214309
internal_weight=401.756 139.107 117.538 76.6084 262.648 190.588 51.3709 45.1084 70.1598 66.2782 39.1223 25.2375 27.1559 28.9768 40.9299 120.428 80.9452 26.4898 16.3827 39.483 14.4401 20.2479 7.92801 8.72886 12.9091 22.0618 41.2158 8.85488 21.503 9.37599
internal_count=1577 531 446 287 1046 756 191 167 274 259 152 96 107 112 159 482 325 103 62 157 56 78 31 34 51 86 152 34 85 37
is_linear=0
shrinkage=0.05


Tree=6
num_leaves=31
num_cat=0
split_feature=51 52 67 24 15 62 51 22 8 8 88 7 30 34 50 33 22 33 52 35 8 50 24 35 70 13 33 4 50 55
split_gain=274.875 43.8933 38.9236 30.0828 23.6278 18.9019 17.8722 16.1242 19.1198 11.1427 14.7813 10.9315 10.0525 9.27741 8.23793 6.18305 6.14962 6.05016 5.57401 5.21069 5.12877 5.04581 4.81241 4.74651 3.24709 2.90293 2.49712 2.47276 2.31132 2.29906
threshold=0.60154399149584514 472.50000000000006 57.250000000000007 306.00000000000006 120.5987014770508 0.58498663055809119 0.57407385225024021 -128.40000000000018 0.98524575998119868 0.96649519691820107 0.25956567019603566 0.90377953304509495 0.63650065660476696 0.11922596937124981 0.56969367907117141 2.0415385576281562 -225.14999999999984 1.6035627461768918 608.50000000000011 0.66752362838957702 0.96839819338612443 0.57824864000205278 51.500000000000007 0.81710606770682392 25.790158100465792 391.50000000000006 1.1335041379015744 0.99261401706347407 0.57541114174133579 0.26193788810912993
decision_type=10 10 10 8 10 10 10 10 10 10 10 10 10 10 10 10 10 10 10 10 10 10 10 10 10 10 8 10 10 10
left_child=2 5 3 6 22 25 26 15 13 16 23 24 21 14 19 -4 -8 -15 -5 -9 -6 -12 -3 27 -10 -2 -1 -11 -25 -18
right_child=1 4 7 18 20 -7 9 8 11 10 12 -13 -14 17 -16 -17 29 -19 -20 -21 -22 -23 -24 28 -26 -27 -28 -29 -30 -31
leaf_value=-0.009867726464882114 0.044844067315089595 0.014214010944756118 0.074367042919803297 0.054594594731341928 0.011105163363402852 -0.006645728326195516 0.011966185662322841 0.018557006262613824 -0.026520828081286574 -0.049306146558255 0.01742792880516026 0.075252139586975283 -0.01276490079921876 0.01172632686518995 0.040836291128880875 0.011410835879807029 -0.046861904366945449 -0.050910057286051892 -0.0087377743019039986 -0.036655936018442102 0.070504105851303497 0.088358943354144792 -0.043771042024686846 -0.015461275046519996 0.026090970700066912 0.1030144580742572 -0.044956593987376225 -0.010076600583990293 0.031657560965959321 -0.0060835617319637009
leaf_weight=5.9099773168563834 4.4807033240795127 4.8765553236007682 10.210543513298036 10.83928808569908 5.1577209532260921 4.3038674294948569 5.787412464618682 5.942389637231833 4.5536027550697344 10.718712419271474 4.6035759150981921 9.3600856363773328 6.2877385318279257 4.3257062435150173 8.4210010468959791 6.6210878789424887 29.135245561599731 19.823405772447586 4.5661983191967002 10.746960312128065 16.007195770740509 6.69199138879776 9.2995870411396009 4.2635670602321607 5.2171438038349152 63.383021056652069 153.04685577750206 7.0631319284439078 4.2785381078720093 4.2708280682563773
leaf_count=21 15 17 35 37 18 15 20 21 16 38 16 32 22 15 29 23 104 71 16 38 54 23 33 15 18 211 549 25 15 15
internal_value=0.00198495 0.0713591 -0.0199237 -0.0295902 0.0247699 0.0935238 -0.0339248 0.00928401 -0.00173184 -0.0148879 0.00247083 0.039469 0.0368227 -0.0181999 0.00317701 0.0516306 -0.033912 -0.0396702 0.0364345 -0.0170592 0.0571831 0.0632191 -0.0242021 -0.0209827 0.00138571 0.0998807 -0.0437218 -0.0350899 0.00898378 -0.0419769
internal_weight=450.194 107.509 342.685 257.463 35.3411 72.1676 242.058 85.2219 68.3903 83.1007 43.9073 19.1308 17.5833 49.2595 25.1104 16.8316 39.1935 24.1491 15.4055 16.6893 21.1649 11.2956 14.1761 26.3239 9.77075 67.8637 158.957 17.7818 8.54211 33.4061
internal_count=1577 363 1214 916 122 241 863 298 240 293 154 66 61 174 88 58 139 86 53 59 72 39 50 93 34 226 570 63 30 119
is_linear=0
shrinkage=0.05


Tree=7
num_leaves=28
num_cat=0
split_feature=90 22 54 41 4 48 5 40 82 33 13 45 60 22 70 67 21 21 72 41 90 33 48 48 23 46 21
split_gain=399.394 71.113 28.372 22.3953 17.1522 16.1894 13.9324 12.3877 12.2414 11.4441 12.6063 9.03081 8.48472 9.09219 6.76767 6.48032 5.03507 4.56605 2.30252 2.30171 1.89441 4.09689 1.74253 0.850147 0.648572 0.353822 0.249263
threshold=0.92331664737788821 -178.29999999999993 823.50000000000011 0.098262682003314797 0.91712143855474959 0.4209787532611361 0.29054070122384085 0.26535534522771403 30.500000000000004 1.6956853228494959 639.1500000000002 0.40679370234944656 5111.0000000000009 -94.499999999999986 53.865999287924026 66.500000000000014 -66.749999999999986 -7.2499999999999991 48.283280648987791 0.19484866508948004 0.85216334511418379 1.8795979149247899 0.84941159570127722 0.47031952666808791 322.50000000000006 3.4852155492008832 -113.49999999999999
decision_type=10 10 8 10 10 10 10 10 10 10 10 10 10 10 10 10 10 10 8 10 10 8 8 10 10 10 10
left_child=2 4 20 7 5 24 -5 12 22 10 17 -8 -3 -14 18 -11 -13 -10 -7 23 25 -22 -4 -12 -2 -1 -6
right_child=1 3 8 6 26 14 11 -9 9 15 19 16 13 -15 -16 -17 -18 -19 -20 -21 21 -23 -24 -25 -26 -27 -28
leaf_value=-0.048696113898890947 -0.040288882439150533 -0.021305436002046384 -0.045039375165088963 0.019538165033160221 -0.04503255367391254 0.093281133694318299 0.042006300976775122 0.089479179610542206 -0.00090121290505118686 0.080286957443983481 -0.01672330752130622 0.061609071615330781 -0.0051176290515026297 0.08940586520419766 0.012756738367490077 -0.00027079002596542884 0.11897528812369129 0.054152583711453844 0.034608523252647613 -0.0036627651556518184 -0.044472421287359176 0.011360839541887211 -0.0099310163375259733 -0.046549160796844458 -0.009440055046890522 -0.030469932626328564 -0.019680821389093696
leaf_weight=174.2943547219038 3.8535346239805248 7.3494809567928376 18.390743941068653 5.3281078934669486 8.1616235673427564 7.5940538942813882 6.453266203403472 8.8419140577316266 7.0006837993860245 5.8318117409944517 4.8886234462261262 7.8049057722091666 4.4431379735469845 4.6473277211189226 6.8197915852069846 3.9234138429164886 57.960336834192276 7.0712675452232343 4.2359544336795816 6.4362536221742621 8.0076593905687297 4.6374050527811059 5.1426980793476096 11.721130475401877 3.8572570979595184 9.1003842651844007 3.8516212701797476
leaf_count=694 15 28 73 20 32 28 24 32 27 22 19 29 17 17 26 15 209 27 16 25 32 18 20 46 15 36 15
internal_value=-0.000853178 0.0668554 -0.0368509 0.0883555 0.00846185 0.0307461 0.101774 0.0448905 -0.00945544 0.00541366 -0.00755557 0.107492 0.0171537 0.0472771 0.0550961 0.050875 0.113192 0.0285212 0.0766073 -0.0298541 -0.0465919 -0.0246644 -0.0380848 -0.0392189 -0.0277123 -0.0479618 -0.0390414
internal_weight=407.649 141.202 266.446 102.828 38.3738 26.3606 77.5466 25.2819 70.4066 46.8732 37.118 72.2185 16.4399 9.09047 18.6498 9.75523 65.7652 14.072 11.83 23.046 196.04 12.6451 23.5334 16.6098 7.71079 183.395 12.0132
internal_count=1577 523 1054 376 147 100 282 94 274 181 144 262 62 34 70 37 238 54 44 90 780 50 93 65 30 730 47
is_linear=0
shrinkage=0.05


Tree=8
num_leaves=25
num_cat=0
split_feature=7 69 50 50 89 4 45 23 43 12 41 27 35 70 33 8 79 59 87 78 70 37 1 1
split_gain=286.824 77.7992 23.0524 17.2945 14.2535 13.9419 13.4223 11.3368 9.06044 7.7556 6.53779 3.78187 3.71545 3.49361 2.46414 6.79923 2.41728 1.50298 0.948125 0.13841 0.406844 0.174222 0.512302 0.110054
threshold=0.7455882162955082 0.89232136291212172 0.47261008354081935 0.51540028863892295 0.19895794932736291 1.0629624185107869 0.46329793291909721 264.50000000000006 2.5080132155301453 318.50000000000006 0.16040801667972987 0.11967455166261652 0.81596714240092749 18.115515977412819 1.9457187504933049 1.1412834839778816 6.5000000000000009 0.60262584565990152 8.5000000000000018 55.403025397959759 60.039966847799207 0.29400563007120389 0.91847612088402508 2.1911669337395305
decision_type=8 8 8 10 10 10 8 10 10 8 10 10 8 8 8 10 8 8 2 10 10 10 10 10
left_child=6 3 -3 -2 10 8 -1 -6 13 -10 -5 -11 -9 -4 15 -8 -17 18 19 21 -21 23 -23 -15
right_child=1 2 5 4 7 -7 14 12 9 11 -12 -13 -14 17 -16 16 -18 -19 -20 20 -22 22 -24 -25
leaf_value=0.038539278898610467 0.11858740563532166 0.061131703805959059 0.0056143218831249501 0.012591610063378809 0.055869047805336094 0.053313650581081541 0.044621687168608752 -0.040473030598772837 0.057688241273014855 -0.039584869714156964 0.10345595321466559 0.01340624122921657 0.019564597440161077 -0.043728374940474185 0.14522025645321163 0.060163964620762678 0.14257353177288343 -0.010487472845413341 -0.011278220558445327 -0.0081469626581763561 -0.035334619118587395 -0.035631185673981977 -0.0059444213098625793 -0.019706864607868999
leaf_weight=6.0123154819011679 6.2071239948272696 5.4873960167169562 3.8464552611112586 3.196466878056528 5.345849514007571 3.5027515739202491 6.0513101518154171 9.0134028941392863 3.3095257580280277 7.5856638997793198 5.9620122611522675 4.8843286037445068 2.789436101913453 162.11294575035572 20.89028412103653 3.6057794988155338 6.8349948525428781 4.6874545514583579 3.3499870151281348 2.9809157699346533 3.8693137019872665 3.943034514784812 2.7252681702375412 2.8145737200975409
leaf_count=29 28 27 21 16 27 18 28 49 17 42 28 26 15 936 88 16 29 26 19 17 22 22 15 16
internal_value=-0.000885828 -0.0217873 -0.0327063 0.0492679 0.0291683 -0.0354414 0.116184 0.00128949 -0.0371999 -0.000737011 0.0761041 -0.0193746 -0.0258641 -0.0402033 0.127343 0.0976903 0.121859 -0.0411732 -0.0419027 -0.0424116 -0.0260486 -0.0429101 -0.0258559 -0.0434397
internal_weight=291.009 247.614 215.1 32.5143 26.3072 209.612 43.3947 17.1487 206.109 15.7795 9.15848 12.47 11.8028 190.33 37.3824 16.4921 10.4408 186.483 181.796 178.446 6.85023 171.596 6.6683 164.928
internal_count=1577 1387 1224 163 135 1197 190 91 1179 85 44 68 64 1094 161 73 45 1073 1047 1028 39 989 37 952
is_linear=0
shrinkage=0.05


Tree=9
num_leaves=31
num_cat=0
split_feature=75 69 21 51 4 8 71 54 35 32 23 38 62 88 48 10 22 32 28 41 33 3 68 47 52 53 21 2 47 63
split_gain=129.012 37.7652 25.6651 19.8512 15.8145 11.863 10.2731 22.4044 9.75252 9.24064 9.21049 8.79932 8.38347 8.06728 6.98061 6.83901 6.77965 6.30569 6.17542 5.68947 6.9702 4.81754 5.99912 4.79159 5.30548 5.61413 4.93052 4.64809 4.5438 4.08054
threshold=31.043996700034025 1.1489434789067146 -51.249999999999993 0.58445186548463057 0.80006433774711005 0.99125969600536534 95.665677031465918 762.50000000000011 0.8105806026186283 2.1631679192129503 326.50000000000006 0.26034151984638504 0.82557303456149156 0.20918533377815246 0.35285386721550854 71.650630950927749 -117.95000000000003 2.414573249673194 0.15154153218957025 0.23038232125386937 1.6508465650375117 1.0563492063492066 11.400000000000263 0.46162975008472734 546.50000000000011 0.052665999702064432 -19.749999999999996 1.1231014129989993 0.15110886034633089 0.39984666496294413
decision_type=8 8 10 10 10 10 10 8 8 10 10 8 10 10 10 10 8 8 10 10 8 10 10 8 10 10 10 10 8 10
left_child=1 2 9 4 -4 17 7 29 11 -1 -5 27 13 -6 -13 -15 -10 -3 -7 20 -20 22 -11 24 -16 -26 -27 -9 -29 -2
right_child=6 5 3 10 12 18 -8 8 16 21 -12 14 -14 15 23 -17 -18 -19 19 -21 -22 -23 -24 -25 25 26 -28 28 -30 -31
leaf_value=0.050741979281645144 -0.046037014583681674 0.080613730651934848 -0.0091945751399883837 0.047902765380109846 0.10114858824285462 -0.03016806377992683 -0.037834472468764008 0.027417634227774258 0.022011381217790043 0.034335821086496111 -0.023466947048296667 -0.029747555603532146 0.01576647380328158 -0.0019965793062941095 0.0016590981075139209 0.07012127173002683 -0.031550754077061732 0.0017661284955459542 0.056231040701306793 -0.032398558132753941 -0.020593232007761513 -0.03533162284371584 -0.032168831431636929 -0.011398396090109016 0.083899431458994422 -0.0023982187999879163 0.063077495881957019 0.018024600168154322 -0.03443320960313339 -0.0071600801341841049
leaf_weight=8.2627089768648165 48.465912416577339 4.6424768865108463 4.9691554307937613 8.0175660848617571 38.155932724475861 24.47979810833931 86.255336359143257 5.397834941744807 6.5953696966171265 8.3562861084938067 8.1838195621967298 3.8253628164529792 4.9782745242118827 4.0269109904766109 5.7594487220048967 15.674106210470198 29.023945152759552 4.688441902399064 6.8859659582376453 4.7164794355630866 4.050904095172883 8.7310124337673169 4.3791632503271094 4.1009949147701255 8.9725164771080035 6.2164017558097884 4.2396139800548491 4.8379854857921627 15.151838660240172 8.2892183214426023
leaf_count=31 202 17 19 30 133 99 356 21 26 32 32 15 19 15 23 57 117 18 26 19 16 34 17 16 34 24 16 19 61 33
internal_value=-0.000600038 0.0334985 0.0492437 0.0632376 0.0749823 -0.00296355 -0.0241095 -0.0160655 -0.00101134 0.00892995 0.0125833 0.0114936 0.081679 0.0869862 0.0281234 0.0559959 -0.0213028 0.0450016 -0.0149383 0.00926036 0.0284347 -0.00870623 0.0107906 0.0364144 0.0443371 0.0562881 0.0273389 -0.0104412 -0.0214834 -0.0405812
internal_weight=400.331 163.199 113.735 84.0058 67.8044 49.4641 237.132 150.876 94.1213 29.7292 16.2014 58.502 62.8352 57.8569 33.1143 19.701 35.6193 9.33092 40.1331 15.6533 10.9369 21.4665 12.7354 29.289 25.188 19.4285 10.456 25.3877 19.9898 56.7551
internal_count=1577 614 419 305 243 195 963 607 372 114 62 229 224 205 128 72 143 35 160 61 42 83 49 113 97 74 40 101 80 235
is_linear=0
shrinkage=0.05


Tree=10
num_leaves=31
num_cat=0
split_feature=50 67 62 50 54 52 27 10 15 10 34 68 89 8 89 22 46 33 91 50 50 47 50 24 33 10 15 68 67 75
split_gain=234.875 46.0389 27.6472 22.0444 17.6259 16.5471 16.3086 17.5467 12.7744 12.5815 10.7202 9.93931 9.81252 8.48595 9.79229 6.55342 6.0844 5.38543 12.2331 9.53754 5.81338 5.23845 4.98273 4.84777 4.53142 4.41723 4.74968 4.30105 4.28149 3.12247
threshold=0.60478507657198299 64.250000000000014 0.61209953166773068 0.56969367907117141 948.50000000000011 470.50000000000006 0.20756326673676834 162.23692321777347 203.70639801025393 115.94676971435548 0.10611117730645471 184.54999999999976 0.24556297581905703 0.96432599867748758 0.20908986208630642 -122.24999999999999 1.713672411128969 1.6956853228494959 0.23739481530206386 0.52188785933564164 0.55568898902605712 0.22869970082929633 0.571797667162523 52.500000000000007 1.9593813073300683 107.97086715698244 139.86560058593753 65.900000000000105 2.2500000000000004 29.989464826180534
decision_type=8 10 10 10 10 8 10 10 10 8 10 8 10 10 10 10 8 8 10 10 10 10 10 10 10 10 10 10 10 10
left_child=1 3 5 17 8 28 7 13 10 -7 11 22 -9 -5 -15 -6 -16 18 -1 -20 27 -14 -3 -17 -12 -8 -27 -21 -2 -10
right_child=2 4 -4 6 15 9 25 12 29 -11 24 -13 21 14 16 23 -18 -19 19 20 -22 -23 -24 -25 -26 26 -28 -29 -30 -31
leaf_value=-0.047042955388254176 0.045689042037809498 0.017718443658631334 -0.026754003426410253 -0.047986892667107289 0.025221308503048368 -0.019687656683341069 0.064774257790523357 -0.028789608041096038 0.027451044670895486 0.059470040091265365 0.016150434710020169 -0.023243405641644763 0.073121478727996042 -0.041262843893058287 0.058227933928399749 0.011416256743396708 -0.0055999983429965974 -0.046020541871280268 -0.047382327845433621 0.047924711590636514 -0.016045796385095762 0.007732364269182064 0.069947501753588923 -0.038410578883460521 -0.041715258046912312 -0.02466123310610108 0.038888012312490026 -0.0084474620214675701 0.093650224263672421 0.082544724478287451
leaf_weight=35.910736620426178 8.2148690819740278 8.6707813441753441 6.4930211007595053 31.910659790039062 7.069836974143981 6.4505406022071865 6.4875351190567043 5.2685280442237881 5.0368914604187003 16.596887081861496 4.6590165793895713 5.4623585641384116 7.1421668231487256 12.304562777280809 4.7294039428234074 5.9267927110195187 10.280614495277405 99.97786483168602 8.7675221860408765 9.7585965096950549 10.985662341117857 5.328827440738678 11.295872539281843 19.189636826515198 8.2269423305988294 4.2335040867328626 5.8979270756244659 4.5485213100910178 61.210126578807831 10.843266218900679
leaf_count=132 27 30 23 117 24 23 22 19 17 55 16 19 24 45 16 21 36 368 32 34 39 18 38 69 30 15 20 16 196 36
internal_value=0.0018779 -0.0173875 0.0694875 -0.0277457 0.0141693 0.0764591 -0.0081389 -0.0178797 0.0313618 0.0374179 0.0149485 0.0333425 0.0247517 -0.0308479 -0.00983748 -0.0148521 0.0168919 -0.0384316 -0.0270925 -0.00531643 0.0105129 0.047829 0.0491932 -0.0266659 -0.0211371 0.0354267 0.0125035 0.0306218 0.0887045 0.0677315
internal_weight=448.879 349.914 98.9654 263.533 86.3814 92.4724 93.5837 76.9648 54.1951 23.0474 38.315 25.429 17.7395 59.2252 27.3146 32.1863 15.01 169.949 69.971 34.0603 25.2928 12.471 19.9667 25.1164 12.886 16.619 10.1314 14.3071 69.425 15.8802
internal_count=1577 1253 324 953 300 301 332 275 186 78 133 87 61 214 97 114 52 621 253 121 89 42 68 90 46 57 35 50 223 53
is_linear=0
shrinkage=0.05


Tree=11
num_leaves=31
num_cat=0
split_feature=71 21 54 34 37 34 41 54 32 22 45 81 33 71 24 33 57 29 34 3 69 91 31 45 47 27 46 32 71 71
split_gain=347.982 59.838 29.5262 20.5927 18.676 15.0306 13.8916 9.69696 9.58012 8.76117 8.30863 7.58646 7.63668 7.34918 8.41531 7.63946 6.63392 5.69481 4.82961 2.22314 1.63656 1.31972 1.15434 3.77564 1.10909 0.683223 0.533343 0.568414 0.441077 0.155139
threshold=78.617753659869308 -61.749999999999993 823.50000000000011 0.83918656986515294 0.066795985968918323 0.50396602671551671 0.15365831307878106 983.50000000000011 2.7014509419148918 -352.60000000000025 0.43169046619976487 18.500000000000004 2.2462565847394838 58.556496241978856 57.250000000000007 1.7479035294885878 0.15107321694410614 0.63961628079414379 0.81381768841874758 0.8021739130434784 1.1311643778191394 0.89005705086564813 34.568740433595359 0.54253389771098759 0.22431993951426607 0.1584038719445158 3.5544542990679617 4.5770940296780518 72.762795567722677 100.87419576438391
decision_type=10 10 8 8 10 10 10 10 10 10 8 10 10 8 8 10 10 8 8 10 10 10 2 10 10 10 10 10 10 10
left_child=2 4 22 8 7 10 17 -2 -3 -6 16 -9 -13 25 -15 19 -4 -5 24 -16 -8 29 26 -24 -11 -12 28 -28 -1 -10
right_child=1 3 5 6 9 -7 20 11 21 18 13 12 -14 14 15 -17 -18 -19 -20 -21 -22 -23 23 -25 -26 -27 27 -29 -30 -31
leaf_value=-0.04812674519843247 -0.042368958464153512 0.031089275620469543 -0.01566547856095564 -0.03550295041641411 0.0007128452170934471 0.075438120692472757 0.094191519896221321 -0.025261656757397874 0.045277492666841633 0.10328388441010213 -0.021334422313791169 0.0014616236493032442 0.081020765178764664 0.041818076993132058 -0.0077023586362562763 0.033327375068794823 0.060434514849392246 0.032491485999581314 0.021598577590181314 -0.04311542006726618 0.038827975703875403 0.10774103392040235 0.012643583672099746 -0.043995164753246739 0.051508464341495433 -0.047120902208867131 -0.010010655119170341 -0.039253449974102558 -0.023430793313978938 0.08538100654140196
leaf_weight=165.62273421883583 11.606319904327394 6.1260958611965171 4.6671256273984891 5.4578401595354089 6.6352141201496151 4.088850572705268 6.069068640470503 6.7646342515945461 5.5912998318672162 6.3105854988098162 5.9791778177022961 6.5769751369953138 4.6305596232414246 6.4610769748687771 7.163564056158072 4.8576203137636176 5.2622505277395248 4.894429326057435 5.1126060485839835 13.284988433122633 4.4484096765518188 55.870438277721405 3.7702409178018561 8.2541134655475599 5.7376691699028015 17.797004789113998 3.9948888868093482 3.7175184488296509 4.6873117983341208 4.3647717833518982
leaf_count=682 46 22 18 21 25 15 21 26 20 22 24 25 17 24 28 18 20 18 19 53 16 190 15 34 21 72 16 15 19 15
internal_value=-0.000848925 0.0606095 -0.0355586 0.0846808 0.0179603 -0.00754818 0.0383929 -0.00860073 0.0973963 0.0499909 -0.0137877 0.0142904 0.0382769 -0.021332 -0.00523556 -0.0183821 0.0265045 -0.00332564 0.0679558 -0.031647 0.0761796 0.10301 -0.045718 -0.0266288 0.0844644 -0.041759 -0.0468514 -0.0269938 -0.0475878 0.0690473
internal_weight=405.805 146.197 259.608 92.8224 53.3746 69.5617 20.8697 29.5785 71.9526 23.7961 65.4728 17.9722 11.2075 55.5434 31.7672 25.3062 9.92938 10.3523 17.1609 20.4486 10.5175 65.8265 190.047 12.0244 12.0483 23.7762 178.022 7.71241 170.31 9.95607
internal_count=1577 524 1053 323 201 272 76 114 247 87 257 68 42 219 123 99 38 39 62 81 37 225 781 49 43 96 732 31 701 35
is_linear=0
shrinkage=0.05


Tree=12
num_leaves=26
num_cat=0
split_feature=53 69 3 18 62 75 62 45 69 29 38 51 49 65 24 37 27 3 31 41 23 31 49 49 11
split_gain=246.718 73.0486 29.3827 15.731 12.4479 9.98151 8.42379 7.43524 7.64716 6.99068 8.32271 5.26416 6.9041 3.71032 3.37744 2.94649 3.97806 2.78523 1.78202 1.5909 0.759282 0.374078 0.270778 0.588953 0.149956
threshold=0.24322425201276698 0.89232136291212172 0.60263157894736863 838.39999999999975 0.82557303456149156 20.415767931615104 0.73217332873575425 0.57150572725189408 0.79170977308779922 0.66188495357831323 0.27627316118774342 0.53857283078583573 2.2550356799066038 379.50000000000006 126.50000000000001 0.29039938556067596 0.077757190788754857 1.633971291866029 26.740504709325421 0.2488294977431548 217.75000000000003 16.481248716621529 4.1884558393754414 4.7252341029005906 179.50000000000003
decision_type=10 8 8 10 10 10 10 10 8 8 8 8 8 10 10 10 10 8 2 10 10 2 10 10 10
left_child=1 3 -3 9 5 -2 11 8 19 21 -11 12 -4 -6 -14 17 -17 20 -12 -5 -13 -1 24 -24 -22
right_child=4 2 6 7 13 -7 -8 -9 -10 10 18 15 14 -15 -16 16 -18 -19 -20 -21 22 -23 23 -25 -26
leaf_value=0.13206334771175424 -0.0016791849505917553 0.077255755286557759 0.04729775861212665 0.024078819092014807 0.12138296298118019 0.093899496458418608 0.027884236927361656 -0.037608887321713476 -0.024241625979531958 0.085836751760415164 0.025121997332103508 -0.014907523546434707 -0.040030794093648486 0.058160366346519922 0.016464487343911812 0.033355411868310432 -0.035257340921089085 -0.0029768724906628799 -0.021853856880401031 0.08256685134709979 -0.018603736515877833 0.059835658348107425 -0.0033638043627647607 -0.034725343963047786 -0.043403325805314801
leaf_weight=4.2447104007005718 5.5968103706836683 5.002029985189437 3.2598258554935429 3.2098310887813541 32.980352491140366 4.272373765707016 4.3904122263193122 5.1175927072763434 3.4582416117191324 4.9855509251356098 3.1245422959327707 3.9210957884788504 9.1864229440689069 5.5488091558217993 2.9453716576099405 2.7648401111364356 3.8481837809085846 4.8597817420959464 2.9632037729024887 3.2164103537797928 2.6960393637418738 3.1777153462171555 2.5373992025852194 3.7143923789262772 158.04455003142357
leaf_count=18 27 23 17 16 129 19 23 28 18 23 15 23 53 24 15 15 22 27 15 15 16 15 15 22 944
internal_value=-0.000815893 -0.0216254 -0.032718 0.0459377 0.101006 0.0445292 -0.0358059 0.00695864 0.0313684 0.0755753 0.0439636 -0.0373529 -0.0086222 0.11398 -0.0261055 -0.0397172 -0.00595772 -0.0409464 0.00239928 0.0605291 -0.0420025 0.111917 -0.0425462 -0.0242158 -0.043105
internal_weight=289.066 240.668 207.17 33.4978 48.3983 9.86918 202.168 15.0021 9.88448 18.4957 11.0733 197.778 15.3916 38.5292 12.1318 182.386 6.61302 175.773 6.08775 6.42624 170.913 7.42243 166.992 6.25179 160.741
internal_count=1577 1378 1215 163 199 46 1192 77 49 86 53 1169 85 153 68 1084 37 1047 30 31 1020 33 997 37 960
is_linear=0
shrinkage=0.05


Tree=13
num_leaves=31
num_cat=0
split_feature=75 69 24 68 8 79 50 70 71 71 54 35 38 70 48 41 27 41 32 52 48 3 5 25 41 32 12 13 63 37
split_gain=115.761 32.5221 21.9758 13.5092 10.7125 10.2176 11.1451 12.9083 9.87195 9.78814 21.0246 9.00367 7.93243 6.69288 6.39679 6.19937 5.73154 5.98599 5.57749 5.16662 4.49367 4.51594 4.36137 4.35029 7.46551 7.74897 4.10623 3.91926 3.91791 3.84184
threshold=31.043996700034025 1.1489434789067146 2.2500000000000004 -148.44999999999996 0.99125969600536534 6.5000000000000009 0.61788196047750088 24.359479707769434 33.122127264878316 95.665677031465918 762.50000000000011 0.8105806026186283 0.26034151984638504 42.811567208680778 0.35285386721550854 0.36199099384551098 0.27633319270720508 0.23038232125386937 2.414573249673194 641.50000000000011 0.40698395523897474 1.0701970443349755 0.34995590828924167 147.09999999999994 0.14265881216998891 2.0021216294312381 635.50000000000011 495.50000000000006 0.39984666496294413 0.028090556112224451
decision_type=8 8 10 10 10 10 10 10 10 10 8 8 8 10 10 10 10 10 8 10 10 8 10 10 8 8 10 10 10 10
left_child=1 2 22 -4 18 -5 7 -7 -9 10 28 12 20 -13 -14 27 -6 -18 -3 -15 -12 -22 -1 -16 -25 -26 29 -10 -2 -11
right_child=9 4 3 5 16 6 -8 8 15 26 11 13 14 19 23 -17 17 -19 -20 -21 21 -23 -24 24 25 -27 -28 -29 -30 -31
leaf_value=0.034304979376530785 -0.045180188453323826 0.074864749818340542 -0.035487231606418881 -0.005645470044076964 -0.027495648602402323 0.074019507745137658 -0.012985287988066196 -0.013485942316755213 0.012601835591980973 -0.0078524699559323827 0.030666579889415874 -0.0329739969957683 -0.029188890520159196 0.048083113166154386 0.059671459928100183 -0.010999827280057842 0.034444001526610146 -0.031269517421456824 0.0014153971002512789 -0.021594495549876056 -0.032141130041071955 0.020433824634453032 0.099090932312082242 0.069913662528404502 0.04636807311689977 -0.023695821583239993 -0.00077136507091540147 0.064656713648724315 -0.0069228414589685705 -0.044216416173861274
leaf_weight=4.6235195696353939 46.697741702198982 4.8335020542144749 5.7834599167108527 10.99835394322872 26.422719955444336 32.740562319755554 7.0337136834859839 9.3691952079534513 5.1562391817569795 8.6618678122758848 4.550706714391711 26.287387832999229 3.7693271934986106 4.5781425237655622 10.186330646276476 3.9516699463129035 8.8343105763196927 4.4241532981395713 4.7114275991916665 4.2581334561109543 16.018541455268863 4.6157868802547446 18.797206908464432 4.3291454315185574 5.1008331924676868 10.176727965474129 7.2390452474355689 18.052652537822723 8.2507404685020429 67.874680206179619
leaf_count=16 202 17 23 42 109 114 28 35 19 36 18 108 15 18 38 15 33 18 18 17 65 18 62 16 19 40 30 65 33 290
internal_value=-0.000552097 0.031274 0.0455674 0.0340097 -0.0027889 0.0389634 0.0453831 0.0514103 0.0297139 -0.0232662 -0.0154002 -0.00092982 0.0109945 -0.0206265 0.0265872 0.0445657 -0.0143772 0.0118612 0.0421821 0.0157242 -0.0100066 -0.0199795 0.0882299 0.0343625 0.0189561 0.0011084 -0.0368929 0.0540901 -0.0396621 -0.0402554
internal_weight=398.328 165.733 116.507 93.0858 49.2261 87.3024 76.304 69.2703 36.5298 232.595 148.82 93.8711 58.7474 35.1237 33.5624 27.1606 39.6812 13.2585 9.54493 8.83628 25.185 20.6343 23.4207 29.793 19.6067 15.2776 83.7756 23.2089 54.9485 76.5365
internal_count=1577 614 419 341 195 318 276 248 134 963 607 372 229 143 128 99 160 51 35 35 101 83 78 113 75 59 356 84 235 326
is_linear=0
shrinkage=0.05


Tree=14
num_leaves=31
num_cat=0
split_feature=51 67 52 24 10 51 62 22 8 8 88 53 30 90 62 81 25 41 41 25 1 35 50 44 33 4 88 21 13 41
split_gain=216.096 33.3201 31.0654 25.6714 17.9927 16.1285 13.8204 12.7641 15.9333 9.91781 12.3968 9.19307 8.76534 7.5186 11.0496 6.48433 5.56046 5.31953 5.12119 4.89157 4.68717 4.43618 3.79485 2.82191 2.41631 2.41435 2.36134 2.36094 2.17769 2.10107
threshold=0.60154399149584514 57.250000000000007 472.50000000000006 306.00000000000006 121.72768783569337 0.57407385225024021 0.58498663055809119 -128.40000000000018 0.98524575998119868 0.96649519691820107 0.25956567019603566 0.097021448700553195 0.63650065660476696 0.94333387723192585 0.35943171438783211 27.500000000000004 168.60000000000016 0.27812339377513456 0.22866764128226127 75.799999999999969 1.6153919636963028 0.81710606770682392 0.57824864000205278 0.15044351963107802 1.1335041379015744 0.99261401706347407 0.19308015745213816 -98.499999999999986 391.50000000000006 0.16774393853351827
decision_type=10 10 10 8 10 10 10 10 10 10 10 10 10 10 10 8 8 8 10 10 8 10 10 8 8 10 10 10 10 8
left_child=1 3 6 5 19 24 28 17 13 15 21 -10 22 14 -9 27 23 -3 29 -4 -5 25 -12 -16 -1 -11 -13 -7 -2 -6
right_child=2 7 4 20 18 9 -8 8 11 10 12 26 -14 -15 16 -17 -18 -19 -20 -21 -22 -23 -24 -25 -26 -27 -28 -29 -30 -31
leaf_value=-0.0081429630300992786 0.03817375593800372 0.011964771965964689 0.020400809830594741 -0.0059825466968688326 0.028300747012695412 -0.0076538688595060023 -0.0065818412214457781 0.049850699902035653 0.067143495701193975 -0.047790300348367676 0.016931600468689339 -0.024756305769436764 -0.013024668321155031 -0.039911695813177411 0.0033999290361210474 0.02190517822303948 0.026456928744914832 0.068129424642057124 0.0085773218972998912 -0.038942970439311241 0.050120586640629676 0.0094186610561262738 0.078444888357713141 -0.042482591678316417 -0.042793343766538622 -0.0087636315883322363 0.020168622057670331 -0.045134251393871866 0.086843795433152932 0.076570457685629312
leaf_weight=5.7569317519664756 4.6898158788681021 7.774088621139529 4.3461683094501486 5.1887555122375462 4.8690148293972024 5.4473484158515921 4.292584776878356 7.067231863737109 9.8019298613071459 10.299078851938253 4.6205138266086596 4.2429665327072126 6.2931572198867789 19.770865947008133 4.2591336369514492 4.2720282077789298 4.5859172046184566 9.7466985881328565 5.9581912755966178 9.8959964215755445 10.624527037143707 8.4822812080383283 7.0770674347877502 12.611109226942061 145.36618128418922 6.9275653362274161 5.6161744594573975 28.105792433023453 67.773101896047592 10.831786692142487
leaf_count=21 15 26 15 18 16 19 15 24 32 38 16 15 22 74 15 15 16 32 20 36 35 30 23 45 549 25 19 105 211 35
internal_value=0.0017677 -0.0184517 0.0613371 -0.0276869 0.0221264 -0.0318959 0.0791569 0.00840298 -0.00160234 -0.0137401 0.00254203 0.03528 0.033373 -0.0170286 -0.000352641 -0.032132 -0.0183722 0.0452004 0.0499469 -0.0206832 0.0324507 -0.0194748 0.0573943 -0.0313568 -0.0415356 -0.0334379 0.000335445 -0.0394469 0.0842564 0.0641923
internal_weight=446.594 333.937 112.657 248.461 35.9012 232.648 76.7555 85.4761 67.9553 81.5248 43.6997 19.6611 17.9907 48.2943 28.5234 37.8252 21.4562 17.5208 21.659 14.2422 15.8133 25.7089 11.6976 16.8702 151.123 17.2266 9.85914 33.5531 72.4629 15.7008
internal_count=1577 1214 363 916 122 863 241 298 240 293 154 66 61 174 100 139 76 58 71 51 53 93 39 60 570 63 34 124 226 51
is_linear=0
shrinkage=0.05


Tree=15
num_leaves=28
num_cat=0
split_feature=90 22 8 34 82 8 48 41 1 15 50 52 37 51 21 73 21 33 28 35 34 68 39 8 68 8 41
split_gain=319.993 52.358 28.7483 20.9322 18.6413 15.3891 13.9571 13.1891 11.8403 9.13907 8.68622 7.97507 7.55582 7.34859 6.11016 5.8208 5.56802 5.2992 5.13608 4.57421 4.02522 3.28572 2.06822 1.45223 0.950998 0.71121 0.690705
threshold=0.92164606019568407 -178.29999999999993 0.96604262588843315 0.83918656986515294 27.500000000000004 0.96699487319046595 0.4209787532611361 0.15365831307878106 1.0279311130277717 132.88710784912112 0.57354954212562004 764.50000000000011 0.032268880262566017 0.56188594231830569 -53.499999999999993 32.122416988031254 -191.49999999999997 2.2787879207331847 0.17125465017575245 0.73527537485189909 0.44109367615951367 52.100000000000087 0.81712962962962965 0.97238744214334139 -32.29999999999972 0.97027397599829601 0.27154716386547734
decision_type=10 10 8 8 10 10 10 10 10 10 10 8 10 10 10 8 10 10 10 10 10 10 8 10 10 8 8
left_child=2 5 4 12 -1 6 26 21 -8 13 11 14 17 -6 -11 -15 -10 -3 23 -9 22 -5 25 24 -14 -4 -2
right_child=1 3 20 7 9 -7 8 19 16 10 -12 -13 18 15 -16 -17 -18 -19 -20 -21 -22 -23 -24 -25 -26 -27 -28
leaf_value=-0.046014751060456438 -0.040424817033822918 -0.0048408930140398307 -0.023737141196385182 -0.029696710138971877 -0.011873662112464106 -0.041218139156229523 -0.022859085968240798 0.015566584642439938 0.02382731666796583 0.082959033205336249 -0.043967736279156767 -0.031333911346751279 0.054704512377453468 0.085111089567315779 0.002703993277224179 0.0095413470046396345 0.088370561222585325 0.067205823266410405 0.032109264796857918 0.082249776823834747 -0.0050478989973363917 0.018851136093348743 -0.012754427513425272 0.047024230722077433 0.099670139284172621 -0.046730296489494512 -0.0090480556446240184
leaf_weight=15.736556842923163 4.0525801628828075 4.1804005205631238 6.6617013067007056 5.9927517771720904 4.0135749131441107 10.989325851202009 4.2319465279579189 4.1329390406608573 6.2304544448852601 4.1568795442581141 7.6376798748970023 4.2827429026365289 5.3376047611236563 8.0479441285133326 4.5201965570449865 3.9329386353492746 9.8244975209236092 5.0822820663452148 4.819902926683425 9.4905162751674634 6.7504366040229788 6.0016062259674072 5.7258875370025626 4.389757275581359 62.006983518600464 180.83356466889381 3.8188000321388245
leaf_count=66 16 15 27 23 15 45 16 15 23 15 31 17 18 29 17 15 34 17 17 32 27 22 23 15 203 769 15
internal_value=-0.000827171 0.0566353 -0.0352112 0.0739779 -0.00215799 0.00665603 0.0261127 0.0325749 0.0474119 0.0174252 -0.00474925 0.0198575 0.0858199 0.0445803 0.045751 0.0629501 0.0661889 0.0373866 0.0911224 0.064468 -0.0438067 -0.00582357 -0.0451279 0.0945916 0.0969588 -0.0460436 -0.0279382
internal_weight=402.882 150.582 252.3 111.435 52.3285 39.1476 28.1583 25.6178 20.2869 36.592 20.5975 12.9598 85.8169 15.9945 8.67708 11.9809 16.055 9.26268 76.5542 13.6235 199.972 11.9944 193.221 71.7343 67.3446 187.495 7.87138
internal_count=1577 526 1051 377 205 149 104 92 73 139 80 49 285 59 32 44 57 32 253 47 846 45 819 236 221 796 31
is_linear=0
shrinkage=0.05


Tree=16
num_leaves=24
num_cat=0
split_feature=53 69 3 18 50 62 43 4 69 50 24 24 50 50 8 36 21 16 23 31 23 3 34
split_gain=214.737 67.8301 27.1533 13.6305 10.1488 9.90933 8.10795 7.00706 6.56462 6.33328 6.71135 7.63059 3.80261 3.34643 4.60845 3.74369 3.45782 3.32094 2.9922 2.53919 1.06019 0.797276 0.219128
threshold=0.24322425201276698 0.89232136291212172 0.60263157894736863 838.39999999999975 0.47261008354081935 0.77879370653734148 1.4575989412533723 1.0629624185107869 0.70438902817574034 0.53343512205450005 147.50000000000003 93.500000000000014 0.56676600336881167 0.53441050920085564 1.0048759232273294 0.43283384517632112 -98.499999999999986 447.50000000000006 316.50000000000006 16.936200792320069 262.25000000000006 1.3550420168067228 0.72674289420062943
decision_type=10 8 8 10 8 10 10 10 8 10 8 10 10 10 10 10 8 10 10 2 10 10 10
left_child=1 3 -3 9 -4 6 -2 13 18 -1 11 -11 17 14 16 21 -6 -7 -5 -10 -18 22 -15
right_child=5 2 4 8 7 12 -8 -9 19 10 -12 -13 -14 15 -16 -17 20 -19 -20 -21 -22 -23 -24
leaf_value=0.11392019921312441 -0.023561895838757924 0.071286751750584479 0.032710998249950628 0.002950286616948428 0.018907859147350888 0.1122417216658928 0.070932956965080285 0.033612849753009127 0.013260813928821081 0.049637905721841721 0.088359088273364861 -0.035732699025271 0.047867615092957803 -0.043028300189267676 0.032422506852717151 0.0069717698747638127 -0.011614422605591271 0.046465811743204605 0.069261039017220874 -0.038112657492562332 -0.041261202174997486 -0.014331143836975167 -0.016560029755451348
leaf_weight=5.3779709637165096 3.2390828877687445 5.262914150953292 4.6243229210376731 2.989154860377309 2.820949375629425 33.895459070801735 4.4188053458929062 2.7270146310329428 3.1101022213697433 5.6557184904813749 4.8569819182157508 3.4145841896533966 5.5771541893482199 152.55826823413372 2.8019752204418173 3.7082868218421927 4.9177835285663702 4.1314339935779563 3.2550554424524307 5.7167305797338486 15.30522984266281 3.805947244167327 2.4459595680236808
leaf_count=21 16 23 22 15 15 126 19 14 15 26 22 17 22 949 15 20 28 16 15 32 92 22 15
internal_value=-0.000745908 -0.0210236 -0.0321358 0.0430152 -0.0352651 0.0909742 0.0328592 -0.0370718 0.00653284 0.0697715 0.046234 0.0171426 0.100215 -0.0382673 -0.0203379 -0.0409768 -0.0278348 0.106469 0.0423067 -0.020504 -0.0349387 -0.0421331 -0.0427195
internal_weight=286.617 235.355 200.979 34.3763 195.716 51.2619 7.65789 191.091 15.071 19.3053 13.9273 9.0703 43.604 188.364 25.8459 162.518 23.044 38.0269 6.24421 8.82683 20.223 158.81 155.004
internal_count=1577 1378 1215 163 1192 199 35 1170 77 86 65 43 164 1156 150 1006 135 142 30 47 120 986 964
is_linear=0
shrinkage=0.05


Tree=17
num_leaves=31
num_cat=0
split_feature=75 69 21 1 50 10 8 71 54 35 32 79 38 70 48 28 43 46 41 33 52 22 22 2 47 47 52 7 21 39
split_gain=103.959 27.94 19.381 17.9948 14.6899 9.65276 9.61933 9.3792 19.8258 8.28985 8.19114 7.84152 7.16917 6.3594 5.94734 5.45307 5.32483 5.12372 4.96488 6.06214 4.72993 4.32935 8.79443 4.26063 4.28653 4.18762 4.47187 4.73744 5.18597 4.18717
threshold=31.043996700034025 1.1489434789067146 -51.249999999999993 1.082044836170885 0.6019180652693964 102.77184677124025 0.99125969600536534 95.665677031465918 762.50000000000011 0.8105806026186283 2.1631679192129503 6.5000000000000009 0.26034151984638504 42.811567208680778 0.35285386721550854 0.15154153218957025 1.4325882751918693 1.394278420803035 0.23038232125386937 1.7964847187092428 632.50000000000011 -82.349999999999667 -191.6999999999999 1.1231014129989993 0.15110886034633089 0.46162975008472734 546.50000000000011 0.94834372400244582 -23.749999999999996 0.1407647721981227
decision_type=8 8 10 10 10 10 10 10 8 8 10 10 8 10 10 10 8 10 10 10 8 10 10 10 8 8 10 10 10 10
left_child=1 2 10 4 11 17 16 8 -2 12 -1 -4 23 -11 -14 -8 -3 -5 19 -17 -15 22 -12 -10 -25 26 -16 28 -28 -13
right_child=7 6 3 5 -6 -7 15 -9 9 13 21 29 14 20 25 18 -18 -19 -20 -21 -22 -23 -24 24 -26 -27 27 -29 -30 -31
leaf_value=0.045918484897106322 -0.038788229103727589 0.07458547478068929 0.0088478163277976186 0.022868942015578403 -0.020835730837607303 0.051833273788664674 -0.02850685345937843 -0.036003256454425279 0.026413005959235542 -0.032155103358954107 -0.029092885647813385 0.023247732854211934 -0.028786333725218539 0.045790618730784299 0.00087777541341118063 0.05138811852723324 0.0034685414625050984 -0.035043050716611679 -0.031074827559640517 -0.020019833184197009 -0.020865377230834627 -0.04371212559101046 0.040807666404649189 0.017790571601388548 -0.033301877221705321 -0.011809571841041547 -0.0045499234753769739 0.076264954279918695 0.060000564990031417 0.082152326783135582
leaf_weight=8.575229689478876 53.15878926217556 4.4016442596912357 4.6702052354812613 5.6609314978122738 4.0295602381229392 9.360675245523451 23.473624348640442 81.352048069238663 5.4503124207258251 25.699871942400932 8.4784666746854835 4.2143710553646079 3.7255968302488318 4.6776560097932789 5.8210770636797013 7.1504452973604185 5.3338511288166055 8.1538195908069593 4.5287630110979071 3.9950695782899857 4.1842142194509515 5.5251653939485541 7.5798612087965003 4.844603136181834 14.667749240994452 4.1241722404956809 6.5079731792211577 8.9991730749607068 4.7429824769496891 52.599645957350731
leaf_count=31 235 15 17 21 16 33 99 356 21 108 34 15 15 18 23 26 20 31 19 16 17 21 28 19 61 16 25 32 17 172
internal_value=-0.000493608 0.0292865 0.0422813 0.0539475 0.0672031 0.015246 -0.00252153 -0.0224382 -0.0147178 -0.000759067 0.00734367 0.0732141 0.0106045 -0.0198732 0.0252699 -0.0137152 0.0395746 -0.0113704 0.00881779 0.0262513 0.0153939 -0.00933694 0.00435964 -0.00952963 -0.0203676 0.0326485 0.0398577 0.0504942 0.0253386 0.0782606
internal_weight=395.688 167.731 118.848 88.6892 65.5138 23.1754 48.8834 227.956 146.604 93.4454 30.1587 61.4842 58.8836 34.5617 33.921 39.1479 9.7355 13.8148 15.6743 11.1455 8.86187 21.5835 16.0583 24.9627 19.5124 30.1954 26.0712 20.2501 11.251 56.814
internal_count=1577 614 419 305 220 85 195 963 607 372 114 204 229 143 128 160 35 52 61 42 35 83 62 101 80 113 97 74 42 187
is_linear=0
shrinkage=0.05


Tree=18
num_leaves=31
num_cat=0
split_feature=51 67 52 24 15 51 64 52 15 8 88 22 30 34 42 45 41 78 72 24 1 35 41 49 47 34 36 4 4 88
split_gain=191.648 30.8109 26.9217 23.5865 17.7425 15.3531 12.422 11.684 10.9449 9.12935 11.2849 8.70538 7.89243 7.88495 7.58169 6.15391 4.92986 6.81583 4.589 4.24919 4.22703 4.17465 3.84642 3.06097 2.67801 2.38593 3.18981 2.35843 2.29544 4.41965
threshold=0.60154399149584514 57.250000000000007 472.50000000000006 306.00000000000006 120.5987014770508 0.57407385225024021 0.12534601992634856 564.50000000000011 203.70639801025393 0.96649519691820107 0.25956567019603566 -90.949999999999918 0.63650065660476696 0.32040636965872976 0.67895050239346055 0.35044018778787528 0.24456194106915044 25.092500826836979 50.106084363834434 51.500000000000007 1.6153919636963028 0.81596714240092749 0.22866764128226127 2.2626033447669411 0.28245002819796605 0.12616369133747632 0.097377797224653104 0.99261401706347407 0.84396361707854306 0.20177075473438758
decision_type=10 10 10 8 10 10 10 10 10 10 10 10 10 10 8 10 10 10 10 10 8 8 10 8 8 10 10 10 10 10
left_child=1 3 6 5 19 28 -2 8 13 15 21 14 23 16 -9 -7 17 -3 25 -4 -5 27 -6 -12 -19 26 -13 -11 -1 -30
right_child=2 7 4 20 22 9 -8 11 -10 10 12 18 -14 -15 -16 -17 -18 24 -20 -21 -22 -23 -24 -25 -26 -27 -28 -29 29 -31
leaf_value=-0.049649890655932893 -0.0073424744188369147 -0.016341448294092419 0.012839920981243178 -0.0060194263611660645 0.059936126522453406 0.021408283408559173 0.078305115110958654 0.044690209042330592 0.068950937117373601 -0.046961741656633554 0.07218986123214817 0.017461296853263392 -0.012686169263292774 -0.042554360716546974 -0.027379800741903049 -0.038358755093768675 -0.016266710601760374 0.07054265289378113 0.021475253605095904 -0.041906747592937242 0.047072277366955351 0.0091023648250163954 0.011915206550797905 0.016369244989836808 0.020628923828090739 -0.044746454889659837 -0.029763501972234704 -0.0082192025181811665 -0.045553187804066385 -0.02305340949393514
leaf_weight=52.083010196685791 4.3139359652996054 4.3053078949451544 4.9319246411323538 5.1880842149257687 16.02699634432793 4.2871180772781363 73.848878920078278 10.276184022426602 10.65100049972534 10.046200826764112 7.4184584915637979 4.573407024145129 6.2585378587245932 4.7246321439743033 4.5910115540027627 32.685620695352554 5.4745777547359458 7.5896403491497013 4.285187602043151 8.8832733035087568 10.815397024154661 8.5017564892768842 6.296153873205184 4.4961871504783639 5.551861286163331 13.656067460775374 9.6939525604248029 6.8739882111549369 48.782640129327774 46.154396340250969
leaf_count=204 15 15 17 18 51 15 226 34 34 38 24 16 22 18 16 124 19 25 15 33 35 30 21 15 19 52 35 25 191 175
internal_value=0.00167941 -0.0177152 0.0571676 -0.0267457 0.0207187 -0.0308884 0.073545 0.00806265 0.0282163 -0.0131218 0.00243602 -0.00857859 0.0315864 0.0106636 0.0221119 -0.0310473 0.0229534 0.0354748 -0.0229843 -0.0228151 0.030519 -0.0188093 0.0474836 0.0540236 0.0524056 -0.0303138 -0.0144734 -0.0325592 -0.0404701 -0.0349691
internal_weight=443.265 328.964 114.301 243.591 36.1383 227.588 78.1628 85.3728 38.297 80.5679 43.5951 47.0758 18.1732 27.646 14.8672 36.9727 22.9214 17.4468 32.2086 13.8152 16.0035 25.4219 22.3232 11.9146 13.1415 27.9234 14.2674 16.9202 147.02 94.937
internal_count=1577 1214 363 916 122 863 241 298 130 293 154 168 61 96 50 139 78 59 118 50 53 93 72 39 44 103 51 63 570 366
is_linear=0
shrinkage=0.05


Tree=19
num_leaves=31
num_cat=0
split_feature=71 21 54 37 34 34 29 54 71 22 82 15 34 67 32 44 76 11 44 69 57 31 31 84 4 46 32 47 71 57
split_gain=281.129 44.4337 27.2289 19.9766 12.6835 12.0289 12.0645 9.87159 8.95968 8.04135 7.57395 8.61983 5.54419 5.38862 5.26525 4.94395 6.18294 3.42862 3.06721 2.14596 1.96043 1.70528 1.18266 2.76544 0.663537 0.548273 0.570448 0.499155 0.489736 0.482646
threshold=78.617753659869308 -53.499999999999993 823.50000000000011 0.068689271478913058 0.50396602671551671 0.064476877536498292 0.66147204240163171 1129.5000000000002 97.20156923920085 -352.60000000000025 30.500000000000004 131.99677276611331 0.19095141140629085 -75.249999999999986 2.7014509419148918 0.30845808594923924 31.461964371359237 328.80000000000007 0.26976717563471936 0.98634833484466433 0.1855456446208488 17.493667453578443 34.568740433595359 23.500000000000004 0.85450970574766882 3.5544542990679617 4.5770940296780518 0.1476254848810083 72.762795567722677 0.1876789805269187
decision_type=10 10 8 10 10 10 10 10 10 10 8 8 8 10 10 10 8 10 10 8 8 2 2 8 10 10 10 8 10 10
left_child=2 3 22 7 10 6 8 18 -3 -5 27 15 -13 -9 -7 16 -12 -11 -2 -15 -14 -22 25 -24 -19 28 -27 -4 -1 -16
right_child=1 5 4 9 -6 14 -8 13 -10 17 11 12 20 19 29 -17 -18 24 -20 -21 21 -23 23 -25 -26 26 -28 -29 -30 -31
leaf_value=-0.04664861848281384 -0.042876998859153498 -0.031398653766768043 -0.016823446738669205 0.00073199487669973703 0.067398625562680656 0.031420757369394335 0.082036474888471655 -0.021415333408207293 0.045712527162639661 0.032453112555021597 0.067142779043546194 0.019991924695988518 -0.04518550765729458 0.060482754407801792 0.091097569050598348 -0.0095300813329089462 -0.0025320891705927114 0.044889520720055247 0.00030983647720099375 0.011903386240958715 0.010943173001523667 -0.028285289751266197 -0.042138493476466893 0.0060511112579464928 0.09196010273621423 -0.0086520543197557125 -0.037870085302114574 -0.0451201823657877 -0.02147310772492678 0.055548339847316767
leaf_weight=154.43145644664764 13.291522443294527 6.6867262274026888 3.6005595326423672 6.6113567352294949 4.3254050761461249 5.8955310881137839 8.2768348157405836 4.1112772822380057 6.4163102507591248 8.1911669820547122 7.2787079215049753 5.9871174842119244 11.485865622758867 5.5091329365968678 57.993963927030563 7.3183485418558112 5.0596692413091668 4.4561365991830817 5.7516532391309729 4.4154478162527093 3.8508012741804105 6.0779260098934174 7.0747071802616093 4.359607309103013 8.3175112009048444 3.8795970082283011 3.5181331932544708 13.488940328359602 4.4458407908678046 6.9638986587524405
leaf_count=682 54 26 15 25 15 20 27 16 22 29 26 23 48 19 183 28 19 15 22 16 15 25 31 18 27 16 15 58 19 23
internal_value=-0.000839249 0.0522169 -0.033867 0.0185487 -0.00694642 0.0739216 0.0383695 -0.0076878 0.00692513 0.0491884 -0.012917 -0.00229668 -0.020126 0.0231907 0.0839661 0.0223287 0.0405231 0.0637403 -0.0304685 0.0419378 -0.0317337 -0.0134616 -0.0441429 -0.024756 0.0799906 -0.0453201 -0.0254022 -0.040418 -0.0460829 0.0881864
internal_weight=399.071 152.888 246.183 60.6552 68.4733 92.2333 21.3799 33.079 13.103 27.5762 64.1479 47.0584 27.4017 14.0359 70.8534 19.6567 12.3384 20.9648 19.0432 9.92458 21.4146 9.92873 177.709 11.4343 12.7736 166.275 7.39773 17.0895 158.877 64.9579
internal_count=1577 524 1053 223 272 301 75 127 48 96 257 184 111 51 226 73 45 71 76 35 88 40 781 49 42 732 31 73 701 206
is_linear=0
shrinkage=0.05


Tree=20
num_leaves=26
num_cat=0
split_feature=53 69 4 50 7 25 6 3 21 63 29 68 64 30 7 46 37 27 49 3 17 16 66 5 21
split_gain=203.301 46.0191 23.9725 17.1718 8.94103 8.79226 8.12545 6.82894 6.45498 7.26739 7.05005 6.3314 5.67671 5.0479 4.17916 4.17782 3.42368 5.89793 2.84792 2.82191 2.55822 3.73374 0.871858 0.3184 0.0317969
threshold=0.24322425201276698 0.8372081696269118 1.0558315819089443 0.52744040486506416 0.6419364966553055 484.19999999999987 1989.5000000000002 0.64932432432432441 -42.749999999999993 0.37735973159434827 0.52403529733419429 -85.800000000000168 0.010910228679481425 0.58579587936401378 0.94373864478396363 1.7401456233572525 0.29039938556067596 0.056319363990762081 1.9555950046295036 1.4316770186335408 384.25000000000006 246.45000000000005 269.50000000000006 0.26549536104623744 -25.749999999999996
decision_type=10 8 10 8 10 8 8 8 8 10 10 8 8 10 10 10 10 10 10 10 8 8 8 10 10
left_child=1 5 3 8 20 11 12 -5 9 -3 -10 18 -6 -11 -7 -14 19 -18 -1 22 21 -2 -9 -24 -12
right_child=4 2 -4 7 6 14 -8 16 10 13 24 -13 15 -15 -16 -17 17 -19 -20 -21 -22 -23 23 -25 -26
leaf_value=0.035795442920262523 0.087983294667967338 -0.022715095615657637 0.066189457788456904 0.016298950295169642 0.066109264098990456 0.030272229880369317 0.10380729970299392 -0.012226328794595483 0.032263855707948284 0.0094602745923094006 -0.016831911488598229 0.017521352524260264 0.033368529290188936 0.092097945570246129 -0.035183120180627789 -0.030049693873772862 0.042559666665561866 -0.036680851371158445 0.10427790609998833 0.0073423946594910472 0.10533121493430764 0.020468391407524465 -0.022317017762283252 -0.042420607808133469 -0.039412392955258307
leaf_weight=3.7368304729461652 4.6775141209363911 3.256237328052519 5.5924046188592902 5.300394043326377 4.126304656267167 4.178811818361285 3.8803112953901282 3.5433054864406577 4.7199586033821133 3.3422233909368515 2.4578119665384284 5.8622255474329021 3.8643908798694611 3.9778601229190826 3.6090201437473297 4.571544349193573 2.9113987982273093 4.9049852043390274 6.7404178529977798 2.7606857270002356 31.643448054790497 4.4328333437442788 5.5498636215925208 147.6976312994957 8.0224020332097989
leaf_count=17 17 18 27 27 16 21 16 22 25 16 15 27 17 18 20 21 15 29 27 16 109 16 32 951 47
internal_value=0.000564389 -0.020631 -0.0283824 -0.0313661 0.0840174 0.0434412 0.0481812 -0.0370211 0.00648331 0.0347994 -0.014151 0.063263 0.0246118 0.060039 -0.000612839 -0.000541084 -0.0387965 -0.00568624 0.0850998 -0.040373 0.0969757 0.0604062 -0.0412544 -0.041842 -0.0360443
internal_weight=285.361 228.164 204.037 198.445 57.1963 24.1273 16.4426 172.668 25.7765 10.5763 15.2002 16.3395 12.5622 7.32008 7.78783 8.43594 167.368 7.81638 10.4772 159.551 40.7538 9.11035 156.791 153.247 10.4802
internal_count=1582 1370 1258 1231 212 112 70 1092 139 52 87 71 54 34 41 38 1065 44 44 1021 142 33 1005 983 62
is_linear=0
shrinkage=0.05


Tree=21
num_leaves=31
num_cat=0
split_feature=75 51 61 24 50 52 71 41 1 64 50 75 35 38 70 80 13 32 38 34 36 7 71 29 43 36 10 41 35 2
split_gain=106.704 29.1993 32.8405 15.8292 12.6459 12.2801 15.0648 11.2263 9.34634 8.87913 7.7078 7.06584 6.45559 6.22574 6.19784 5.73255 5.66966 5.58883 5.57307 4.39426 5.5645 4.77304 5.6524 4.6795 4.1461 3.76343 5.00352 3.70217 3.50257 3.44201
threshold=31.401550878644965 0.60154399149584514 693.00000000000011 100.50000000000001 0.46291745723029792 544.50000000000011 95.665677031465918 0.205138178881523 1.1222246777092126 0.11061131867043922 0.57017533187980451 43.538940206310436 0.81710606770682392 0.36716603989340746 22.209744187789482 21.500000000000004 412.25000000000051 2.4291160768363151 0.13507821558117672 0.45443620831471193 0.09483359784542876 0.94446471730240344 72.026758698005168 0.63678605854511272 2.1194347036067853 0.092916488918682857 109.14553833007814 0.12038596539189582 0.77592293900592646 1.1023434215391295
decision_type=8 10 10 10 10 8 8 10 10 10 10 10 8 8 10 8 10 8 8 10 10 10 10 8 10 8 10 10 10 10
left_child=1 2 27 4 -4 -2 11 14 24 -3 13 12 19 -10 -5 -8 -11 -16 -17 20 28 22 23 -22 29 26 -14 -1 -7 -6
right_child=5 9 3 7 8 6 15 -9 10 16 -12 -13 25 -15 17 18 -18 -19 -20 -21 21 -23 -24 -25 -26 -27 -28 -29 -30 -31
leaf_value=0.014813880806135847 -0.038881809792738455 0.046997456513420022 -0.017782180253816463 0.081626589985987805 0.076225558997639414 -0.033120450724569921 -0.040989759615388983 -0.027859141935720061 0.07047095468224833 0.021893920951485381 -0.010506303095603518 0.050209751534893335 -0.038505117572224856 -0.0020235114712129423 0.052763718634197834 0.036094326065333887 -0.035794032732336417 -0.0073509646420315371 -0.021613354782049149 -0.032947550747598753 0.064327035682303621 0.046902931853588632 -0.02551684289813648 -0.0028330932894521173 0.024476679780734804 -0.041455897850907107 0.029498015402927454 -0.038616059554855447 0.020318074500031352 0.022535393002048966
leaf_weight=3.6494346261024502 77.759604677557945 4.0422784239053753 4.985088810324668 4.4618555605411592 61.872296422719955 7.7260542660951597 45.079189136624336 9.730645224452017 9.7632790505886078 4.5158202052116421 7.4527381062507621 5.8503990769386283 3.7609608173370379 4.0103454738855371 5.4975976347923252 4.2764999568462398 21.977590218186378 9.0375037044286728 19.952171236276627 4.9010450839996329 4.1254521906375929 12.478049114346502 7.0443121939897528 5.0878635495901117 6.0460855215787879 12.649035200476645 5.2636251747608185 12.77357943356037 3.903297632932663 4.2155208438634864
leaf_count=15 350 15 19 15 199 31 205 38 34 18 28 22 16 15 19 18 94 34 89 20 15 46 28 19 22 54 21 53 15 15
internal_value=0.000115051 0.0292736 0.038676 0.0472507 0.0567274 -0.0229939 -0.0140887 0.0139916 0.0608522 -0.0147364 0.0296744 0.00183099 -0.00307402 0.0506551 0.0357497 -0.0305964 -0.0255224 0.017319 -0.0104007 0.00768472 0.0132955 0.0248641 0.00621129 0.0305932 0.0694955 -0.0248919 0.000143962 -0.0265743 -0.0149956 0.0731878
internal_weight=393.889 174.032 143.496 127.073 98.3454 219.858 142.098 28.7276 93.3603 30.5357 21.2264 72.7901 66.9397 13.7736 18.997 69.3079 26.4934 14.5351 24.2287 45.2661 40.365 28.7357 16.2576 9.21332 72.1339 21.6736 9.02459 16.423 11.6294 66.0878
internal_count=1582 633 506 438 332 949 599 106 313 127 77 287 265 49 68 312 112 53 107 174 154 108 62 34 236 91 37 68 46 214
is_linear=0
shrinkage=0.05


Tree=22
num_leaves=31
num_cat=0
split_feature=51 50 28 52 0 34 24 43 15 8 22 69 51 58 82 58 3 37 46 3 29 13 69 46 75 5 33 32 65 90
split_gain=176.068 29.7285 29.9265 20.448 17.1479 13.8131 11.8322 10.8127 9.96452 10.0735 8.71877 5.91689 5.49064 5.87291 5.24089 5.23077 5.14828 4.40226 5.42044 5.27791 3.8213 3.60692 3.40055 3.57143 3.35325 3.04385 2.83559 2.62627 2.60493 2.59702
threshold=0.60154399149584514 0.56944265942466188 0.091187079780734856 527.50000000000011 2178.0000000000005 0.35826212796518714 314.00000000000006 1.2298252638411207 210.31413269042972 0.93121424613224435 -165.70000000000024 1.1617689349006077 0.57345507001732121 2.5000000000000004 21.500000000000004 1.5000000000000002 1.1389655172413795 0.041053789025885072 1.8716079538075236 0.913664596273292 0.67915062109629332 391.50000000000006 1.2949952122566233 2.0028303060915293 31.981541232525309 0.40466344997595 1.1335041379015744 2.4017235417500582 448.50000000000006 0.94443437399779706
decision_type=10 8 8 10 10 10 10 8 10 10 8 10 10 10 10 8 10 8 8 10 8 10 10 10 10 10 8 8 8 10
left_child=1 8 6 4 -2 7 17 25 12 -10 -5 15 22 -14 -11 -9 -13 -3 19 -19 -16 -6 26 -24 -15 -4 -1 -26 -17 -23
right_child=3 2 5 10 21 -7 -8 11 9 14 -12 16 13 24 20 28 -18 18 -20 -21 -22 29 23 -25 27 -27 -28 -29 -30 -31
leaf_value=-0.0045118414435009061 -0.025617206076128326 0.0047150153435144664 0.015536421935562917 0.049336367882776698 0.024511088030564537 -0.034989713191409762 0.047238943015414196 -0.01375863163918621 -0.038908360627500485 -0.023737888921873351 -0.011236304724578882 0.083673012891544052 -0.036090587904095278 -0.021321617067714051 0.012661763713282046 0.0071875735054273736 0.018778319911170255 0.019014387355766812 -0.04454523603997914 -0.034037416289081322 0.06795454076827151 0.075406159734287631 0.021868697307871762 -0.032448592781468152 0.047296192287527454 -0.036249459119411777 -0.042601045512099783 -0.0040312172173620296 0.048478733085163296 0.029498063181622677
leaf_weight=5.3375797271728507 4.47858902812004 8.2426299005746824 4.4927089810371381 8.5430761873722059 5.4191695153713217 7.5080666095018378 4.6716389060020438 5.430369287729266 10.774501278996469 4.2893398106098202 14.999105066061022 12.190386742353441 13.870566621422769 5.107470527291297 8.4656633734703028 5.422040298581126 4.8887921571731559 7.8455432802438763 36.745335280895233 9.1227478235959989 4.5790090560913095 72.451773703098297 4.2731125354766828 6.2943934947252274 4.8904715180397007 5.1161282360553741 129.62042257189751 4.0675013214349756 16.079545050859451 5.0230956077575675
leaf_count=20 16 29 15 27 17 28 15 20 41 16 53 39 51 18 29 19 16 28 143 33 15 220 15 23 17 19 517 15 52 16
internal_value=-0.000371489 -0.0187341 0.00015257 0.0538305 0.0648773 0.025204 -0.0228638 0.0341189 -0.0306461 -0.00291026 0.0118592 0.0444322 -0.0350982 -0.0141257 0.0203672 0.0281284 0.0671635 -0.0288161 -0.0339538 -0.00981505 0.0355274 0.0700136 -0.0390003 -0.0104929 0.00849278 -0.0128543 -0.0411389 0.0259258 0.0388485 0.0728435
internal_weight=440.241 329.326 127.756 110.915 87.3726 61.128 66.6279 53.62 201.57 28.1085 23.5422 44.0111 173.462 27.936 17.334 26.932 17.0792 61.9563 53.7136 16.9683 13.0447 82.894 145.526 10.5675 14.0654 9.60884 134.958 8.95797 21.5016 77.4749
internal_count=1582 1233 456 349 269 208 248 180 777 101 80 146 676 101 60 91 55 233 204 61 44 253 575 38 50 34 537 32 71 236
is_linear=0
shrinkage=0.05


Tree=23
num_leaves=25
num_cat=0
split_feature=90 22 8 70 8 1 8 31 39 48 45 41 21 68 34 41 1 33 48 41 28 39 39 38
split_gain=266.083 38.2578 32.8293 15.6694 13.6641 11.2682 10.5743 10.0007 9.32026 8.30628 7.81645 6.80191 6.45358 8.58776 5.07824 4.72969 4.38923 4.17508 4.0664 3.00547 2.22947 2.03678 2.02259 0.101782
threshold=0.92434258943035064 -117.95000000000003 0.9638237726537312 33.85501697747025 0.93593306384651243 1.0279311130277717 0.9816982909904074 11.930431864594205 0.10545713177292125 0.37344409103278803 0.40456617521509847 0.38161364667776698 -8.2499999999999982 79.300000000000026 0.44109367615951367 0.14265881216998891 1.7490576326433547 1.398856606373865 0.6351353331500923 0.15365831307878106 0.18188204489574356 0.81712962962962965 0.14946754276651186 0.088450158196586012
decision_type=10 10 8 10 10 10 10 2 10 10 10 8 10 8 10 10 10 10 10 10 10 8 10 10
left_child=2 4 3 22 5 -2 7 -3 18 -7 -9 12 13 15 21 -5 -11 -13 -6 -10 23 -4 -1 -12
right_child=1 6 14 11 8 9 -8 10 19 16 20 17 -14 -15 -16 -17 -18 -19 -20 -21 -22 -23 -24 -25
leaf_value=-0.0048809577229714752 -0.030839331229203033 0.015036896774617101 -0.044454397100251952 -0.0001899354416775749 -0.042978563287437335 -0.0098660515689467237 0.00086598977512499376 0.020074996495735489 -0.0017637329873982322 0.08061795667494924 0.052767334988662609 -0.035264146650710836 0.083074945033791536 -0.027509668309736748 8.1698591549841639e-05 0.06588262992148923 0.018564632121810233 0.020544179930861835 0.0067878938396862994 0.054171256140542891 0.037201748552103835 -0.011270391407347723 -0.044588671845610155 0.08665272114931126
leaf_weight=4.5758611708879497 3.9062245935201672 7.3418338298797599 180.01232509315014 3.9920441061258298 12.602932989597326 3.8671266734600094 5.3260538130998603 6.1871201545000067 3.934329614043234 14.510722786188127 6.0209546685218802 5.7113813757896406 5.1729817390441921 5.3914578258991268 6.9203590601682654 7.3865101039409637 4.3717368692159644 5.7666732519865036 5.527223825454711 4.927259162068367 4.8573070168495169 5.5650531202554694 12.321482330560682 69.636178225278854
leaf_count=19 15 25 818 16 51 15 19 21 15 48 19 23 18 21 28 27 15 21 20 17 16 23 54 218
internal_value=-0.000108698 0.0513404 -0.0326083 0.00330705 0.0168882 0.0416131 0.0695868 0.0734287 -0.00814326 0.0548282 0.0781454 0.0229777 0.0387295 0.0211452 -0.041965 0.0445591 0.0679074 -0.00782617 -0.0282449 0.0316769 0.0823068 -0.043525 -0.0347092 0.0846796
internal_weight=395.833 153.017 242.816 50.3184 53.6476 26.6558 99.3694 94.0434 26.9917 22.7496 86.7016 33.421 21.943 16.77 192.498 11.3786 18.8825 11.4781 18.1302 8.86159 80.5144 185.577 16.8973 75.6571
internal_count=1582 514 1068 199 196 93 318 299 103 78 274 126 82 64 869 43 63 44 71 32 253 841 73 237
is_linear=0
shrinkage=0.05


Tree=24
num_leaves=26
num_cat=0
split_feature=7 69 4 50 18 69 3 62 57 50 50 23 80 83 84 29 36 21 3 4 4 9 44 41 40
split_gain=179.362 42.3627 20.7104 12.8971 11.339 7.72785 7.17279 7.08636 6.98487 8.10265 6.35123 10.369 6.17372 4.68018 4.66701 3.81478 3.31162 3.11081 2.92891 1.39412 1.23073 0.731449 0.719845 0.449012 0.264655
threshold=0.75239612213796536 0.89232136291212172 1.0558315819089443 0.52188785933564164 838.39999999999975 0.6643269769319945 0.62645348837209314 0.8694137471284028 0.21669246646026835 0.55821208890746921 0.53343512205450005 264.50000000000006 11.500000000000002 20.500000000000004 32.500000000000007 0.63964180275797855 0.43283384517632112 0.75000000000000011 1.3550420168067228 0.82193281232150872 0.80824353383664926 233.83440399169925 0.17342631030763142 0.17418457753911334 0.72149830096948375
decision_type=8 8 10 8 10 10 8 10 10 8 10 8 10 10 8 8 10 10 10 8 10 10 8 10 10
left_child=7 4 3 12 10 -6 -5 8 9 23 -2 -12 -3 -13 -14 -16 18 -9 19 20 -8 -21 -7 -1 -23
right_child=1 2 -4 6 5 22 16 17 -10 -11 11 13 14 -15 15 -17 -18 -19 -20 21 -22 24 -24 -25 -26
leaf_value=0.051331716076778625 0.09551822378590917 0.047742459014531183 0.059420719197126895 0.027780092493451303 0.040517199389777173 -0.0060322494287119903 -0.030879974523423587 0.097307178679439221 -0.0096947009727224136 0.00606036585068573 0.073292587518411431 0.032518182025511086 -0.034224427553425217 -0.037465270790008595 0.053114649405105047 -0.019064542033788705 0.0070595742127731028 0.050553868951695891 0.00086574646051373882 -0.014437945451761115 0.012064759366220713 -0.042055715668876309 -0.038818321333259076 0.10881239164094905 -0.014727700278487105
leaf_weight=3.9174323678016663 5.6923545449972179 5.3318857997655895 5.5224453955888739 3.5734337717294684 5.1920090913772574 2.7145764380693409 2.4768121540546408 33.404595792293549 4.0177718997001639 4.4159365296363839 6.7538893967866871 3.2678875327110299 8.0225522071123088 4.4815412908792496 2.9760689437389383 2.6618135720491409 3.6947422176599494 8.0264102071523649 4.4149354398250571 3.8672926872968665 2.4285433888435364 142.50310437381268 6.3138006329536447 4.2835141867399216 2.2748971581459037
leaf_count=16 20 27 26 16 24 15 16 110 17 19 29 14 46 23 15 15 20 28 26 23 14 957 35 16 15
internal_value=0.000596243 -0.019749 -0.0290031 -0.0319602 0.0306507 -0.00364208 -0.0364231 0.0781443 0.0460178 0.0631682 0.0538299 0.032362 0.00674683 -0.00761004 -0.0114195 0.0212985 -0.0380043 0.0896546 -0.0390962 -0.0402433 -0.0111762 -0.0411214 -0.030545 0.0899181 -0.0417303
internal_weight=282.23 224.165 189.749 184.226 34.4161 14.2204 165.234 58.0657 16.6347 12.6169 20.1957 14.5033 18.9923 7.74943 13.6604 5.63788 161.66 41.431 157.966 153.551 4.90536 148.645 9.02838 8.20095 144.778
internal_count=1582 1376 1216 1190 160 74 1087 206 68 51 86 66 103 37 76 30 1071 138 1051 1025 30 995 50 32 972
is_linear=0
shrinkage=0.05


Tree=25
num_leaves=31
num_cat=0
split_feature=75 51 61 24 50 41 1 32 50 32 68 50 90 22 8 32 1 38 8 22 84 45 38 55 50 41 16 43 45 41
split_gain=96.0003 25.2296 28.5676 13.1361 10.7915 10.4031 9.90926 8.69286 11.3674 11.1504 8.58611 8.15548 7.28136 5.6311 6.53808 5.9198 5.55992 5.54598 5.21546 4.09427 4.9609 3.77358 3.69179 3.65049 3.58346 3.5341 3.45467 2.97354 3.52161 2.97267
threshold=31.401550878644965 0.60258144815384906 693.00000000000011 100.50000000000001 0.46291745723029792 0.205138178881523 1.1222246777092126 3.9956780107237373 0.59661492052948217 1.8689861462633768 19.650000000000265 0.57017533187980451 0.15979955291147885 -102.29999999999994 0.94308390776158868 2.7764190599220284 1.059569457182286 0.35338397971734492 0.96604262588843315 -39.950000000000038 26.500000000000004 0.62303146128795872 0.42340308300170609 0.26193788810912993 0.54514428768443479 0.12038596539189582 241.50000000000003 1.927599468908362 0.5450587910989827 0.17643591260866384
decision_type=8 10 10 10 10 10 10 8 10 10 8 10 10 10 10 10 10 8 8 10 10 10 10 8 10 10 8 10 8 8
left_child=1 2 25 4 -4 10 27 8 9 23 -5 17 26 14 24 18 -12 -8 29 -15 -21 -13 -9 -2 -11 -1 -3 -6 -29 -16
right_child=7 12 3 5 6 -7 11 22 -10 13 16 21 -14 19 15 -17 -18 -19 -20 20 -22 -23 -24 -25 -26 -27 -28 28 -30 -31
leaf_value=0.014478229690314055 0.055453521082799176 0.051176615838269546 -0.01713301303337399 0.072126901598429091 0.06856528841799113 -0.027308657881095152 0.066934747827381111 -0.03834397571908757 -0.035259749908859071 0.011438183967333157 -0.025010790489958225 0.019235587828995884 -0.031486914520803627 -0.036776046577958944 0.084996423064281179 -0.013067310994345696 0.037608535426099869 0.0009557198848499965 -0.0034945219973726276 0.02930085154703517 -0.020797647497952446 -0.042171906578067048 0.0084508568050167387 -0.0015575741153931644 -0.035884802031454312 -0.037799264928454923 -0.0073742624974084368 0.058713648779135055 -0.00039270530392654704 0.020836448610003281
leaf_weight=3.6646986901760128 8.1891617923974955 3.8685463070869455 4.9242117851972571 7.5827186107635516 64.824758142232895 9.5996046811342222 9.5121545195579529 71.907365337014198 44.107680857181549 5.5241676717996624 6.2109921574592608 3.9498450160026533 19.729027986526489 23.870041400194168 4.7674404084682456 7.3913962244987479 6.0086856335401535 4.6114497482776651 4.4018859565258035 5.9070897996425655 16.594057127833366 4.2455206662416458 4.1271607577800742 3.9662814736366281 10.535141587257383 12.426954507827757 4.7707928270101556 4.6446526199579212 4.528738036751748 3.8561991453170785
leaf_count=15 30 15 19 26 205 38 32 334 205 23 23 15 87 103 17 32 21 17 18 24 71 16 17 15 45 53 19 16 16 15
internal_value=0.000141313 0.027545 0.0358538 0.0435787 0.0520732 0.0135786 0.055751 -0.0221864 -0.0145831 -0.00471612 0.0337595 0.0250007 -0.0151896 -0.0113849 0.00329692 0.0216122 0.0062962 0.0468798 0.0408199 -0.0227597 -0.00695844 -0.0137026 -0.0357272 0.0381466 -0.0198901 -0.0257431 0.021433 0.0645688 0.0323635 0.0614526
internal_weight=390.248 175.103 146.735 130.643 101.241 29.402 96.3171 215.145 139.111 95.0029 19.8024 22.319 28.3684 82.8474 36.4762 20.4169 12.2197 14.1236 13.0255 46.3712 22.5011 8.19537 76.0345 12.1554 16.0593 16.0917 8.63934 73.9981 9.17339 8.62364
internal_count=1582 633 512 444 336 108 317 949 598 393 70 80 121 348 150 82 44 49 50 198 95 31 351 45 68 68 34 237 32 32
is_linear=0
shrinkage=0.05


Tree=26
num_leaves=31
num_cat=0
split_feature=51 51 25 52 28 0 45 4 67 7 30 22 67 4 88 27 41 45 40 57 41 83 33 72 13 37 1 88 71 47
split_gain=157.41 25.9349 23.9488 18.1405 18.0089 15.0997 8.29235 8.05895 9.38302 8.88157 8.32865 7.84932 7.69687 7.04929 6.27609 6.2392 5.78565 5.01572 4.36479 4.31047 3.67226 7.4688 3.49067 3.29083 3.17404 2.93696 3.61081 4.68147 2.6556 2.3515
threshold=0.60154399149584514 0.57407385225024021 587.79999999999984 527.50000000000011 0.091187079780734856 2178.0000000000005 0.3364772356932334 0.9267997669322644 71.250000000000014 0.83999278125135646 0.63823583722114574 -165.70000000000024 65.500000000000014 0.88295071055593533 0.71593342381906233 0.35828440965427272 0.34821788016080701 0.5728401599041314 0.19374390422272161 0.15520525451559938 0.14647669097130908 30.500000000000004 2.1585082570782217 44.194794999185305 391.50000000000006 0.053306863790292237 1.3741762863967948 0.24960959286112663 86.141598809207593 0.28570750750571988
decision_type=10 10 8 10 10 10 10 10 10 10 10 8 10 8 10 10 8 8 10 8 8 10 10 10 10 10 10 10 10 8
left_child=1 2 12 5 6 -2 -3 8 16 -9 23 -5 -1 -4 15 17 -6 -14 25 -18 -13 -22 -11 -10 -7 -8 27 29 -26 -27
right_child=3 4 13 11 7 24 18 9 10 22 -12 20 14 -15 -16 -17 19 -19 -20 -21 21 -23 -24 -25 28 26 -28 -29 -30 -31
leaf_value=-0.039704243992551194 -0.024628396856221466 0.035563454559797023 -0.017965727645606628 0.046344165902112766 -0.032253457403513812 0.023148501709811479 0.020754003771201245 -0.02479569116980912 0.018752519931026234 0.056979941584972493 -0.017795843511397721 -0.045018559559536153 0.053964678938699044 0.052297210884551637 -0.034715606884870367 -0.034721616898312276 0.045856362648658555 -0.010128490886971856 -0.043293707814260896 -0.017632407674141825 0.047087130002703009 -0.030186527545755217 0.010556958555825249 0.074094312927995495 0.070821888444162623 -0.04375295204484108 -0.040567257739051017 0.027748469951601452 0.024803939680509743 0.0029693024755543646
leaf_weight=145.67703437805176 4.3977135121822348 4.9753035306930533 4.686961188912389 8.6586304008960706 18.094569429755214 5.4526876211166373 4.2949207127094295 4.5341144353151348 5.6386637985706347 18.795150846242908 5.8753705322742453 4.2995519340038308 6.7406236380338678 9.9405406713485718 13.927184358239172 4.5554735064506522 4.4108956456184361 4.5890693366527566 23.055473953485489 4.4937177598476419 4.7601090967655182 5.8629837334156036 5.7496452927589408 6.3654157817363739 73.250262767076492 5.4936994463205346 11.436813876032828 6.0358622670173636 4.7255448698997489 4.3966251909732827
leaf_count=598 16 17 17 27 67 17 15 17 19 60 21 15 23 31 54 17 15 16 90 16 16 22 20 20 221 21 43 20 15 16
internal_value=-0.000377898 -0.0180283 -0.029844 0.0506202 -0.00112309 0.0609842 -0.0213622 0.0152783 0.00181489 0.0353058 0.0290196 0.0111101 -0.0349805 0.0300745 -0.0113588 0.00996238 -0.0165937 0.029288 -0.0270841 0.0152713 -0.0109605 0.00551121 0.0469443 0.0515398 0.0657353 -0.014315 -0.0203571 -0.00430457 0.0683825 -0.0246177
internal_weight=435.171 323.763 190.117 111.407 133.646 87.8262 59.6887 73.9575 44.8786 29.0789 17.8795 23.5813 175.489 14.6275 29.8124 15.8852 26.9992 11.3297 54.7134 8.90461 14.9226 10.6231 24.5448 12.0041 83.4285 31.6579 27.363 15.9262 77.9758 9.89032
internal_count=1582 1233 756 349 477 269 222 255 158 97 60 80 708 48 110 56 98 39 205 31 53 38 80 39 253 115 100 57 236 37
is_linear=0
shrinkage=0.05


Tree=27
num_leaves=27
num_cat=0
split_feature=90 8 22 8 31 37 77 45 71 35 83 34 34 41 35 35 54 73 90 28 4 39 41 40 54 54
split_gain=241.181 44.8928 20.3153 12.6293 11.0966 10.9432 10.6412 7.175 7.85725 6.69043 5.61859 6.54557 5.29492 5.08555 5.04504 3.54371 3.34035 6.14445 2.72101 2.49274 1.98747 1.96833 0.758578 0.717762 0.219262 0.211747
threshold=0.87002785565554908 0.97113828838280358 -120.14999999999985 0.9638237726537312 11.930431864594205 0.065559994489599135 31.794725599868446 0.40456617521509847 74.443793660288904 0.8113058581020014 36.500000000000007 0.063205119001701143 0.37845503693815946 0.059074172526061446 0.77826628148019117 0.80543662388074966 1099.5000000000002 34.963364797732531 0.95730783928820629 0.18188204489574356 0.87452274201747271 0.81712962962962965 0.13601639030401244 0.56249006122322764 858.50000000000011 915.00000000000011
decision_type=10 10 10 8 2 10 10 10 10 10 10 10 10 10 8 10 10 10 10 10 10 8 10 10 10 10
left_child=3 2 5 6 15 12 -1 -6 -9 18 11 -7 16 -8 20 -4 -2 -18 -3 -10 -15 23 -13 24 -5 -26
right_child=1 9 4 21 7 10 13 8 19 -11 -12 22 -14 14 -16 -17 17 -19 -20 -21 -22 -23 -24 -25 25 -27
leaf_value=-0.041264263175056028 -0.038630456426972187 -0.041640764449006093 -0.01450269150410821 -0.04478465758621239 0.017761175634889589 0.0051436211651215719 -0.019652073192204397 0.015989779051673255 0.079467949631372159 0.025537633269669943 -0.0022178933471838878 0.03821007045620875 0.035199607888291899 0.018999730204274333 -0.0067129375416168941 0.040662087594259412 -0.033929417413969043 0.039453928204227939 -0.0035623009885918434 0.031413008296784846 0.072391783455947475 -0.010594276529724495 0.081211859488390548 -0.014636147664479774 -0.017829591367453403 -0.037313800120735811
leaf_weight=14.203807547688482 7.2721709012985292 14.199958935379987 5.3186335712671262 150.50104895234108 7.0434871912002555 4.8311214298009935 7.0604128241539028 6.22253793478012 78.91956889629364 6.4209884107112876 4.7410387694835654 4.2888750284910193 6.3000512868165961 3.9374548196792567 5.5745715796947488 4.5586212277412415 4.5130781680345518 4.9254391193389893 7.0760272294282904 4.6193292438983908 4.5215092152357101 5.4912508130073538 11.308832824230192 3.4048950374126425 5.5008103102445594 8.114090681076048
leaf_count=64 29 63 19 715 24 17 28 23 244 23 17 15 23 15 21 15 17 18 27 15 16 23 36 15 24 36
internal_value=-0.000151414 0.0416824 0.0521189 -0.0368379 0.064266 0.0244629 -0.00926752 0.0693821 0.0731924 -0.0164544 0.0465792 0.0574789 -0.000661057 0.0131703 0.0298923 0.012355 -0.0154049 0.00447634 -0.029705 0.0772137 0.0521751 -0.0423772 0.0724023 -0.04335 -0.0438535 -0.0312002
internal_weight=390.87 182.56 154.863 208.31 106.682 48.1806 35.2978 96.8049 89.7614 27.697 25.1699 20.4288 23.0107 21.0939 14.0335 9.87725 16.7107 9.43852 21.276 83.5389 8.45896 173.012 15.5977 167.521 164.116 13.6149
internal_count=1582 625 512 957 340 172 144 306 282 113 85 68 87 80 52 34 64 35 90 259 31 813 51 790 775 60
is_linear=0
shrinkage=0.05


Tree=28
num_leaves=27
num_cat=0
split_feature=7 69 4 50 18 69 3 83 62 86 50 23 18 83 36 79 3 25 22 22 66 7 52 49 34 38
split_gain=159.138 39.53 19.2151 12.4432 10.2472 7.13107 6.86216 5.86904 5.85401 8.6762 5.49447 9.22732 5.10875 4.34952 3.27809 3.15366 2.91577 2.36836 1.75058 1.70871 0.978576 0.943332 0.453634 0.333995 0.68687 0.26576
threshold=0.75239612213796536 0.89232136291212172 1.0558315819089443 0.52188785933564164 838.39999999999975 0.64648974268965442 0.64932432432432441 20.500000000000004 0.82557303456149156 15.604443714755432 0.53343512205450005 264.50000000000006 708.75000000000011 20.500000000000004 0.43283384517632112 19.500000000000004 1.3550420168067228 44.099999999999916 -544.4499999999997 35.999999999999964 262.50000000000006 0.66265256371113368 779.50000000000011 4.5061120754366257 0.65127961121310129 0.067443236485881256
decision_type=8 8 10 8 10 8 8 10 10 10 10 8 10 10 10 8 10 10 10 10 10 10 8 10 8 8
left_child=8 4 3 7 10 -6 -5 -3 9 17 -2 -12 15 -13 16 -9 20 -1 -7 21 22 -10 -8 25 -25 -22
right_child=1 2 -4 6 5 18 14 12 19 -11 11 13 -14 -15 -16 -17 -18 -19 -20 -21 23 -23 -24 24 -26 -27
leaf_value=-0.025396019259886854 0.088802500768625892 0.065452306670651855 0.05533099556214395 0.018536001065603987 0.043242905609558763 0.005088621739687646 -0.030265314261296573 -0.039584302629789736 0.086963438833640605 0.08726884163444297 0.068313996456997969 0.030529366835419292 0.030846997800946165 -0.036965961190464781 0.006972587211775386 0.015220901581967075 0.00089484630846665318 0.024241474000504248 -0.039135351672613755 0.036843876669109543 -0.014913157822761406 0.042582943114577103 -0.0038922191955598796 -0.033236807448312797 0.00047575125555639934 -0.042074862279198204
leaf_weight=3.3174720257520658 5.9203438609838512 2.4955366700887707 5.7367319762706748 5.0306966453790656 4.4331471472978565 2.8234658837318412 2.3689852058887473 8.0400016605854034 39.311562240123749 4.0134597718715668 7.0221782922744724 3.3482130914926538 5.4078371077775946 4.3458826690912247 3.6991079449653617 3.0738616138696679 4.4109664112329474 4.4313140958547592 6.9348373264074334 4.41120821237564 2.3233955502510062 4.2849450856447211 3.8345365822315216 3.4655256122350684 2.2413495033979416 131.9686833769083
leaf_count=15 20 11 26 25 20 15 16 47 126 15 29 14 27 23 20 18 26 19 39 15 16 16 23 24 14 923
internal_value=0.000615167 -0.0191771 -0.0284126 -0.0313996 0.0290714 -0.00369493 -0.0359383 0.00652533 0.0722328 0.0360074 0.0507336 0.0307426 -0.00560287 -0.0074611 -0.0378221 -0.0244211 -0.038961 0.00251652 -0.027056 0.0801925 -0.0401614 0.0836541 -0.0167669 -0.0410718 -0.0218996 -0.0417186
internal_weight=278.695 218.925 184.097 178.36 34.8281 14.1915 159.343 19.0172 59.77 11.7622 20.6366 14.7163 16.5217 7.6941 154.313 11.1139 150.613 7.74879 9.7583 48.0077 146.202 43.5965 6.20352 139.999 5.70688 134.292
internal_count=1582 1376 1216 1190 160 74 1087 103 206 49 86 66 92 37 1062 65 1042 34 54 157 1016 142 39 977 38 939
is_linear=0
shrinkage=0.05


Tree=29
num_leaves=31
num_cat=0
split_feature=63 50 24 52 32 67 33 23 88 30 11 27 12 37 7 79 36 90 48 34 78 46 15 65 48 41 38 23 80 76
split_gain=81.5263 22.1759 16.7141 14.1499 22.8502 12.5475 14.5795 11.8004 9.93126 9.18547 5.7762 5.52141 5.83558 5.98436 4.98233 4.82757 5.53612 4.71044 5.43936 6.52394 4.72929 3.69994 3.6655 5.45675 5.19942 4.70821 3.1797 3.06842 2.84765 2.83112
threshold=0.4878964186522165 0.46291745723029792 206.75000000000003 468.50000000000006 2.6810030030070613 37.500000000000007 2.8143277889433955 240.50000000000003 0.73873874953015584 0.56830197572708141 406.50000000000006 0.27771539421582708 360.50000000000006 0.21935651731048153 0.84419756753235442 8.5000000000000018 0.38054240990171101 0.93869555978332853 0.55522440059949996 0.21655301118015682 41.335211142356663 2.7181882432287927 144.21733093261722 333.50000000000006 0.6298355829919845 0.11359601154187768 0.356103641400348 453.50000000000006 23.500000000000004 28.875051384961353
decision_type=10 10 10 8 8 8 10 10 10 10 10 10 10 8 8 10 10 10 10 10 10 10 10 10 8 10 10 8 10 8
left_child=3 -2 5 -1 8 6 7 -3 9 -5 22 12 13 -7 -13 16 26 20 19 21 -6 -19 23 -10 25 -25 -9 -12 -20 -11
right_child=1 2 -4 4 17 11 -8 15 10 29 27 14 -14 -15 -16 -17 -18 18 28 -21 -22 -23 -24 24 -26 -27 -28 -29 -30 -31
leaf_value=-0.038650562672621215 -0.029193734080563773 -0.018717403435128305 -0.037097981219206863 -0.0056971440838848976 -0.017249019841885437 0.056492752035874318 -0.023385601655146561 0.058085375799637087 -0.033811240361401283 0.078430642597489719 0.051709530652862323 0.068321739600483197 -0.029007051724943701 -0.01636439796360006 0.0052261989420761441 0.064835138591020289 -0.011107959308170955 -0.016162251883558257 -0.044326062793526515 -0.031447074539529801 0.032502904852292229 0.043707707822808743 -0.025421850508547353 0.071524315796053714 -0.022137199155555742 0.0061903367487352199 0.006422583349398216 -0.0023119273918680711 -0.0022052767141007498 0.025573230369806594
